<?xml version="1.0"?>
<opencv_storage>
<!-- Created using Computer Vision Toolbox(tm) for MATLAB(R) -->
<!-- Version 9.8.0.1451342 (R2020a) Update 5 -->
<!-- Compatible with OpenCV 3.4 -->
<cascade>
  <stageType>BOOST</stageType>
  <featureType>HOG</featureType>
  <height>32</height>
  <width>36</width>
  <stageParams>
    <boostType>GAB</boostType>
    <minHitRate>9.9500000476837158e-01</minHitRate>
    <maxFalseAlarm>5.0000000745058060e-02</maxFalseAlarm>
    <weightTrimRate>9.4999999999999996e-01</weightTrimRate>
    <maxDepth>1</maxDepth>
    <maxWeakCount>100</maxWeakCount></stageParams>
  <featureParams>
    <maxCatCount>0</maxCatCount>
    <featSize>36</featSize></featureParams>
  <stageNum>7</stageNum>
  <stages>
    <!-- stage 0 -->
    <_>
      <maxWeakCount>21</maxWeakCount>
      <stageThreshold>-6.2274760007858276e-01</stageThreshold>
      <weakClassifiers>
        <_>
          <internalNodes>
            0 -1 241 1.9765589386224747e-02</internalNodes>
          <leafValues>
            5.0746268033981323e-01 -5.7667386531829834e-01</leafValues></_>
        <_>
          <internalNodes>
            0 -1 174 2.0222621038556099e-02</internalNodes>
          <leafValues>
            5.5026352405548096e-01 -3.8270825147628784e-01</leafValues></_>
        <_>
          <internalNodes>
            0 -1 94 2.5677697733044624e-02</internalNodes>
          <leafValues>
            3.3804738521575928e-01 -6.2157863378524780e-01</leafValues></_>
        <_>
          <internalNodes>
            0 -1 0 2.7315277606248856e-02</internalNodes>
          <leafValues>
            5.1685225963592529e-01 -3.3236470818519592e-01</leafValues></_>
        <_>
          <internalNodes>
            0 -1 163 3.4485131502151489e-02</internalNodes>
          <leafValues>
            3.9083611965179443e-01 -4.3244051933288574e-01</leafValues></_>
        <_>
          <internalNodes>
            0 -1 33 2.4086430668830872e-02</internalNodes>
          <leafValues>
            4.7513952851295471e-01 -3.8368025422096252e-01</leafValues></_>
        <_>
          <internalNodes>
            0 -1 160 1.8890352919697762e-02</internalNodes>
          <leafValues>
            4.1719296574592590e-01 -3.8013744354248047e-01</leafValues></_>
        <_>
          <internalNodes>
            0 -1 152 1.3768329285085201e-02</internalNodes>
          <leafValues>
            7.6023799180984497e-01 -1.8799456954002380e-01</leafValues></_>
        <_>
          <internalNodes>
            0 -1 86 2.3434624075889587e-02</internalNodes>
          <leafValues>
            4.5543918013572693e-01 -2.4866090714931488e-01</leafValues></_>
        <_>
          <internalNodes>
            0 -1 109 5.9435702860355377e-03</internalNodes>
          <leafValues>
            7.1823734045028687e-01 -1.8305625021457672e-01</leafValues></_>
        <_>
          <internalNodes>
            0 -1 216 4.2277611792087555e-02</internalNodes>
          <leafValues>
            1.9307398796081543e-01 -7.1774941682815552e-01</leafValues></_>
        <_>
          <internalNodes>
            0 -1 21 1.3544430024921894e-02</internalNodes>
          <leafValues>
            7.3931747674942017e-01 -2.2291950881481171e-01</leafValues></_>
        <_>
          <internalNodes>
            0 -1 101 2.3695539683103561e-02</internalNodes>
          <leafValues>
            5.1677155494689941e-01 -2.6088309288024902e-01</leafValues></_>
        <_>
          <internalNodes>
            0 -1 53 3.7620991468429565e-02</internalNodes>
          <leafValues>
            -1.8419528007507324e-01 6.6993683576583862e-01</leafValues></_>
        <_>
          <internalNodes>
            0 -1 51 9.7458399832248688e-03</internalNodes>
          <leafValues>
            6.8821424245834351e-01 -2.0088621973991394e-01</leafValues></_>
        <_>
          <internalNodes>
            0 -1 249 3.7763074040412903e-02</internalNodes>
          <leafValues>
            -1.6447536647319794e-01 6.8892377614974976e-01</leafValues></_>
        <_>
          <internalNodes>
            0 -1 119 2.2583115845918655e-02</internalNodes>
          <leafValues>
            3.3448469638824463e-01 -4.0954172611236572e-01</leafValues></_>
        <_>
          <internalNodes>
            0 -1 74 2.7564205229282379e-02</internalNodes>
          <leafValues>
            4.3349227309226990e-01 -3.9069917798042297e-01</leafValues></_>
        <_>
          <internalNodes>
            0 -1 80 5.9060659259557724e-03</internalNodes>
          <leafValues>
            7.0192903280258179e-01 -1.9075448811054230e-01</leafValues></_>
        <_>
          <internalNodes>
            0 -1 115 1.5868561342358589e-02</internalNodes>
          <leafValues>
            6.6102147102355957e-01 -1.6818924248218536e-01</leafValues></_>
        <_>
          <internalNodes>
            0 -1 239 2.3973271250724792e-02</internalNodes>
          <leafValues>
            5.0718164443969727e-01 -2.0696456730365753e-01</leafValues></_></weakClassifiers></_>
    <!-- stage 1 -->
    <_>
      <maxWeakCount>31</maxWeakCount>
      <stageThreshold>-5.9960740804672241e-01</stageThreshold>
      <weakClassifiers>
        <_>
          <internalNodes>
            0 -1 256 2.3698557168245316e-02</internalNodes>
          <leafValues>
            2.3762376606464386e-01 -6.2531644105911255e-01</leafValues></_>
        <_>
          <internalNodes>
            0 -1 189 2.1671768277883530e-02</internalNodes>
          <leafValues>
            4.7370967268943787e-01 -3.4728050231933594e-01</leafValues></_>
        <_>
          <internalNodes>
            0 -1 3 1.9398458302021027e-02</internalNodes>
          <leafValues>
            4.6071657538414001e-01 -2.5010985136032104e-01</leafValues></_>
        <_>
          <internalNodes>
            0 -1 13 1.2940720655024052e-02</internalNodes>
          <leafValues>
            4.7418397665023804e-01 -2.1379698812961578e-01</leafValues></_>
        <_>
          <internalNodes>
            0 -1 25 1.6057372093200684e-02</internalNodes>
          <leafValues>
            4.5113503932952881e-01 -2.3130775988101959e-01</leafValues></_>
        <_>
          <internalNodes>
            0 -1 78 2.4796657264232635e-02</internalNodes>
          <leafValues>
            2.7041938900947571e-01 -3.7911972403526306e-01</leafValues></_>
        <_>
          <internalNodes>
            0 -1 123 7.0066317915916443e-02</internalNodes>
          <leafValues>
            -1.1623261123895645e-01 8.4746414422988892e-01</leafValues></_>
        <_>
          <internalNodes>
            0 -1 108 1.1193756014108658e-02</internalNodes>
          <leafValues>
            4.6222922205924988e-01 -1.7576937377452850e-01</leafValues></_>
        <_>
          <internalNodes>
            0 -1 170 2.7450539171695709e-02</internalNodes>
          <leafValues>
            3.3403274416923523e-01 -3.0805301666259766e-01</leafValues></_>
        <_>
          <internalNodes>
            0 -1 149 2.6234544813632965e-02</internalNodes>
          <leafValues>
            3.2912772893905640e-01 -2.6570573449134827e-01</leafValues></_>
        <_>
          <internalNodes>
            0 -1 31 2.1630756556987762e-02</internalNodes>
          <leafValues>
            2.2720885276794434e-01 -3.7748503684997559e-01</leafValues></_>
        <_>
          <internalNodes>
            0 -1 152 2.2888138890266418e-02</internalNodes>
          <leafValues>
            3.2600364089012146e-01 -2.7583992481231689e-01</leafValues></_>
        <_>
          <internalNodes>
            0 -1 23 1.6538601368665695e-02</internalNodes>
          <leafValues>
            3.5050365328788757e-01 -2.7029681205749512e-01</leafValues></_>
        <_>
          <internalNodes>
            0 -1 245 3.4571725875139236e-02</internalNodes>
          <leafValues>
            -1.5912458300590515e-01 5.8994853496551514e-01</leafValues></_>
        <_>
          <internalNodes>
            0 -1 190 4.1383184492588043e-02</internalNodes>
          <leafValues>
            -1.3176414370536804e-01 5.6053954362869263e-01</leafValues></_>
        <_>
          <internalNodes>
            0 -1 150 4.1594121605157852e-02</internalNodes>
          <leafValues>
            -1.3268868625164032e-01 5.3657531738281250e-01</leafValues></_>
        <_>
          <internalNodes>
            0 -1 141 3.4614518284797668e-02</internalNodes>
          <leafValues>
            -1.5699414908885956e-01 5.3827416896820068e-01</leafValues></_>
        <_>
          <internalNodes>
            0 -1 84 2.2175820544362068e-02</internalNodes>
          <leafValues>
            2.7182939648628235e-01 -3.1058606505393982e-01</leafValues></_>
        <_>
          <internalNodes>
            0 -1 4 5.2502762991935015e-04</internalNodes>
          <leafValues>
            -9.1794186830520630e-01 8.5847362875938416e-02</leafValues></_>
        <_>
          <internalNodes>
            0 -1 2 1.0312382131814957e-02</internalNodes>
          <leafValues>
            4.3060207366943359e-01 -2.2900962829589844e-01</leafValues></_>
        <_>
          <internalNodes>
            0 -1 167 8.4263384342193604e-03</internalNodes>
          <leafValues>
            5.8571189641952515e-01 -1.2181819975376129e-01</leafValues></_>
        <_>
          <internalNodes>
            0 -1 6 2.2631945088505745e-02</internalNodes>
          <leafValues>
            3.2969582080841064e-01 -2.5841799378395081e-01</leafValues></_>
        <_>
          <internalNodes>
            0 -1 259 4.5100033283233643e-02</internalNodes>
          <leafValues>
            1.4548207819461823e-01 -6.5420240163803101e-01</leafValues></_>
        <_>
          <internalNodes>
            0 -1 93 1.2114303186535835e-02</internalNodes>
          <leafValues>
            5.5003523826599121e-01 -1.6863627731800079e-01</leafValues></_>
        <_>
          <internalNodes>
            0 -1 76 7.1821180172264576e-03</internalNodes>
          <leafValues>
            -5.4505956172943115e-01 1.5586613118648529e-01</leafValues></_>
        <_>
          <internalNodes>
            0 -1 61 3.8075760006904602e-02</internalNodes>
          <leafValues>
            -1.6565309464931488e-01 6.1101371049880981e-01</leafValues></_>
        <_>
          <internalNodes>
            0 -1 62 2.7834787964820862e-02</internalNodes>
          <leafValues>
            2.3038952052593231e-01 -3.9732274413108826e-01</leafValues></_>
        <_>
          <internalNodes>
            0 -1 121 1.5984915196895599e-02</internalNodes>
          <leafValues>
            5.2257883548736572e-01 -1.9665509462356567e-01</leafValues></_>
        <_>
          <internalNodes>
            0 -1 29 2.5514775887131691e-02</internalNodes>
          <leafValues>
            2.5813820958137512e-01 -4.5866918563842773e-01</leafValues></_>
        <_>
          <internalNodes>
            0 -1 171 2.1494477987289429e-02</internalNodes>
          <leafValues>
            3.0175471305847168e-01 -3.7906408309936523e-01</leafValues></_>
        <_>
          <internalNodes>
            0 -1 22 6.3201859593391418e-02</internalNodes>
          <leafValues>
            -1.0274508595466614e-01 7.7897489070892334e-01</leafValues></_></weakClassifiers></_>
    <!-- stage 2 -->
    <_>
      <maxWeakCount>50</maxWeakCount>
      <stageThreshold>-4.6442782878875732e-01</stageThreshold>
      <weakClassifiers>
        <_>
          <internalNodes>
            0 -1 224 3.5218648612499237e-02</internalNodes>
          <leafValues>
            -4.6153846383094788e-01 1.3178294897079468e-01</leafValues></_>
        <_>
          <internalNodes>
            0 -1 73 6.4636149909347296e-04</internalNodes>
          <leafValues>
            -8.8526904582977295e-01 6.8435318768024445e-02</leafValues></_>
        <_>
          <internalNodes>
            0 -1 124 5.8008931577205658e-02</internalNodes>
          <leafValues>
            -8.4939181804656982e-02 6.4399087429046631e-01</leafValues></_>
        <_>
          <internalNodes>
            0 -1 256 3.8727290928363800e-02</internalNodes>
          <leafValues>
            1.4063346385955811e-01 -3.9696469902992249e-01</leafValues></_>
        <_>
          <internalNodes>
            0 -1 238 5.0239033997058868e-02</internalNodes>
          <leafValues>
            1.0052011907100677e-01 -5.2165925502777100e-01</leafValues></_>
        <_>
          <internalNodes>
            0 -1 7 5.9538153000175953e-03</internalNodes>
          <leafValues>
            4.1141396760940552e-01 -1.2436764687299728e-01</leafValues></_>
        <_>
          <internalNodes>
            0 -1 251 1.5718365088105202e-02</internalNodes>
          <leafValues>
            -3.5329341888427734e-01 1.5390592813491821e-01</leafValues></_>
        <_>
          <internalNodes>
            0 -1 233 3.1468391418457031e-02</internalNodes>
          <leafValues>
            -1.5598793327808380e-01 3.2814574241638184e-01</leafValues></_>
        <_>
          <internalNodes>
            0 -1 214 4.2390644550323486e-02</internalNodes>
          <leafValues>
            -1.3488163053989410e-01 4.9585101008415222e-01</leafValues></_>
        <_>
          <internalNodes>
            0 -1 169 2.1360788494348526e-02</internalNodes>
          <leafValues>
            2.3464785516262054e-01 -2.3714347183704376e-01</leafValues></_>
        <_>
          <internalNodes>
            0 -1 37 5.6205166038125753e-04</internalNodes>
          <leafValues>
            -7.1467524766921997e-01 8.9680619537830353e-02</leafValues></_>
        <_>
          <internalNodes>
            0 -1 247 2.4819921702146530e-02</internalNodes>
          <leafValues>
            1.9124932587146759e-01 -2.8706690669059753e-01</leafValues></_>
        <_>
          <internalNodes>
            0 -1 213 2.9442094266414642e-02</internalNodes>
          <leafValues>
            -1.8936836719512939e-01 2.8949570655822754e-01</leafValues></_>
        <_>
          <internalNodes>
            0 -1 172 1.4823565259575844e-02</internalNodes>
          <leafValues>
            3.0441802740097046e-01 -1.5396332740783691e-01</leafValues></_>
        <_>
          <internalNodes>
            0 -1 258 4.0899522602558136e-02</internalNodes>
          <leafValues>
            8.8587924838066101e-02 -5.4468637704849243e-01</leafValues></_>
        <_>
          <internalNodes>
            0 -1 39 1.4828940853476524e-02</internalNodes>
          <leafValues>
            3.3225053548812866e-01 -1.8847650289535522e-01</leafValues></_>
        <_>
          <internalNodes>
            0 -1 50 4.5230306568555534e-04</internalNodes>
          <leafValues>
            -8.6345088481903076e-01 7.4209019541740417e-02</leafValues></_>
        <_>
          <internalNodes>
            0 -1 138 1.0241936892271042e-02</internalNodes>
          <leafValues>
            3.7403208017349243e-01 -1.7409881949424744e-01</leafValues></_>
        <_>
          <internalNodes>
            0 -1 20 7.1566261351108551e-02</internalNodes>
          <leafValues>
            -8.7573513388633728e-02 6.1535984277725220e-01</leafValues></_>
        <_>
          <internalNodes>
            0 -1 173 5.8653550222516060e-03</internalNodes>
          <leafValues>
            -3.9585632085800171e-01 1.3233883678913116e-01</leafValues></_>
        <_>
          <internalNodes>
            0 -1 60 8.1673070788383484e-02</internalNodes>
          <leafValues>
            -6.2223535031080246e-02 8.8282537460327148e-01</leafValues></_>
        <_>
          <internalNodes>
            0 -1 33 1.2184049934148788e-02</internalNodes>
          <leafValues>
            3.4614747762680054e-01 -1.3601085543632507e-01</leafValues></_>
        <_>
          <internalNodes>
            0 -1 10 2.2662401199340820e-02</internalNodes>
          <leafValues>
            2.3740743100643158e-01 -2.1968601644039154e-01</leafValues></_>
        <_>
          <internalNodes>
            0 -1 30 8.1190571654587984e-04</internalNodes>
          <leafValues>
            -7.5986027717590332e-01 6.8683080375194550e-02</leafValues></_>
        <_>
          <internalNodes>
            0 -1 24 7.8150965273380280e-03</internalNodes>
          <leafValues>
            4.2480295896530151e-01 -1.4063119888305664e-01</leafValues></_>
        <_>
          <internalNodes>
            0 -1 83 6.6742241382598877e-02</internalNodes>
          <leafValues>
            -9.1649085283279419e-02 7.0251029729843140e-01</leafValues></_>
        <_>
          <internalNodes>
            0 -1 235 9.9319070577621460e-03</internalNodes>
          <leafValues>
            -4.3748730421066284e-01 1.4061978459358215e-01</leafValues></_>
        <_>
          <internalNodes>
            0 -1 164 5.4403906688094139e-03</internalNodes>
          <leafValues>
            4.4942781329154968e-01 -1.2630198895931244e-01</leafValues></_>
        <_>
          <internalNodes>
            0 -1 112 9.6125267446041107e-03</internalNodes>
          <leafValues>
            3.6365553736686707e-01 -1.4578208327293396e-01</leafValues></_>
        <_>
          <internalNodes>
            0 -1 262 7.9358592629432678e-03</internalNodes>
          <leafValues>
            -6.9261282682418823e-01 9.7161844372749329e-02</leafValues></_>
        <_>
          <internalNodes>
            0 -1 29 3.9072100073099136e-02</internalNodes>
          <leafValues>
            9.7203329205513000e-02 -5.0829625129699707e-01</leafValues></_>
        <_>
          <internalNodes>
            0 -1 111 3.7238456308841705e-02</internalNodes>
          <leafValues>
            -1.2695905566215515e-01 3.7572795152664185e-01</leafValues></_>
        <_>
          <internalNodes>
            0 -1 94 1.3666791841387749e-02</internalNodes>
          <leafValues>
            2.6266735792160034e-01 -1.8581795692443848e-01</leafValues></_>
        <_>
          <internalNodes>
            0 -1 250 3.6605973728001118e-03</internalNodes>
          <leafValues>
            -8.6885493993759155e-01 6.1148539185523987e-02</leafValues></_>
        <_>
          <internalNodes>
            0 -1 176 1.7268069088459015e-02</internalNodes>
          <leafValues>
            2.7160778641700745e-01 -1.9769676029682159e-01</leafValues></_>
        <_>
          <internalNodes>
            0 -1 116 7.7651515603065491e-02</internalNodes>
          <leafValues>
            -5.9949979186058044e-02 7.9993444681167603e-01</leafValues></_>
        <_>
          <internalNodes>
            0 -1 254 4.7865010797977448e-02</internalNodes>
          <leafValues>
            9.6227042376995087e-02 -5.4355019330978394e-01</leafValues></_>
        <_>
          <internalNodes>
            0 -1 132 1.0036075254902244e-03</internalNodes>
          <leafValues>
            -9.2077517509460449e-01 4.0163684636354446e-02</leafValues></_>
        <_>
          <internalNodes>
            0 -1 59 1.0645674541592598e-02</internalNodes>
          <leafValues>
            3.2663670182228088e-01 -1.5266554057598114e-01</leafValues></_>
        <_>
          <internalNodes>
            0 -1 99 1.3773061335086823e-02</internalNodes>
          <leafValues>
            -3.3114439249038696e-01 1.8777510523796082e-01</leafValues></_>
        <_>
          <internalNodes>
            0 -1 67 3.3677920699119568e-02</internalNodes>
          <leafValues>
            -1.3317823410034180e-01 3.4066820144653320e-01</leafValues></_>
        <_>
          <internalNodes>
            0 -1 13 5.4356334730982780e-03</internalNodes>
          <leafValues>
            5.3009927272796631e-01 -8.7488107383251190e-02</leafValues></_>
        <_>
          <internalNodes>
            0 -1 38 5.8676838874816895e-02</internalNodes>
          <leafValues>
            -7.4254781007766724e-02 6.3468754291534424e-01</leafValues></_>
        <_>
          <internalNodes>
            0 -1 8 5.3625930100679398e-02</internalNodes>
          <leafValues>
            1.0217797011137009e-01 -5.3889232873916626e-01</leafValues></_>
        <_>
          <internalNodes>
            0 -1 54 1.4349414035677910e-02</internalNodes>
          <leafValues>
            2.7268511056900024e-01 -2.0094722509384155e-01</leafValues></_>
        <_>
          <internalNodes>
            0 -1 126 4.0588956326246262e-02</internalNodes>
          <leafValues>
            -1.3148811459541321e-01 4.2610025405883789e-01</leafValues></_>
        <_>
          <internalNodes>
            0 -1 120 1.4433164149522781e-02</internalNodes>
          <leafValues>
            3.2003644108772278e-01 -1.6167715191841125e-01</leafValues></_>
        <_>
          <internalNodes>
            0 -1 151 9.4593046233057976e-03</internalNodes>
          <leafValues>
            -4.0005919337272644e-01 1.5251906216144562e-01</leafValues></_>
        <_>
          <internalNodes>
            0 -1 17 6.0827820561826229e-04</internalNodes>
          <leafValues>
            -7.0093703269958496e-01 6.6832259297370911e-02</leafValues></_>
        <_>
          <internalNodes>
            0 -1 104 5.7577952742576599e-02</internalNodes>
          <leafValues>
            6.6938042640686035e-02 -6.7662394046783447e-01</leafValues></_></weakClassifiers></_>
    <!-- stage 3 -->
    <_>
      <maxWeakCount>56</maxWeakCount>
      <stageThreshold>-2.9578104615211487e-01</stageThreshold>
      <weakClassifiers>
        <_>
          <internalNodes>
            0 -1 114 2.7477489784359932e-02</internalNodes>
          <leafValues>
            -4.9065420031547546e-01 6.5088756382465363e-02</leafValues></_>
        <_>
          <internalNodes>
            0 -1 160 7.0677874609827995e-03</internalNodes>
          <leafValues>
            4.3023198843002319e-01 -1.6815268993377686e-01</leafValues></_>
        <_>
          <internalNodes>
            0 -1 199 1.4367613941431046e-02</internalNodes>
          <leafValues>
            -2.9964745044708252e-01 1.9739937782287598e-01</leafValues></_>
        <_>
          <internalNodes>
            0 -1 105 2.5715846568346024e-02</internalNodes>
          <leafValues>
            2.0091360807418823e-01 -2.7031001448631287e-01</leafValues></_>
        <_>
          <internalNodes>
            0 -1 146 1.5383758582174778e-03</internalNodes>
          <leafValues>
            7.3178160190582275e-01 -3.1286686658859253e-02</leafValues></_>
        <_>
          <internalNodes>
            0 -1 135 1.3583760708570480e-02</internalNodes>
          <leafValues>
            -2.4802330136299133e-01 1.9474701583385468e-01</leafValues></_>
        <_>
          <internalNodes>
            0 -1 1 6.6392337903380394e-03</internalNodes>
          <leafValues>
            3.0246862769126892e-01 -1.4169405400753021e-01</leafValues></_>
        <_>
          <internalNodes>
            0 -1 154 5.3305588662624359e-02</internalNodes>
          <leafValues>
            -9.2628657817840576e-02 4.3344101309776306e-01</leafValues></_>
        <_>
          <internalNodes>
            0 -1 113 9.7316414117813110e-02</internalNodes>
          <leafValues>
            -5.0177216529846191e-02 7.6159727573394775e-01</leafValues></_>
        <_>
          <internalNodes>
            0 -1 102 5.7014014571905136e-02</internalNodes>
          <leafValues>
            -8.1716410815715790e-02 4.8304155468940735e-01</leafValues></_>
        <_>
          <internalNodes>
            0 -1 193 2.9736217111349106e-02</internalNodes>
          <leafValues>
            2.1444250643253326e-01 -2.3388378322124481e-01</leafValues></_>
        <_>
          <internalNodes>
            0 -1 263 1.3977928087115288e-02</internalNodes>
          <leafValues>
            -3.9096808433532715e-01 1.1229141056537628e-01</leafValues></_>
        <_>
          <internalNodes>
            0 -1 182 3.0326731503009796e-03</internalNodes>
          <leafValues>
            7.2632974386215210e-01 -5.8353155851364136e-02</leafValues></_>
        <_>
          <internalNodes>
            0 -1 64 2.2285874933004379e-02</internalNodes>
          <leafValues>
            -1.9305139780044556e-01 2.4858389794826508e-01</leafValues></_>
        <_>
          <internalNodes>
            0 -1 183 4.5183360576629639e-02</internalNodes>
          <leafValues>
            8.9538194239139557e-02 -5.2658027410507202e-01</leafValues></_>
        <_>
          <internalNodes>
            0 -1 45 4.3392539024353027e-02</internalNodes>
          <leafValues>
            1.0249045491218567e-01 -4.2126578092575073e-01</leafValues></_>
        <_>
          <internalNodes>
            0 -1 42 2.9220259748399258e-03</internalNodes>
          <leafValues>
            5.5513668060302734e-01 -8.8053733110427856e-02</leafValues></_>
        <_>
          <internalNodes>
            0 -1 85 3.3332225866615772e-03</internalNodes>
          <leafValues>
            -6.2477123737335205e-01 8.3490803837776184e-02</leafValues></_>
        <_>
          <internalNodes>
            0 -1 69 5.9293806552886963e-03</internalNodes>
          <leafValues>
            3.8871738314628601e-01 -1.1811783164739609e-01</leafValues></_>
        <_>
          <internalNodes>
            0 -1 95 1.2103245593607426e-02</internalNodes>
          <leafValues>
            -2.9992759227752686e-01 1.5912246704101563e-01</leafValues></_>
        <_>
          <internalNodes>
            0 -1 142 7.1792252361774445e-02</internalNodes>
          <leafValues>
            6.7004375159740448e-02 -7.2098582983016968e-01</leafValues></_>
        <_>
          <internalNodes>
            0 -1 145 1.1685142293572426e-02</internalNodes>
          <leafValues>
            2.8039833903312683e-01 -1.7063726484775543e-01</leafValues></_>
        <_>
          <internalNodes>
            0 -1 227 6.1929259449243546e-02</internalNodes>
          <leafValues>
            6.2352690845727921e-02 -6.9989877939224243e-01</leafValues></_>
        <_>
          <internalNodes>
            0 -1 131 7.4183635413646698e-02</internalNodes>
          <leafValues>
            -8.1256426870822906e-02 7.6490509510040283e-01</leafValues></_>
        <_>
          <internalNodes>
            0 -1 96 5.6780111044645309e-03</internalNodes>
          <leafValues>
            4.8367783427238464e-01 -7.6265849173069000e-02</leafValues></_>
        <_>
          <internalNodes>
            0 -1 12 2.2156341001391411e-03</internalNodes>
          <leafValues>
            7.7410262823104858e-01 -5.6870885193347931e-02</leafValues></_>
        <_>
          <internalNodes>
            0 -1 77 2.5881776586174965e-02</internalNodes>
          <leafValues>
            -1.7465169727802277e-01 2.9954427480697632e-01</leafValues></_>
        <_>
          <internalNodes>
            0 -1 211 5.1206634379923344e-03</internalNodes>
          <leafValues>
            -6.2077891826629639e-01 7.1251340210437775e-02</leafValues></_>
        <_>
          <internalNodes>
            0 -1 46 8.4318257868289948e-03</internalNodes>
          <leafValues>
            3.9741390943527222e-01 -1.7917218804359436e-01</leafValues></_>
        <_>
          <internalNodes>
            0 -1 156 2.1490221843123436e-02</internalNodes>
          <leafValues>
            1.8925330042839050e-01 -2.2661548852920532e-01</leafValues></_>
        <_>
          <internalNodes>
            0 -1 248 2.4800769984722137e-02</internalNodes>
          <leafValues>
            1.6789285838603973e-01 -2.6052531599998474e-01</leafValues></_>
        <_>
          <internalNodes>
            0 -1 87 3.4052621573209763e-02</internalNodes>
          <leafValues>
            1.2499342113733292e-01 -3.6993592977523804e-01</leafValues></_>
        <_>
          <internalNodes>
            0 -1 16 2.6168517768383026e-02</internalNodes>
          <leafValues>
            -2.2206738591194153e-01 2.1635749936103821e-01</leafValues></_>
        <_>
          <internalNodes>
            0 -1 177 4.6879537403583527e-03</internalNodes>
          <leafValues>
            -5.4379260540008545e-01 6.5543435513973236e-02</leafValues></_>
        <_>
          <internalNodes>
            0 -1 43 1.1720852926373482e-02</internalNodes>
          <leafValues>
            2.6644173264503479e-01 -1.6550782322883606e-01</leafValues></_>
        <_>
          <internalNodes>
            0 -1 48 6.0449000447988510e-02</internalNodes>
          <leafValues>
            -6.1894919723272324e-02 5.8516216278076172e-01</leafValues></_>
        <_>
          <internalNodes>
            0 -1 117 1.6851813415996730e-04</internalNodes>
          <leafValues>
            9.5136868953704834e-01 -3.0854877084493637e-02</leafValues></_>
        <_>
          <internalNodes>
            0 -1 195 3.4472938627004623e-02</internalNodes>
          <leafValues>
            -1.2170882523059845e-01 3.2239094376564026e-01</leafValues></_>
        <_>
          <internalNodes>
            0 -1 201 2.0908560603857040e-02</internalNodes>
          <leafValues>
            -1.9279249012470245e-01 2.1360819041728973e-01</leafValues></_>
        <_>
          <internalNodes>
            0 -1 11 1.0460047423839569e-01</internalNodes>
          <leafValues>
            -5.1839433610439301e-02 8.4535819292068481e-01</leafValues></_>
        <_>
          <internalNodes>
            0 -1 3 1.1199789587408304e-03</internalNodes>
          <leafValues>
            7.7321815490722656e-01 -4.1171260178089142e-02</leafValues></_>
        <_>
          <internalNodes>
            0 -1 230 1.2295030057430267e-02</internalNodes>
          <leafValues>
            -3.5533264279365540e-01 1.2977106869220734e-01</leafValues></_>
        <_>
          <internalNodes>
            0 -1 57 7.4422612786293030e-02</internalNodes>
          <leafValues>
            -6.8687036633491516e-02 6.3727438449859619e-01</leafValues></_>
        <_>
          <internalNodes>
            0 -1 65 2.2410690784454346e-02</internalNodes>
          <leafValues>
            -1.7281582951545715e-01 2.5709909200668335e-01</leafValues></_>
        <_>
          <internalNodes>
            0 -1 90 7.2113722562789917e-02</internalNodes>
          <leafValues>
            -7.3989152908325195e-02 6.8498498201370239e-01</leafValues></_>
        <_>
          <internalNodes>
            0 -1 58 5.8314288035035133e-03</internalNodes>
          <leafValues>
            -3.8855814933776855e-01 1.0928286612033844e-01</leafValues></_>
        <_>
          <internalNodes>
            0 -1 197 1.1074550449848175e-02</internalNodes>
          <leafValues>
            4.2665079236030579e-01 -1.3111799955368042e-01</leafValues></_>
        <_>
          <internalNodes>
            0 -1 19 7.5977221131324768e-02</internalNodes>
          <leafValues>
            5.8844909071922302e-02 -7.5664037466049194e-01</leafValues></_>
        <_>
          <internalNodes>
            0 -1 26 8.0451173707842827e-03</internalNodes>
          <leafValues>
            2.7499228715896606e-01 -1.4697204530239105e-01</leafValues></_>
        <_>
          <internalNodes>
            0 -1 210 6.9342844188213348e-02</internalNodes>
          <leafValues>
            4.2398545891046524e-02 -9.3045699596405029e-01</leafValues></_>
        <_>
          <internalNodes>
            0 -1 180 3.1452409923076630e-02</internalNodes>
          <leafValues>
            1.5421776473522186e-01 -2.6363328099250793e-01</leafValues></_>
        <_>
          <internalNodes>
            0 -1 221 1.2466639280319214e-02</internalNodes>
          <leafValues>
            -3.8562902808189392e-01 1.1493028700351715e-01</leafValues></_>
        <_>
          <internalNodes>
            0 -1 100 3.3942628651857376e-03</internalNodes>
          <leafValues>
            5.1406145095825195e-01 -8.8951319456100464e-02</leafValues></_>
        <_>
          <internalNodes>
            0 -1 186 1.4270450919866562e-02</internalNodes>
          <leafValues>
            -2.5731885433197021e-01 1.6458526253700256e-01</leafValues></_>
        <_>
          <internalNodes>
            0 -1 236 9.3689393252134323e-03</internalNodes>
          <leafValues>
            4.0147310495376587e-01 -1.2019316852092743e-01</leafValues></_>
        <_>
          <internalNodes>
            0 -1 52 1.2867310643196106e-01</internalNodes>
          <leafValues>
            -5.1354844123125076e-02 8.9474213123321533e-01</leafValues></_></weakClassifiers></_>
    <!-- stage 4 -->
    <_>
      <maxWeakCount>58</maxWeakCount>
      <stageThreshold>-3.8299867510795593e-01</stageThreshold>
      <weakClassifiers>
        <_>
          <internalNodes>
            0 -1 246 2.7160758152604103e-02</internalNodes>
          <leafValues>
            -1.3119533658027649e-01 -6.0629922151565552e-01</leafValues></_>
        <_>
          <internalNodes>
            0 -1 194 6.0299985110759735e-02</internalNodes>
          <leafValues>
            3.8751654326915741e-02 -7.0182865858078003e-01</leafValues></_>
        <_>
          <internalNodes>
            0 -1 88 1.2523502111434937e-02</internalNodes>
          <leafValues>
            -2.5190475583076477e-01 2.3851814866065979e-01</leafValues></_>
        <_>
          <internalNodes>
            0 -1 36 2.5648325681686401e-02</internalNodes>
          <leafValues>
            -2.1018296480178833e-01 2.2246055305004120e-01</leafValues></_>
        <_>
          <internalNodes>
            0 -1 144 6.7903339862823486e-02</internalNodes>
          <leafValues>
            4.8759769648313522e-02 -7.3710888624191284e-01</leafValues></_>
        <_>
          <internalNodes>
            0 -1 92 6.6429108381271362e-02</internalNodes>
          <leafValues>
            -8.6098067462444305e-02 5.8992511034011841e-01</leafValues></_>
        <_>
          <internalNodes>
            0 -1 228 6.4902350306510925e-02</internalNodes>
          <leafValues>
            4.6088732779026031e-02 -7.9372566938400269e-01</leafValues></_>
        <_>
          <internalNodes>
            0 -1 147 9.6014030277729034e-03</internalNodes>
          <leafValues>
            -2.4687810242176056e-01 1.3788296282291412e-01</leafValues></_>
        <_>
          <internalNodes>
            0 -1 148 4.1083926334977150e-03</internalNodes>
          <leafValues>
            5.3370064496994019e-01 -6.6720649600028992e-02</leafValues></_>
        <_>
          <internalNodes>
            0 -1 243 1.4880073256790638e-02</internalNodes>
          <leafValues>
            -2.6918458938598633e-01 1.4625304937362671e-01</leafValues></_>
        <_>
          <internalNodes>
            0 -1 188 6.1256695538759232e-02</internalNodes>
          <leafValues>
            4.7888882458209991e-02 -7.9495823383331299e-01</leafValues></_>
        <_>
          <internalNodes>
            0 -1 55 1.1792458593845367e-02</internalNodes>
          <leafValues>
            -2.5014179944992065e-01 1.4858241379261017e-01</leafValues></_>
        <_>
          <internalNodes>
            0 -1 14 3.2358177006244659e-02</internalNodes>
          <leafValues>
            1.2473126500844955e-01 -3.3621606230735779e-01</leafValues></_>
        <_>
          <internalNodes>
            0 -1 23 1.5828665345907211e-03</internalNodes>
          <leafValues>
            7.2299307584762573e-01 -6.7546874284744263e-02</leafValues></_>
        <_>
          <internalNodes>
            0 -1 143 1.3193247839808464e-02</internalNodes>
          <leafValues>
            -2.4967704713344574e-01 1.7212006449699402e-01</leafValues></_>
        <_>
          <internalNodes>
            0 -1 152 5.1883663982152939e-02</internalNodes>
          <leafValues>
            9.2481657862663269e-02 -4.9302157759666443e-01</leafValues></_>
        <_>
          <internalNodes>
            0 -1 107 5.2377492189407349e-02</internalNodes>
          <leafValues>
            -9.6552185714244843e-02 4.9802300333976746e-01</leafValues></_>
        <_>
          <internalNodes>
            0 -1 133 4.6070767566561699e-03</internalNodes>
          <leafValues>
            4.1271793842315674e-01 -9.1035477817058563e-02</leafValues></_>
        <_>
          <internalNodes>
            0 -1 163 3.6923605948686600e-02</internalNodes>
          <leafValues>
            9.6395067870616913e-02 -3.7267065048217773e-01</leafValues></_>
        <_>
          <internalNodes>
            0 -1 17 5.7314345613121986e-03</internalNodes>
          <leafValues>
            -3.1675073504447937e-01 1.3482590019702911e-01</leafValues></_>
        <_>
          <internalNodes>
            0 -1 181 6.8988958373665810e-03</internalNodes>
          <leafValues>
            5.0693196058273315e-01 -8.5855014622211456e-02</leafValues></_>
        <_>
          <internalNodes>
            0 -1 168 6.3222472090274096e-04</internalNodes>
          <leafValues>
            -8.2807552814483643e-01 4.3823048472404480e-02</leafValues></_>
        <_>
          <internalNodes>
            0 -1 209 1.0609632357954979e-02</internalNodes>
          <leafValues>
            3.3476695418357849e-01 -1.1934893578290939e-01</leafValues></_>
        <_>
          <internalNodes>
            0 -1 185 3.7800017744302750e-02</internalNodes>
          <leafValues>
            9.5559567213058472e-02 -4.1112297773361206e-01</leafValues></_>
        <_>
          <internalNodes>
            0 -1 106 3.0851379036903381e-02</internalNodes>
          <leafValues>
            1.4285041391849518e-01 -2.8724187612533569e-01</leafValues></_>
        <_>
          <internalNodes>
            0 -1 196 5.4851262830197811e-03</internalNodes>
          <leafValues>
            -4.6716949343681335e-01 7.8989624977111816e-02</leafValues></_>
        <_>
          <internalNodes>
            0 -1 192 9.7323000431060791e-02</internalNodes>
          <leafValues>
            -4.8601601272821426e-02 7.9904067516326904e-01</leafValues></_>
        <_>
          <internalNodes>
            0 -1 220 1.4904386363923550e-02</internalNodes>
          <leafValues>
            -3.2820799946784973e-01 1.3170883059501648e-01</leafValues></_>
        <_>
          <internalNodes>
            0 -1 127 2.7836600784212351e-03</internalNodes>
          <leafValues>
            5.5616617202758789e-01 -7.9221874475479126e-02</leafValues></_>
        <_>
          <internalNodes>
            0 -1 168 1.2426430359482765e-02</internalNodes>
          <leafValues>
            -2.3489767313003540e-01 1.6719149053096771e-01</leafValues></_>
        <_>
          <internalNodes>
            0 -1 200 3.7120930850505829e-02</internalNodes>
          <leafValues>
            1.1471502482891083e-01 -4.1449847817420959e-01</leafValues></_>
        <_>
          <internalNodes>
            0 -1 204 3.1707093119621277e-02</internalNodes>
          <leafValues>
            1.1078163981437683e-01 -3.5581067204475403e-01</leafValues></_>
        <_>
          <internalNodes>
            0 -1 235 1.0999646037817001e-02</internalNodes>
          <leafValues>
            -3.9344650506973267e-01 1.1233562976121902e-01</leafValues></_>
        <_>
          <internalNodes>
            0 -1 128 2.9817803297191858e-03</internalNodes>
          <leafValues>
            6.4108800888061523e-01 -7.1330010890960693e-02</leafValues></_>
        <_>
          <internalNodes>
            0 -1 98 3.9078086614608765e-02</internalNodes>
          <leafValues>
            9.9019072949886322e-02 -4.2088153958320618e-01</leafValues></_>
        <_>
          <internalNodes>
            0 -1 261 3.5539038479328156e-02</internalNodes>
          <leafValues>
            1.3330531120300293e-01 -3.5199326276779175e-01</leafValues></_>
        <_>
          <internalNodes>
            0 -1 71 4.7664701938629150e-02</internalNodes>
          <leafValues>
            8.5080631077289581e-02 -5.7818424701690674e-01</leafValues></_>
        <_>
          <internalNodes>
            0 -1 199 5.8882877230644226e-02</internalNodes>
          <leafValues>
            4.9454074352979660e-02 -8.0906224250793457e-01</leafValues></_>
        <_>
          <internalNodes>
            0 -1 203 4.0904261171817780e-02</internalNodes>
          <leafValues>
            -1.2337374687194824e-01 3.7838891148567200e-01</leafValues></_>
        <_>
          <internalNodes>
            0 -1 89 5.9869848191738129e-03</internalNodes>
          <leafValues>
            4.5550054311752319e-01 -9.9794343113899231e-02</leafValues></_>
        <_>
          <internalNodes>
            0 -1 70 2.5291226804256439e-02</internalNodes>
          <leafValues>
            1.8294265866279602e-01 -2.8180760145187378e-01</leafValues></_>
        <_>
          <internalNodes>
            0 -1 81 7.5655318796634674e-02</internalNodes>
          <leafValues>
            -9.0172119438648224e-02 5.7001143693923950e-01</leafValues></_>
        <_>
          <internalNodes>
            0 -1 34 7.6951710507273674e-03</internalNodes>
          <leafValues>
            -3.1342154741287231e-01 1.4425493776798248e-01</leafValues></_>
        <_>
          <internalNodes>
            0 -1 151 4.8780743032693863e-02</internalNodes>
          <leafValues>
            9.6564240753650665e-02 -4.7417715191841125e-01</leafValues></_>
        <_>
          <internalNodes>
            0 -1 5 4.5991733670234680e-02</internalNodes>
          <leafValues>
            1.1199669539928436e-01 -3.8633096218109131e-01</leafValues></_>
        <_>
          <internalNodes>
            0 -1 134 4.8181223683059216e-03</internalNodes>
          <leafValues>
            -4.0649008750915527e-01 1.0291753709316254e-01</leafValues></_>
        <_>
          <internalNodes>
            0 -1 105 6.8387806415557861e-02</internalNodes>
          <leafValues>
            -7.6513655483722687e-02 5.6581759452819824e-01</leafValues></_>
        <_>
          <internalNodes>
            0 -1 118 7.3316685855388641e-02</internalNodes>
          <leafValues>
            5.1375161856412888e-02 -8.4378033876419067e-01</leafValues></_>
        <_>
          <internalNodes>
            0 -1 153 1.0410198569297791e-01</internalNodes>
          <leafValues>
            -6.6005021333694458e-02 8.3620285987854004e-01</leafValues></_>
        <_>
          <internalNodes>
            0 -1 63 7.3210880160331726e-02</internalNodes>
          <leafValues>
            7.8462600708007813e-02 -5.5650687217712402e-01</leafValues></_>
        <_>
          <internalNodes>
            0 -1 21 6.0241390019655228e-03</internalNodes>
          <leafValues>
            3.6521205306053162e-01 -1.1966723203659058e-01</leafValues></_>
        <_>
          <internalNodes>
            0 -1 41 7.8270230442285538e-03</internalNodes>
          <leafValues>
            -3.6840909719467163e-01 1.3834160566329956e-01</leafValues></_>
        <_>
          <internalNodes>
            0 -1 125 2.8960600495338440e-02</internalNodes>
          <leafValues>
            -1.6240650415420532e-01 2.6410809159278870e-01</leafValues></_>
        <_>
          <internalNodes>
            0 -1 18 5.8368872851133347e-02</internalNodes>
          <leafValues>
            8.3021894097328186e-02 -4.9876829981803894e-01</leafValues></_>
        <_>
          <internalNodes>
            0 -1 109 2.2397909313440323e-02</internalNodes>
          <leafValues>
            1.8371944129467010e-01 -2.3893015086650848e-01</leafValues></_>
        <_>
          <internalNodes>
            0 -1 49 5.0053935497999191e-02</internalNodes>
          <leafValues>
            5.1914345473051071e-02 -6.3601940870285034e-01</leafValues></_>
        <_>
          <internalNodes>
            0 -1 47 6.2153141945600510e-02</internalNodes>
          <leafValues>
            8.2464821636676788e-02 -5.2633094787597656e-01</leafValues></_>
        <_>
          <internalNodes>
            0 -1 130 3.9509879425168037e-03</internalNodes>
          <leafValues>
            4.5380818843841553e-01 -1.0669534653425217e-01</leafValues></_></weakClassifiers></_>
    <!-- stage 5 -->
    <_>
      <maxWeakCount>33</maxWeakCount>
      <stageThreshold>-4.4682684540748596e-01</stageThreshold>
      <weakClassifiers>
        <_>
          <internalNodes>
            0 -1 257 1.3857360929250717e-02</internalNodes>
          <leafValues>
            -7.5882351398468018e-01 2.2957198321819305e-01</leafValues></_>
        <_>
          <internalNodes>
            0 -1 264 2.6385061442852020e-02</internalNodes>
          <leafValues>
            -3.9214101433753967e-01 5.1019191741943359e-01</leafValues></_>
        <_>
          <internalNodes>
            0 -1 222 2.9693860560655594e-02</internalNodes>
          <leafValues>
            -2.2339767217636108e-01 5.8121842145919800e-01</leafValues></_>
        <_>
          <internalNodes>
            0 -1 178 1.0924512520432472e-02</internalNodes>
          <leafValues>
            6.7731881141662598e-01 -1.7103877663612366e-01</leafValues></_>
        <_>
          <internalNodes>
            0 -1 242 3.9285834878683090e-02</internalNodes>
          <leafValues>
            -1.1799534410238266e-01 7.2752904891967773e-01</leafValues></_>
        <_>
          <internalNodes>
            0 -1 155 2.6512015610933304e-02</internalNodes>
          <leafValues>
            -1.8647196888923645e-01 5.5717551708221436e-01</leafValues></_>
        <_>
          <internalNodes>
            0 -1 159 4.8099644482135773e-02</internalNodes>
          <leafValues>
            1.5572996437549591e-01 -6.6455787420272827e-01</leafValues></_>
        <_>
          <internalNodes>
            0 -1 208 4.3124072253704071e-02</internalNodes>
          <leafValues>
            -1.5609459578990936e-01 6.1177563667297363e-01</leafValues></_>
        <_>
          <internalNodes>
            0 -1 244 2.2418919950723648e-02</internalNodes>
          <leafValues>
            4.7933548688888550e-01 -1.7820516228675842e-01</leafValues></_>
        <_>
          <internalNodes>
            0 -1 158 4.0203314274549484e-03</internalNodes>
          <leafValues>
            8.8838398456573486e-01 -8.5332155227661133e-02</leafValues></_>
        <_>
          <internalNodes>
            0 -1 218 5.3140446543693542e-02</internalNodes>
          <leafValues>
            -9.8755851387977600e-02 5.8545702695846558e-01</leafValues></_>
        <_>
          <internalNodes>
            0 -1 220 2.0046126097440720e-02</internalNodes>
          <leafValues>
            -2.6550716161727905e-01 3.0298930406570435e-01</leafValues></_>
        <_>
          <internalNodes>
            0 -1 82 4.5277506113052368e-02</internalNodes>
          <leafValues>
            -1.2473227083683014e-01 6.0426646471023560e-01</leafValues></_>
        <_>
          <internalNodes>
            0 -1 231 3.5943351686000824e-02</internalNodes>
          <leafValues>
            1.6978646814823151e-01 -5.3465741872787476e-01</leafValues></_>
        <_>
          <internalNodes>
            0 -1 8 2.0574554800987244e-02</internalNodes>
          <leafValues>
            3.3641934394836426e-01 -2.6635357737541199e-01</leafValues></_>
        <_>
          <internalNodes>
            0 -1 190 6.7331261932849884e-02</internalNodes>
          <leafValues>
            1.1019042134284973e-01 -8.4526509046554565e-01</leafValues></_>
        <_>
          <internalNodes>
            0 -1 224 5.8211453258991241e-02</internalNodes>
          <leafValues>
            -1.1292628198862076e-01 7.7401578426361084e-01</leafValues></_>
        <_>
          <internalNodes>
            0 -1 202 3.3680841326713562e-02</internalNodes>
          <leafValues>
            -1.3066819310188293e-01 4.8850810527801514e-01</leafValues></_>
        <_>
          <internalNodes>
            0 -1 205 6.1401054263114929e-03</internalNodes>
          <leafValues>
            -6.6190856695175171e-01 1.2415648251771927e-01</leafValues></_>
        <_>
          <internalNodes>
            0 -1 108 8.4902029484510422e-03</internalNodes>
          <leafValues>
            6.0073465108871460e-01 -1.5891543030738831e-01</leafValues></_>
        <_>
          <internalNodes>
            0 -1 56 2.6800647377967834e-02</internalNodes>
          <leafValues>
            2.4396972358226776e-01 -3.1929773092269897e-01</leafValues></_>
        <_>
          <internalNodes>
            0 -1 44 6.4589336514472961e-02</internalNodes>
          <leafValues>
            -9.4294935464859009e-02 7.7732896804809570e-01</leafValues></_>
        <_>
          <internalNodes>
            0 -1 129 5.4092235863208771e-02</internalNodes>
          <leafValues>
            1.4985069632530212e-01 -5.1980954408645630e-01</leafValues></_>
        <_>
          <internalNodes>
            0 -1 137 3.3465474843978882e-02</internalNodes>
          <leafValues>
            1.4124540984630585e-01 -5.4277342557907104e-01</leafValues></_>
        <_>
          <internalNodes>
            0 -1 140 5.8690324425697327e-02</internalNodes>
          <leafValues>
            -1.0493095964193344e-01 7.9924261569976807e-01</leafValues></_>
        <_>
          <internalNodes>
            0 -1 75 9.4991885125637054e-03</internalNodes>
          <leafValues>
            3.5421028733253479e-01 -2.1580292284488678e-01</leafValues></_>
        <_>
          <internalNodes>
            0 -1 72 3.6020211875438690e-02</internalNodes>
          <leafValues>
            -1.3361868262290955e-01 5.9665751457214355e-01</leafValues></_>
        <_>
          <internalNodes>
            0 -1 217 2.3146655410528183e-02</internalNodes>
          <leafValues>
            -1.7837004363536835e-01 4.1531753540039063e-01</leafValues></_>
        <_>
          <internalNodes>
            0 -1 122 2.2409141063690186e-02</internalNodes>
          <leafValues>
            3.2262033224105835e-01 -1.8932913243770599e-01</leafValues></_>
        <_>
          <internalNodes>
            0 -1 252 2.8381068259477615e-02</internalNodes>
          <leafValues>
            1.4077857136726379e-01 -5.3216981887817383e-01</leafValues></_>
        <_>
          <internalNodes>
            0 -1 219 6.4242109656333923e-03</internalNodes>
          <leafValues>
            -5.6374925374984741e-01 1.4725159108638763e-01</leafValues></_>
        <_>
          <internalNodes>
            0 -1 207 2.9342401772737503e-02</internalNodes>
          <leafValues>
            2.8095853328704834e-01 -2.8808677196502686e-01</leafValues></_>
        <_>
          <internalNodes>
            0 -1 162 1.8358973320573568e-03</internalNodes>
          <leafValues>
            6.2298262119293213e-01 -1.1550768464803696e-01</leafValues></_></weakClassifiers></_>
    <!-- stage 6 -->
    <_>
      <maxWeakCount>48</maxWeakCount>
      <stageThreshold>-3.8015377521514893e-01</stageThreshold>
      <weakClassifiers>
        <_>
          <internalNodes>
            0 -1 15 8.0884154886007309e-03</internalNodes>
          <leafValues>
            3.5416665673255920e-01 -4.6506986021995544e-01</leafValues></_>
        <_>
          <internalNodes>
            0 -1 240 3.0362803488969803e-02</internalNodes>
          <leafValues>
            -2.1322607994079590e-01 3.4167534112930298e-01</leafValues></_>
        <_>
          <internalNodes>
            0 -1 191 3.9223693311214447e-02</internalNodes>
          <leafValues>
            -1.7535768449306488e-01 5.2043837308883667e-01</leafValues></_>
        <_>
          <internalNodes>
            0 -1 69 8.4528625011444092e-03</internalNodes>
          <leafValues>
            4.3749046325683594e-01 -1.3342601060867310e-01</leafValues></_>
        <_>
          <internalNodes>
            0 -1 28 2.2133745253086090e-02</internalNodes>
          <leafValues>
            -2.2508072853088379e-01 3.0843931436538696e-01</leafValues></_>
        <_>
          <internalNodes>
            0 -1 179 4.9403727054595947e-02</internalNodes>
          <leafValues>
            -1.0184884816408157e-01 7.0497244596481323e-01</leafValues></_>
        <_>
          <internalNodes>
            0 -1 223 3.4291937947273254e-02</internalNodes>
          <leafValues>
            -1.2273105233907700e-01 4.8419824242591858e-01</leafValues></_>
        <_>
          <internalNodes>
            0 -1 253 2.9457209631800652e-02</internalNodes>
          <leafValues>
            -1.6652302443981171e-01 3.5612827539443970e-01</leafValues></_>
        <_>
          <internalNodes>
            0 -1 167 3.6253053694963455e-03</internalNodes>
          <leafValues>
            7.7031695842742920e-01 -4.1538521647453308e-02</leafValues></_>
        <_>
          <internalNodes>
            0 -1 234 4.3379940092563629e-02</internalNodes>
          <leafValues>
            -8.6759969592094421e-02 6.1303198337554932e-01</leafValues></_>
        <_>
          <internalNodes>
            0 -1 232 2.6537138968706131e-02</internalNodes>
          <leafValues>
            -1.6555774211883545e-01 3.4768500924110413e-01</leafValues></_>
        <_>
          <internalNodes>
            0 -1 237 3.0947547405958176e-02</internalNodes>
          <leafValues>
            -1.3583622872829437e-01 4.0546622872352600e-01</leafValues></_>
        <_>
          <internalNodes>
            0 -1 79 1.2855870882049203e-03</internalNodes>
          <leafValues>
            8.0990689992904663e-01 -6.4983732998371124e-02</leafValues></_>
        <_>
          <internalNodes>
            0 -1 255 1.6042146831750870e-02</internalNodes>
          <leafValues>
            -3.5695856809616089e-01 1.7664465308189392e-01</leafValues></_>
        <_>
          <internalNodes>
            0 -1 165 7.6242182403802872e-03</internalNodes>
          <leafValues>
            4.2631810903549194e-01 -1.4358963072299957e-01</leafValues></_>
        <_>
          <internalNodes>
            0 -1 174 3.7609701976180077e-03</internalNodes>
          <leafValues>
            7.2741782665252686e-01 -6.8251170217990875e-02</leafValues></_>
        <_>
          <internalNodes>
            0 -1 35 4.9760796129703522e-02</internalNodes>
          <leafValues>
            -1.1194785684347153e-01 4.8575666546821594e-01</leafValues></_>
        <_>
          <internalNodes>
            0 -1 91 4.2149793356657028e-02</internalNodes>
          <leafValues>
            -1.1985805630683899e-01 4.4946059584617615e-01</leafValues></_>
        <_>
          <internalNodes>
            0 -1 202 4.0909651666879654e-02</internalNodes>
          <leafValues>
            -9.8820775747299194e-02 6.2610644102096558e-01</leafValues></_>
        <_>
          <internalNodes>
            0 -1 66 2.8335653245449066e-02</internalNodes>
          <leafValues>
            -2.1694672107696533e-01 3.1139120459556580e-01</leafValues></_>
        <_>
          <internalNodes>
            0 -1 110 3.4096492454409599e-03</internalNodes>
          <leafValues>
            7.3257982730865479e-01 -8.6459159851074219e-02</leafValues></_>
        <_>
          <internalNodes>
            0 -1 136 4.3727673590183258e-02</internalNodes>
          <leafValues>
            -1.3327096402645111e-01 4.2035353183746338e-01</leafValues></_>
        <_>
          <internalNodes>
            0 -1 161 4.6845795586705208e-03</internalNodes>
          <leafValues>
            5.5049610137939453e-01 -9.5321558415889740e-02</leafValues></_>
        <_>
          <internalNodes>
            0 -1 175 7.0427311584353447e-03</internalNodes>
          <leafValues>
            4.5174366235733032e-01 -1.3977375626564026e-01</leafValues></_>
        <_>
          <internalNodes>
            0 -1 139 2.0673371851444244e-02</internalNodes>
          <leafValues>
            -2.3648360371589661e-01 3.0746114253997803e-01</leafValues></_>
        <_>
          <internalNodes>
            0 -1 198 2.8350614011287689e-02</internalNodes>
          <leafValues>
            -1.9360987842082977e-01 3.6924979090690613e-01</leafValues></_>
        <_>
          <internalNodes>
            0 -1 187 3.2961703836917877e-02</internalNodes>
          <leafValues>
            -1.7716588079929352e-01 3.7657338380813599e-01</leafValues></_>
        <_>
          <internalNodes>
            0 -1 163 8.6147431284189224e-03</internalNodes>
          <leafValues>
            4.7262364625930786e-01 -1.2847964465618134e-01</leafValues></_>
        <_>
          <internalNodes>
            0 -1 196 2.0325362682342529e-02</internalNodes>
          <leafValues>
            -2.6592734456062317e-01 2.2744637727737427e-01</leafValues></_>
        <_>
          <internalNodes>
            0 -1 166 4.3951212428510189e-03</internalNodes>
          <leafValues>
            6.8917882442474365e-01 -8.2082197070121765e-02</leafValues></_>
        <_>
          <internalNodes>
            0 -1 9 6.7659928463399410e-03</internalNodes>
          <leafValues>
            5.2889263629913330e-01 -1.0029913485050201e-01</leafValues></_>
        <_>
          <internalNodes>
            0 -1 1 4.5061823911964893e-03</internalNodes>
          <leafValues>
            4.4899740815162659e-01 -1.1292310804128647e-01</leafValues></_>
        <_>
          <internalNodes>
            0 -1 212 1.2572234496474266e-02</internalNodes>
          <leafValues>
            -3.9784061908721924e-01 1.5534497797489166e-01</leafValues></_>
        <_>
          <internalNodes>
            0 -1 103 9.7674466669559479e-03</internalNodes>
          <leafValues>
            3.8910692930221558e-01 -1.5309940278530121e-01</leafValues></_>
        <_>
          <internalNodes>
            0 -1 260 1.1073438450694084e-02</internalNodes>
          <leafValues>
            -5.2841663360595703e-01 1.1491513997316360e-01</leafValues></_>
        <_>
          <internalNodes>
            0 -1 225 7.9966485500335693e-03</internalNodes>
          <leafValues>
            5.3350275754928589e-01 -1.2287809699773788e-01</leafValues></_>
        <_>
          <internalNodes>
            0 -1 229 2.7702234685420990e-02</internalNodes>
          <leafValues>
            -1.6363231837749481e-01 3.7704327702522278e-01</leafValues></_>
        <_>
          <internalNodes>
            0 -1 45 4.2357303202152252e-02</internalNodes>
          <leafValues>
            -8.5002034902572632e-02 5.8692848682403564e-01</leafValues></_>
        <_>
          <internalNodes>
            0 -1 32 2.0072921179234982e-03</internalNodes>
          <leafValues>
            6.0465872287750244e-01 -7.6595194637775421e-02</leafValues></_>
        <_>
          <internalNodes>
            0 -1 215 5.6955991312861443e-03</internalNodes>
          <leafValues>
            -6.5079164505004883e-01 1.1066699028015137e-01</leafValues></_>
        <_>
          <internalNodes>
            0 -1 40 1.1398213915526867e-02</internalNodes>
          <leafValues>
            3.0163809657096863e-01 -1.8505787849426270e-01</leafValues></_>
        <_>
          <internalNodes>
            0 -1 27 1.1509997770190239e-02</internalNodes>
          <leafValues>
            3.6482989788055420e-01 -1.6064377129077911e-01</leafValues></_>
        <_>
          <internalNodes>
            0 -1 184 3.7056811153888702e-02</internalNodes>
          <leafValues>
            -1.4857693016529083e-01 4.3422016501426697e-01</leafValues></_>
        <_>
          <internalNodes>
            0 -1 97 2.5263726711273193e-02</internalNodes>
          <leafValues>
            -1.7817543447017670e-01 2.9699739813804626e-01</leafValues></_>
        <_>
          <internalNodes>
            0 -1 157 4.2185612022876740e-02</internalNodes>
          <leafValues>
            -8.9560434222221375e-02 5.1591098308563232e-01</leafValues></_>
        <_>
          <internalNodes>
            0 -1 206 2.0982358604669571e-02</internalNodes>
          <leafValues>
            -1.7882911860942841e-01 2.6702904701232910e-01</leafValues></_>
        <_>
          <internalNodes>
            0 -1 68 4.3999381363391876e-02</internalNodes>
          <leafValues>
            -1.5858046710491180e-01 4.0705266594886780e-01</leafValues></_>
        <_>
          <internalNodes>
            0 -1 226 2.3460939526557922e-02</internalNodes>
          <leafValues>
            -2.0881195366382599e-01 3.1808173656463623e-01</leafValues></_></weakClassifiers></_></stages>
  <features>
    <_>
      <rect>
        0 0 8 8 4</rect></_>
    <_>
      <rect>
        0 0 8 8 5</rect></_>
    <_>
      <rect>
        0 0 8 8 7</rect></_>
    <_>
      <rect>
        0 0 8 8 8</rect></_>
    <_>
      <rect>
        0 0 8 8 16</rect></_>
    <_>
      <rect>
        0 0 8 8 17</rect></_>
    <_>
      <rect>
        0 0 8 8 35</rect></_>
    <_>
      <rect>
        0 4 8 8 10</rect></_>
    <_>
      <rect>
        0 4 8 8 13</rect></_>
    <_>
      <rect>
        0 4 8 8 18</rect></_>
    <_>
      <rect>
        0 4 8 8 26</rect></_>
    <_>
      <rect>
        0 4 8 8 30</rect></_>
    <_>
      <rect>
        0 4 8 8 35</rect></_>
    <_>
      <rect>
        0 8 8 8 4</rect></_>
    <_>
      <rect>
        0 8 8 8 9</rect></_>
    <_>
      <rect>
        0 8 8 8 11</rect></_>
    <_>
      <rect>
        0 8 8 8 24</rect></_>
    <_>
      <rect>
        0 8 8 8 30</rect></_>
    <_>
      <rect>
        0 12 8 8 9</rect></_>
    <_>
      <rect>
        0 12 8 8 15</rect></_>
    <_>
      <rect>
        0 12 8 8 19</rect></_>
    <_>
      <rect>
        0 12 8 8 22</rect></_>
    <_>
      <rect>
        0 12 8 8 24</rect></_>
    <_>
      <rect>
        0 12 8 8 31</rect></_>
    <_>
      <rect>
        0 12 8 8 34</rect></_>
    <_>
      <rect>
        0 12 8 8 35</rect></_>
    <_>
      <rect>
        0 16 8 8 3</rect></_>
    <_>
      <rect>
        0 16 8 8 5</rect></_>
    <_>
      <rect>
        0 16 8 8 8</rect></_>
    <_>
      <rect>
        0 16 8 8 12</rect></_>
    <_>
      <rect>
        0 16 8 8 16</rect></_>
    <_>
      <rect>
        0 16 8 8 18</rect></_>
    <_>
      <rect>
        0 16 8 8 20</rect></_>
    <_>
      <rect>
        0 16 8 8 22</rect></_>
    <_>
      <rect>
        0 16 8 8 23</rect></_>
    <_>
      <rect>
        0 16 8 8 32</rect></_>
    <_>
      <rect>
        4 0 8 8 12</rect></_>
    <_>
      <rect>
        4 0 8 8 14</rect></_>
    <_>
      <rect>
        4 0 8 8 21</rect></_>
    <_>
      <rect>
        4 0 8 8 22</rect></_>
    <_>
      <rect>
        4 0 8 8 30</rect></_>
    <_>
      <rect>
        4 4 8 8 12</rect></_>
    <_>
      <rect>
        4 8 8 8 0</rect></_>
    <_>
      <rect>
        4 8 8 8 1</rect></_>
    <_>
      <rect>
        4 8 8 8 5</rect></_>
    <_>
      <rect>
        4 8 8 8 13</rect></_>
    <_>
      <rect>
        4 8 8 8 23</rect></_>
    <_>
      <rect>
        4 8 8 8 25</rect></_>
    <_>
      <rect>
        4 8 8 8 27</rect></_>
    <_>
      <rect>
        4 12 8 8 2</rect></_>
    <_>
      <rect>
        4 12 8 8 5</rect></_>
    <_>
      <rect>
        4 12 8 8 8</rect></_>
    <_>
      <rect>
        4 12 8 8 19</rect></_>
    <_>
      <rect>
        4 12 8 8 24</rect></_>
    <_>
      <rect>
        4 16 8 8 0</rect></_>
    <_>
      <rect>
        4 16 8 8 2</rect></_>
    <_>
      <rect>
        4 16 8 8 4</rect></_>
    <_>
      <rect>
        4 16 8 8 8</rect></_>
    <_>
      <rect>
        4 16 8 8 14</rect></_>
    <_>
      <rect>
        4 16 8 8 16</rect></_>
    <_>
      <rect>
        4 16 8 8 20</rect></_>
    <_>
      <rect>
        4 16 8 8 21</rect></_>
    <_>
      <rect>
        4 16 8 8 22</rect></_>
    <_>
      <rect>
        4 16 8 8 26</rect></_>
    <_>
      <rect>
        4 16 8 8 29</rect></_>
    <_>
      <rect>
        4 16 8 8 30</rect></_>
    <_>
      <rect>
        8 0 8 8 4</rect></_>
    <_>
      <rect>
        8 0 8 8 12</rect></_>
    <_>
      <rect>
        8 0 8 8 19</rect></_>
    <_>
      <rect>
        8 0 8 8 27</rect></_>
    <_>
      <rect>
        8 0 8 8 28</rect></_>
    <_>
      <rect>
        8 4 8 8 0</rect></_>
    <_>
      <rect>
        8 4 8 8 24</rect></_>
    <_>
      <rect>
        8 4 8 8 27</rect></_>
    <_>
      <rect>
        8 8 8 8 4</rect></_>
    <_>
      <rect>
        8 8 8 8 6</rect></_>
    <_>
      <rect>
        8 8 8 8 25</rect></_>
    <_>
      <rect>
        8 8 8 8 30</rect></_>
    <_>
      <rect>
        8 12 8 8 4</rect></_>
    <_>
      <rect>
        8 12 8 8 5</rect></_>
    <_>
      <rect>
        8 12 8 8 9</rect></_>
    <_>
      <rect>
        8 12 8 8 19</rect></_>
    <_>
      <rect>
        8 12 8 8 23</rect></_>
    <_>
      <rect>
        8 12 8 8 25</rect></_>
    <_>
      <rect>
        8 12 8 8 34</rect></_>
    <_>
      <rect>
        8 16 8 8 1</rect></_>
    <_>
      <rect>
        8 16 8 8 4</rect></_>
    <_>
      <rect>
        8 16 8 8 14</rect></_>
    <_>
      <rect>
        8 16 8 8 21</rect></_>
    <_>
      <rect>
        8 16 8 8 26</rect></_>
    <_>
      <rect>
        8 16 8 8 33</rect></_>
    <_>
      <rect>
        12 0 8 8 1</rect></_>
    <_>
      <rect>
        12 0 8 8 15</rect></_>
    <_>
      <rect>
        12 0 8 8 17</rect></_>
    <_>
      <rect>
        12 0 8 8 26</rect></_>
    <_>
      <rect>
        12 4 8 8 2</rect></_>
    <_>
      <rect>
        12 8 8 8 22</rect></_>
    <_>
      <rect>
        12 8 8 8 34</rect></_>
    <_>
      <rect>
        12 12 8 8 5</rect></_>
    <_>
      <rect>
        12 12 8 8 7</rect></_>
    <_>
      <rect>
        12 12 8 8 21</rect></_>
    <_>
      <rect>
        12 12 8 8 31</rect></_>
    <_>
      <rect>
        12 12 8 8 35</rect></_>
    <_>
      <rect>
        12 16 8 8 5</rect></_>
    <_>
      <rect>
        12 16 8 8 12</rect></_>
    <_>
      <rect>
        12 16 8 8 26</rect></_>
    <_>
      <rect>
        12 16 8 8 28</rect></_>
    <_>
      <rect>
        12 16 8 8 30</rect></_>
    <_>
      <rect>
        12 16 8 8 31</rect></_>
    <_>
      <rect>
        16 0 8 8 0</rect></_>
    <_>
      <rect>
        16 0 8 8 5</rect></_>
    <_>
      <rect>
        16 0 8 8 7</rect></_>
    <_>
      <rect>
        16 0 8 8 8</rect></_>
    <_>
      <rect>
        16 0 8 8 10</rect></_>
    <_>
      <rect>
        16 0 8 8 12</rect></_>
    <_>
      <rect>
        16 0 8 8 13</rect></_>
    <_>
      <rect>
        16 0 8 8 14</rect></_>
    <_>
      <rect>
        16 0 8 8 15</rect></_>
    <_>
      <rect>
        16 0 8 8 16</rect></_>
    <_>
      <rect>
        16 0 8 8 26</rect></_>
    <_>
      <rect>
        16 0 8 8 31</rect></_>
    <_>
      <rect>
        16 0 8 8 35</rect></_>
    <_>
      <rect>
        16 4 8 8 4</rect></_>
    <_>
      <rect>
        16 4 8 8 10</rect></_>
    <_>
      <rect>
        16 4 8 8 11</rect></_>
    <_>
      <rect>
        16 4 8 8 26</rect></_>
    <_>
      <rect>
        16 8 8 8 11</rect></_>
    <_>
      <rect>
        16 8 8 8 15</rect></_>
    <_>
      <rect>
        16 8 8 8 19</rect></_>
    <_>
      <rect>
        16 12 8 8 2</rect></_>
    <_>
      <rect>
        16 12 8 8 5</rect></_>
    <_>
      <rect>
        16 12 8 8 13</rect></_>
    <_>
      <rect>
        16 12 8 8 15</rect></_>
    <_>
      <rect>
        16 12 8 8 17</rect></_>
    <_>
      <rect>
        16 12 8 8 30</rect></_>
    <_>
      <rect>
        16 16 8 8 2</rect></_>
    <_>
      <rect>
        16 16 8 8 13</rect></_>
    <_>
      <rect>
        16 16 8 8 16</rect></_>
    <_>
      <rect>
        16 16 8 8 31</rect></_>
    <_>
      <rect>
        16 16 8 8 32</rect></_>
    <_>
      <rect>
        16 16 8 8 33</rect></_>
    <_>
      <rect>
        20 0 8 8 2</rect></_>
    <_>
      <rect>
        20 0 8 8 4</rect></_>
    <_>
      <rect>
        20 0 8 8 5</rect></_>
    <_>
      <rect>
        20 0 8 8 7</rect></_>
    <_>
      <rect>
        20 0 8 8 9</rect></_>
    <_>
      <rect>
        20 0 8 8 11</rect></_>
    <_>
      <rect>
        20 0 8 8 12</rect></_>
    <_>
      <rect>
        20 0 8 8 13</rect></_>
    <_>
      <rect>
        20 0 8 8 17</rect></_>
    <_>
      <rect>
        20 0 8 8 24</rect></_>
    <_>
      <rect>
        20 0 8 8 32</rect></_>
    <_>
      <rect>
        20 4 8 8 4</rect></_>
    <_>
      <rect>
        20 4 8 8 6</rect></_>
    <_>
      <rect>
        20 4 8 8 15</rect></_>
    <_>
      <rect>
        20 4 8 8 17</rect></_>
    <_>
      <rect>
        20 4 8 8 18</rect></_>
    <_>
      <rect>
        20 4 8 8 21</rect></_>
    <_>
      <rect>
        20 4 8 8 31</rect></_>
    <_>
      <rect>
        20 8 8 8 3</rect></_>
    <_>
      <rect>
        20 8 8 8 8</rect></_>
    <_>
      <rect>
        20 8 8 8 20</rect></_>
    <_>
      <rect>
        20 8 8 8 24</rect></_>
    <_>
      <rect>
        20 12 8 8 4</rect></_>
    <_>
      <rect>
        20 12 8 8 10</rect></_>
    <_>
      <rect>
        20 12 8 8 16</rect></_>
    <_>
      <rect>
        20 12 8 8 22</rect></_>
    <_>
      <rect>
        20 12 8 8 31</rect></_>
    <_>
      <rect>
        20 12 8 8 34</rect></_>
    <_>
      <rect>
        20 16 8 8 4</rect></_>
    <_>
      <rect>
        20 16 8 8 8</rect></_>
    <_>
      <rect>
        20 16 8 8 9</rect></_>
    <_>
      <rect>
        20 16 8 8 26</rect></_>
    <_>
      <rect>
        20 16 8 8 30</rect></_>
    <_>
      <rect>
        20 16 8 8 31</rect></_>
    <_>
      <rect>
        20 16 8 8 32</rect></_>
    <_>
      <rect>
        20 16 8 8 35</rect></_>
    <_>
      <rect>
        0 0 8 16 3</rect></_>
    <_>
      <rect>
        0 0 8 16 4</rect></_>
    <_>
      <rect>
        0 0 8 16 21</rect></_>
    <_>
      <rect>
        0 0 8 16 26</rect></_>
    <_>
      <rect>
        0 0 8 16 28</rect></_>
    <_>
      <rect>
        4 0 8 16 29</rect></_>
    <_>
      <rect>
        8 0 8 16 10</rect></_>
    <_>
      <rect>
        8 0 8 16 12</rect></_>
    <_>
      <rect>
        8 0 8 16 34</rect></_>
    <_>
      <rect>
        16 0 8 16 12</rect></_>
    <_>
      <rect>
        16 0 8 16 13</rect></_>
    <_>
      <rect>
        16 0 8 16 16</rect></_>
    <_>
      <rect>
        16 0 8 16 26</rect></_>
    <_>
      <rect>
        16 0 8 16 29</rect></_>
    <_>
      <rect>
        16 0 8 16 30</rect></_>
    <_>
      <rect>
        16 0 8 16 33</rect></_>
    <_>
      <rect>
        16 0 8 16 35</rect></_>
    <_>
      <rect>
        20 0 8 16 13</rect></_>
    <_>
      <rect>
        20 0 8 16 15</rect></_>
    <_>
      <rect>
        20 0 8 16 21</rect></_>
    <_>
      <rect>
        20 0 8 16 25</rect></_>
    <_>
      <rect>
        20 0 8 16 26</rect></_>
    <_>
      <rect>
        0 0 16 8 3</rect></_>
    <_>
      <rect>
        0 0 16 8 7</rect></_>
    <_>
      <rect>
        0 0 16 8 11</rect></_>
    <_>
      <rect>
        0 0 16 8 17</rect></_>
    <_>
      <rect>
        0 0 16 8 26</rect></_>
    <_>
      <rect>
        0 0 16 8 27</rect></_>
    <_>
      <rect>
        0 0 16 8 30</rect></_>
    <_>
      <rect>
        0 4 16 8 8</rect></_>
    <_>
      <rect>
        0 4 16 8 11</rect></_>
    <_>
      <rect>
        0 4 16 8 19</rect></_>
    <_>
      <rect>
        0 4 16 8 22</rect></_>
    <_>
      <rect>
        0 8 16 8 9</rect></_>
    <_>
      <rect>
        0 8 16 8 23</rect></_>
    <_>
      <rect>
        0 8 16 8 24</rect></_>
    <_>
      <rect>
        0 8 16 8 25</rect></_>
    <_>
      <rect>
        0 12 16 8 20</rect></_>
    <_>
      <rect>
        0 12 16 8 21</rect></_>
    <_>
      <rect>
        0 12 16 8 26</rect></_>
    <_>
      <rect>
        0 16 16 8 17</rect></_>
    <_>
      <rect>
        0 16 16 8 19</rect></_>
    <_>
      <rect>
        0 16 16 8 25</rect></_>
    <_>
      <rect>
        0 16 16 8 26</rect></_>
    <_>
      <rect>
        0 16 16 8 28</rect></_>
    <_>
      <rect>
        4 0 16 8 6</rect></_>
    <_>
      <rect>
        4 0 16 8 8</rect></_>
    <_>
      <rect>
        4 0 16 8 14</rect></_>
    <_>
      <rect>
        4 0 16 8 15</rect></_>
    <_>
      <rect>
        4 0 16 8 23</rect></_>
    <_>
      <rect>
        4 0 16 8 31</rect></_>
    <_>
      <rect>
        4 4 16 8 4</rect></_>
    <_>
      <rect>
        4 4 16 8 17</rect></_>
    <_>
      <rect>
        4 4 16 8 19</rect></_>
    <_>
      <rect>
        4 4 16 8 25</rect></_>
    <_>
      <rect>
        4 4 16 8 26</rect></_>
    <_>
      <rect>
        4 4 16 8 33</rect></_>
    <_>
      <rect>
        4 8 16 8 4</rect></_>
    <_>
      <rect>
        4 8 16 8 9</rect></_>
    <_>
      <rect>
        4 8 16 8 12</rect></_>
    <_>
      <rect>
        4 8 16 8 21</rect></_>
    <_>
      <rect>
        4 8 16 8 22</rect></_>
    <_>
      <rect>
        4 8 16 8 31</rect></_>
    <_>
      <rect>
        4 8 16 8 35</rect></_>
    <_>
      <rect>
        4 12 16 8 4</rect></_>
    <_>
      <rect>
        4 12 16 8 14</rect></_>
    <_>
      <rect>
        4 12 16 8 17</rect></_>
    <_>
      <rect>
        4 12 16 8 20</rect></_>
    <_>
      <rect>
        4 12 16 8 32</rect></_>
    <_>
      <rect>
        4 16 16 8 0</rect></_>
    <_>
      <rect>
        4 16 16 8 8</rect></_>
    <_>
      <rect>
        4 16 16 8 18</rect></_>
    <_>
      <rect>
        4 16 16 8 19</rect></_>
    <_>
      <rect>
        0 0 16 16 0</rect></_>
    <_>
      <rect>
        0 0 16 16 2</rect></_>
    <_>
      <rect>
        0 0 16 16 7</rect></_>
    <_>
      <rect>
        0 0 16 16 12</rect></_>
    <_>
      <rect>
        0 0 16 16 13</rect></_>
    <_>
      <rect>
        0 0 16 16 15</rect></_>
    <_>
      <rect>
        0 0 16 16 17</rect></_>
    <_>
      <rect>
        0 0 16 16 25</rect></_>
    <_>
      <rect>
        4 0 16 16 0</rect></_>
    <_>
      <rect>
        4 0 16 16 4</rect></_>
    <_>
      <rect>
        4 0 16 16 14</rect></_>
    <_>
      <rect>
        4 0 16 16 18</rect></_>
    <_>
      <rect>
        4 0 16 16 27</rect></_>
    <_>
      <rect>
        4 0 16 16 28</rect></_>
    <_>
      <rect>
        4 0 16 16 35</rect></_></features></cascade>
</opencv_storage>
