<?xml version="1.0"?>
<opencv_storage>
<!-- Created using Computer Vision Toolbox(tm) for MATLAB(R) -->
<!-- Version 9.8.0.1451342 (R2020a) Update 5 -->
<!-- Compatible with OpenCV 3.4 -->
<cascade>
  <stageType>BOOST</stageType>
  <featureType>HOG</featureType>
  <height>32</height>
  <width>36</width>
  <stageParams>
    <boostType>GAB</boostType>
    <minHitRate>9.9500000476837158e-01</minHitRate>
    <maxFalseAlarm>5.0000000745058060e-02</maxFalseAlarm>
    <weightTrimRate>9.4999999999999996e-01</weightTrimRate>
    <maxDepth>1</maxDepth>
    <maxWeakCount>100</maxWeakCount></stageParams>
  <featureParams>
    <maxCatCount>0</maxCatCount>
    <featSize>36</featSize></featureParams>
  <stageNum>11</stageNum>
  <stages>
    <!-- stage 0 -->
    <_>
      <maxWeakCount>21</maxWeakCount>
      <stageThreshold>-6.2274760007858276e-01</stageThreshold>
      <weakClassifiers>
        <_>
          <internalNodes>
            0 -1 416 1.9765589386224747e-02</internalNodes>
          <leafValues>
            5.0746268033981323e-01 -5.7667386531829834e-01</leafValues></_>
        <_>
          <internalNodes>
            0 -1 297 2.0222621038556099e-02</internalNodes>
          <leafValues>
            5.5026352405548096e-01 -3.8270825147628784e-01</leafValues></_>
        <_>
          <internalNodes>
            0 -1 151 2.5677697733044624e-02</internalNodes>
          <leafValues>
            3.3804738521575928e-01 -6.2157863378524780e-01</leafValues></_>
        <_>
          <internalNodes>
            0 -1 1 2.7315277606248856e-02</internalNodes>
          <leafValues>
            5.1685225963592529e-01 -3.3236470818519592e-01</leafValues></_>
        <_>
          <internalNodes>
            0 -1 283 3.4485131502151489e-02</internalNodes>
          <leafValues>
            3.9083611965179443e-01 -4.3244051933288574e-01</leafValues></_>
        <_>
          <internalNodes>
            0 -1 59 2.4086430668830872e-02</internalNodes>
          <leafValues>
            4.7513952851295471e-01 -3.8368025422096252e-01</leafValues></_>
        <_>
          <internalNodes>
            0 -1 273 1.8890352919697762e-02</internalNodes>
          <leafValues>
            4.1719296574592590e-01 -3.8013744354248047e-01</leafValues></_>
        <_>
          <internalNodes>
            0 -1 261 1.3768329285085201e-02</internalNodes>
          <leafValues>
            7.6023799180984497e-01 -1.8799456954002380e-01</leafValues></_>
        <_>
          <internalNodes>
            0 -1 134 2.3434624075889587e-02</internalNodes>
          <leafValues>
            4.5543918013572693e-01 -2.4866090714931488e-01</leafValues></_>
        <_>
          <internalNodes>
            0 -1 183 5.9435702860355377e-03</internalNodes>
          <leafValues>
            7.1823734045028687e-01 -1.8305625021457672e-01</leafValues></_>
        <_>
          <internalNodes>
            0 -1 373 4.2277611792087555e-02</internalNodes>
          <leafValues>
            1.9307398796081543e-01 -7.1774941682815552e-01</leafValues></_>
        <_>
          <internalNodes>
            0 -1 43 1.3544430024921894e-02</internalNodes>
          <leafValues>
            7.3931747674942017e-01 -2.2291950881481171e-01</leafValues></_>
        <_>
          <internalNodes>
            0 -1 172 2.3695539683103561e-02</internalNodes>
          <leafValues>
            5.1677155494689941e-01 -2.6088309288024902e-01</leafValues></_>
        <_>
          <internalNodes>
            0 -1 91 3.7620991468429565e-02</internalNodes>
          <leafValues>
            -1.8419528007507324e-01 6.6993683576583862e-01</leafValues></_>
        <_>
          <internalNodes>
            0 -1 87 9.7458399832248688e-03</internalNodes>
          <leafValues>
            6.8821424245834351e-01 -2.0088621973991394e-01</leafValues></_>
        <_>
          <internalNodes>
            0 -1 427 3.7763074040412903e-02</internalNodes>
          <leafValues>
            -1.6447536647319794e-01 6.8892377614974976e-01</leafValues></_>
        <_>
          <internalNodes>
            0 -1 195 2.2583115845918655e-02</internalNodes>
          <leafValues>
            3.3448469638824463e-01 -4.0954172611236572e-01</leafValues></_>
        <_>
          <internalNodes>
            0 -1 115 2.7564205229282379e-02</internalNodes>
          <leafValues>
            4.3349227309226990e-01 -3.9069917798042297e-01</leafValues></_>
        <_>
          <internalNodes>
            0 -1 126 5.9060659259557724e-03</internalNodes>
          <leafValues>
            7.0192903280258179e-01 -1.9075448811054230e-01</leafValues></_>
        <_>
          <internalNodes>
            0 -1 191 1.5868561342358589e-02</internalNodes>
          <leafValues>
            6.6102147102355957e-01 -1.6818924248218536e-01</leafValues></_>
        <_>
          <internalNodes>
            0 -1 413 2.3973271250724792e-02</internalNodes>
          <leafValues>
            5.0718164443969727e-01 -2.0696456730365753e-01</leafValues></_></weakClassifiers></_>
    <!-- stage 1 -->
    <_>
      <maxWeakCount>31</maxWeakCount>
      <stageThreshold>-5.9960740804672241e-01</stageThreshold>
      <weakClassifiers>
        <_>
          <internalNodes>
            0 -1 440 2.3698557168245316e-02</internalNodes>
          <leafValues>
            2.3762376606464386e-01 -6.2531644105911255e-01</leafValues></_>
        <_>
          <internalNodes>
            0 -1 328 2.1671768277883530e-02</internalNodes>
          <leafValues>
            4.7370967268943787e-01 -3.4728050231933594e-01</leafValues></_>
        <_>
          <internalNodes>
            0 -1 5 1.9398458302021027e-02</internalNodes>
          <leafValues>
            4.6071657538414001e-01 -2.5010985136032104e-01</leafValues></_>
        <_>
          <internalNodes>
            0 -1 29 1.2940720655024052e-02</internalNodes>
          <leafValues>
            4.7418397665023804e-01 -2.1379698812961578e-01</leafValues></_>
        <_>
          <internalNodes>
            0 -1 48 1.6057372093200684e-02</internalNodes>
          <leafValues>
            4.5113503932952881e-01 -2.3130775988101959e-01</leafValues></_>
        <_>
          <internalNodes>
            0 -1 124 2.4796657264232635e-02</internalNodes>
          <leafValues>
            2.7041938900947571e-01 -3.7911972403526306e-01</leafValues></_>
        <_>
          <internalNodes>
            0 -1 203 7.0066317915916443e-02</internalNodes>
          <leafValues>
            -1.1623261123895645e-01 8.4746414422988892e-01</leafValues></_>
        <_>
          <internalNodes>
            0 -1 182 1.1193756014108658e-02</internalNodes>
          <leafValues>
            4.6222922205924988e-01 -1.7576937377452850e-01</leafValues></_>
        <_>
          <internalNodes>
            0 -1 293 2.7450539171695709e-02</internalNodes>
          <leafValues>
            3.3403274416923523e-01 -3.0805301666259766e-01</leafValues></_>
        <_>
          <internalNodes>
            0 -1 253 2.6234544813632965e-02</internalNodes>
          <leafValues>
            3.2912772893905640e-01 -2.6570573449134827e-01</leafValues></_>
        <_>
          <internalNodes>
            0 -1 57 2.1630756556987762e-02</internalNodes>
          <leafValues>
            2.2720885276794434e-01 -3.7748503684997559e-01</leafValues></_>
        <_>
          <internalNodes>
            0 -1 261 2.2888138890266418e-02</internalNodes>
          <leafValues>
            3.2600364089012146e-01 -2.7583992481231689e-01</leafValues></_>
        <_>
          <internalNodes>
            0 -1 46 1.6538601368665695e-02</internalNodes>
          <leafValues>
            3.5050365328788757e-01 -2.7029681205749512e-01</leafValues></_>
        <_>
          <internalNodes>
            0 -1 422 3.4571725875139236e-02</internalNodes>
          <leafValues>
            -1.5912458300590515e-01 5.8994853496551514e-01</leafValues></_>
        <_>
          <internalNodes>
            0 -1 329 4.1383184492588043e-02</internalNodes>
          <leafValues>
            -1.3176414370536804e-01 5.6053954362869263e-01</leafValues></_>
        <_>
          <internalNodes>
            0 -1 255 4.1594121605157852e-02</internalNodes>
          <leafValues>
            -1.3268868625164032e-01 5.3657531738281250e-01</leafValues></_>
        <_>
          <internalNodes>
            0 -1 244 3.4614518284797668e-02</internalNodes>
          <leafValues>
            -1.5699414908885956e-01 5.3827416896820068e-01</leafValues></_>
        <_>
          <internalNodes>
            0 -1 132 2.2175820544362068e-02</internalNodes>
          <leafValues>
            2.7182939648628235e-01 -3.1058606505393982e-01</leafValues></_>
        <_>
          <internalNodes>
            0 -1 8 5.2502762991935015e-04</internalNodes>
          <leafValues>
            -9.1794186830520630e-01 8.5847362875938416e-02</leafValues></_>
        <_>
          <internalNodes>
            0 -1 4 1.0312382131814957e-02</internalNodes>
          <leafValues>
            4.3060207366943359e-01 -2.2900962829589844e-01</leafValues></_>
        <_>
          <internalNodes>
            0 -1 289 8.4263384342193604e-03</internalNodes>
          <leafValues>
            5.8571189641952515e-01 -1.2181819975376129e-01</leafValues></_>
        <_>
          <internalNodes>
            0 -1 13 2.2631945088505745e-02</internalNodes>
          <leafValues>
            3.2969582080841064e-01 -2.5841799378395081e-01</leafValues></_>
        <_>
          <internalNodes>
            0 -1 443 4.5100033283233643e-02</internalNodes>
          <leafValues>
            1.4548207819461823e-01 -6.5420240163803101e-01</leafValues></_>
        <_>
          <internalNodes>
            0 -1 149 1.2114303186535835e-02</internalNodes>
          <leafValues>
            5.5003523826599121e-01 -1.6863627731800079e-01</leafValues></_>
        <_>
          <internalNodes>
            0 -1 120 7.1821180172264576e-03</internalNodes>
          <leafValues>
            -5.4505956172943115e-01 1.5586613118648529e-01</leafValues></_>
        <_>
          <internalNodes>
            0 -1 101 3.8075760006904602e-02</internalNodes>
          <leafValues>
            -1.6565309464931488e-01 6.1101371049880981e-01</leafValues></_>
        <_>
          <internalNodes>
            0 -1 102 2.7834787964820862e-02</internalNodes>
          <leafValues>
            2.3038952052593231e-01 -3.9732274413108826e-01</leafValues></_>
        <_>
          <internalNodes>
            0 -1 200 1.5984915196895599e-02</internalNodes>
          <leafValues>
            5.2257883548736572e-01 -1.9665509462356567e-01</leafValues></_>
        <_>
          <internalNodes>
            0 -1 54 2.5514775887131691e-02</internalNodes>
          <leafValues>
            2.5813820958137512e-01 -4.5866918563842773e-01</leafValues></_>
        <_>
          <internalNodes>
            0 -1 294 2.1494477987289429e-02</internalNodes>
          <leafValues>
            3.0175471305847168e-01 -3.7906408309936523e-01</leafValues></_>
        <_>
          <internalNodes>
            0 -1 44 6.3201859593391418e-02</internalNodes>
          <leafValues>
            -1.0274508595466614e-01 7.7897489070892334e-01</leafValues></_></weakClassifiers></_>
    <!-- stage 2 -->
    <_>
      <maxWeakCount>50</maxWeakCount>
      <stageThreshold>-4.6442782878875732e-01</stageThreshold>
      <weakClassifiers>
        <_>
          <internalNodes>
            0 -1 387 3.5218648612499237e-02</internalNodes>
          <leafValues>
            -4.6153846383094788e-01 1.3178294897079468e-01</leafValues></_>
        <_>
          <internalNodes>
            0 -1 114 6.4636149909347296e-04</internalNodes>
          <leafValues>
            -8.8526904582977295e-01 6.8435318768024445e-02</leafValues></_>
        <_>
          <internalNodes>
            0 -1 204 5.8008931577205658e-02</internalNodes>
          <leafValues>
            -8.4939181804656982e-02 6.4399087429046631e-01</leafValues></_>
        <_>
          <internalNodes>
            0 -1 440 3.8727290928363800e-02</internalNodes>
          <leafValues>
            1.4063346385955811e-01 -3.9696469902992249e-01</leafValues></_>
        <_>
          <internalNodes>
            0 -1 411 5.0239033997058868e-02</internalNodes>
          <leafValues>
            1.0052011907100677e-01 -5.2165925502777100e-01</leafValues></_>
        <_>
          <internalNodes>
            0 -1 16 5.9538153000175953e-03</internalNodes>
          <leafValues>
            4.1141396760940552e-01 -1.2436764687299728e-01</leafValues></_>
        <_>
          <internalNodes>
            0 -1 433 1.5718365088105202e-02</internalNodes>
          <leafValues>
            -3.5329341888427734e-01 1.5390592813491821e-01</leafValues></_>
        <_>
          <internalNodes>
            0 -1 403 3.1468391418457031e-02</internalNodes>
          <leafValues>
            -1.5598793327808380e-01 3.2814574241638184e-01</leafValues></_>
        <_>
          <internalNodes>
            0 -1 371 4.2390644550323486e-02</internalNodes>
          <leafValues>
            -1.3488163053989410e-01 4.9585101008415222e-01</leafValues></_>
        <_>
          <internalNodes>
            0 -1 292 2.1360788494348526e-02</internalNodes>
          <leafValues>
            2.3464785516262054e-01 -2.3714347183704376e-01</leafValues></_>
        <_>
          <internalNodes>
            0 -1 65 5.6205166038125753e-04</internalNodes>
          <leafValues>
            -7.1467524766921997e-01 8.9680619537830353e-02</leafValues></_>
        <_>
          <internalNodes>
            0 -1 424 2.4819921702146530e-02</internalNodes>
          <leafValues>
            1.9124932587146759e-01 -2.8706690669059753e-01</leafValues></_>
        <_>
          <internalNodes>
            0 -1 365 2.9442094266414642e-02</internalNodes>
          <leafValues>
            -1.8936836719512939e-01 2.8949570655822754e-01</leafValues></_>
        <_>
          <internalNodes>
            0 -1 295 1.4823565259575844e-02</internalNodes>
          <leafValues>
            3.0441802740097046e-01 -1.5396332740783691e-01</leafValues></_>
        <_>
          <internalNodes>
            0 -1 442 4.0899522602558136e-02</internalNodes>
          <leafValues>
            8.8587924838066101e-02 -5.4468637704849243e-01</leafValues></_>
        <_>
          <internalNodes>
            0 -1 67 1.4828940853476524e-02</internalNodes>
          <leafValues>
            3.3225053548812866e-01 -1.8847650289535522e-01</leafValues></_>
        <_>
          <internalNodes>
            0 -1 86 4.5230306568555534e-04</internalNodes>
          <leafValues>
            -8.6345088481903076e-01 7.4209019541740417e-02</leafValues></_>
        <_>
          <internalNodes>
            0 -1 240 1.0241936892271042e-02</internalNodes>
          <leafValues>
            3.7403208017349243e-01 -1.7409881949424744e-01</leafValues></_>
        <_>
          <internalNodes>
            0 -1 42 7.1566261351108551e-02</internalNodes>
          <leafValues>
            -8.7573513388633728e-02 6.1535984277725220e-01</leafValues></_>
        <_>
          <internalNodes>
            0 -1 296 5.8653550222516060e-03</internalNodes>
          <leafValues>
            -3.9585632085800171e-01 1.3233883678913116e-01</leafValues></_>
        <_>
          <internalNodes>
            0 -1 100 8.1673070788383484e-02</internalNodes>
          <leafValues>
            -6.2223535031080246e-02 8.8282537460327148e-01</leafValues></_>
        <_>
          <internalNodes>
            0 -1 59 1.2184049934148788e-02</internalNodes>
          <leafValues>
            3.4614747762680054e-01 -1.3601085543632507e-01</leafValues></_>
        <_>
          <internalNodes>
            0 -1 21 2.2662401199340820e-02</internalNodes>
          <leafValues>
            2.3740743100643158e-01 -2.1968601644039154e-01</leafValues></_>
        <_>
          <internalNodes>
            0 -1 56 8.1190571654587984e-04</internalNodes>
          <leafValues>
            -7.5986027717590332e-01 6.8683080375194550e-02</leafValues></_>
        <_>
          <internalNodes>
            0 -1 47 7.8150965273380280e-03</internalNodes>
          <leafValues>
            4.2480295896530151e-01 -1.4063119888305664e-01</leafValues></_>
        <_>
          <internalNodes>
            0 -1 130 6.6742241382598877e-02</internalNodes>
          <leafValues>
            -9.1649085283279419e-02 7.0251029729843140e-01</leafValues></_>
        <_>
          <internalNodes>
            0 -1 407 9.9319070577621460e-03</internalNodes>
          <leafValues>
            -4.3748730421066284e-01 1.4061978459358215e-01</leafValues></_>
        <_>
          <internalNodes>
            0 -1 284 5.4403906688094139e-03</internalNodes>
          <leafValues>
            4.4942781329154968e-01 -1.2630198895931244e-01</leafValues></_>
        <_>
          <internalNodes>
            0 -1 187 9.6125267446041107e-03</internalNodes>
          <leafValues>
            3.6365553736686707e-01 -1.4578208327293396e-01</leafValues></_>
        <_>
          <internalNodes>
            0 -1 447 7.9358592629432678e-03</internalNodes>
          <leafValues>
            -6.9261282682418823e-01 9.7161844372749329e-02</leafValues></_>
        <_>
          <internalNodes>
            0 -1 54 3.9072100073099136e-02</internalNodes>
          <leafValues>
            9.7203329205513000e-02 -5.0829625129699707e-01</leafValues></_>
        <_>
          <internalNodes>
            0 -1 186 3.7238456308841705e-02</internalNodes>
          <leafValues>
            -1.2695905566215515e-01 3.7572795152664185e-01</leafValues></_>
        <_>
          <internalNodes>
            0 -1 151 1.3666791841387749e-02</internalNodes>
          <leafValues>
            2.6266735792160034e-01 -1.8581795692443848e-01</leafValues></_>
        <_>
          <internalNodes>
            0 -1 432 3.6605973728001118e-03</internalNodes>
          <leafValues>
            -8.6885493993759155e-01 6.1148539185523987e-02</leafValues></_>
        <_>
          <internalNodes>
            0 -1 299 1.7268069088459015e-02</internalNodes>
          <leafValues>
            2.7160778641700745e-01 -1.9769676029682159e-01</leafValues></_>
        <_>
          <internalNodes>
            0 -1 192 7.7651515603065491e-02</internalNodes>
          <leafValues>
            -5.9949979186058044e-02 7.9993444681167603e-01</leafValues></_>
        <_>
          <internalNodes>
            0 -1 438 4.7865010797977448e-02</internalNodes>
          <leafValues>
            9.6227042376995087e-02 -5.4355019330978394e-01</leafValues></_>
        <_>
          <internalNodes>
            0 -1 225 1.0036075254902244e-03</internalNodes>
          <leafValues>
            -9.2077517509460449e-01 4.0163684636354446e-02</leafValues></_>
        <_>
          <internalNodes>
            0 -1 99 1.0645674541592598e-02</internalNodes>
          <leafValues>
            3.2663670182228088e-01 -1.5266554057598114e-01</leafValues></_>
        <_>
          <internalNodes>
            0 -1 165 1.3773061335086823e-02</internalNodes>
          <leafValues>
            -3.3114439249038696e-01 1.8777510523796082e-01</leafValues></_>
        <_>
          <internalNodes>
            0 -1 107 3.3677920699119568e-02</internalNodes>
          <leafValues>
            -1.3317823410034180e-01 3.4066820144653320e-01</leafValues></_>
        <_>
          <internalNodes>
            0 -1 29 5.4356334730982780e-03</internalNodes>
          <leafValues>
            5.3009927272796631e-01 -8.7488107383251190e-02</leafValues></_>
        <_>
          <internalNodes>
            0 -1 66 5.8676838874816895e-02</internalNodes>
          <leafValues>
            -7.4254781007766724e-02 6.3468754291534424e-01</leafValues></_>
        <_>
          <internalNodes>
            0 -1 17 5.3625930100679398e-02</internalNodes>
          <leafValues>
            1.0217797011137009e-01 -5.3889232873916626e-01</leafValues></_>
        <_>
          <internalNodes>
            0 -1 93 1.4349414035677910e-02</internalNodes>
          <leafValues>
            2.7268511056900024e-01 -2.0094722509384155e-01</leafValues></_>
        <_>
          <internalNodes>
            0 -1 212 4.0588956326246262e-02</internalNodes>
          <leafValues>
            -1.3148811459541321e-01 4.2610025405883789e-01</leafValues></_>
        <_>
          <internalNodes>
            0 -1 198 1.4433164149522781e-02</internalNodes>
          <leafValues>
            3.2003644108772278e-01 -1.6167715191841125e-01</leafValues></_>
        <_>
          <internalNodes>
            0 -1 258 9.4593046233057976e-03</internalNodes>
          <leafValues>
            -4.0005919337272644e-01 1.5251906216144562e-01</leafValues></_>
        <_>
          <internalNodes>
            0 -1 35 6.0827820561826229e-04</internalNodes>
          <leafValues>
            -7.0093703269958496e-01 6.6832259297370911e-02</leafValues></_>
        <_>
          <internalNodes>
            0 -1 176 5.7577952742576599e-02</internalNodes>
          <leafValues>
            6.6938042640686035e-02 -6.7662394046783447e-01</leafValues></_></weakClassifiers></_>
    <!-- stage 3 -->
    <_>
      <maxWeakCount>56</maxWeakCount>
      <stageThreshold>-2.9578104615211487e-01</stageThreshold>
      <weakClassifiers>
        <_>
          <internalNodes>
            0 -1 190 2.7477489784359932e-02</internalNodes>
          <leafValues>
            -4.9065420031547546e-01 6.5088756382465363e-02</leafValues></_>
        <_>
          <internalNodes>
            0 -1 273 7.0677874609827995e-03</internalNodes>
          <leafValues>
            4.3023198843002319e-01 -1.6815268993377686e-01</leafValues></_>
        <_>
          <internalNodes>
            0 -1 341 1.4367613941431046e-02</internalNodes>
          <leafValues>
            -2.9964745044708252e-01 1.9739937782287598e-01</leafValues></_>
        <_>
          <internalNodes>
            0 -1 179 2.5715846568346024e-02</internalNodes>
          <leafValues>
            2.0091360807418823e-01 -2.7031001448631287e-01</leafValues></_>
        <_>
          <internalNodes>
            0 -1 249 1.5383758582174778e-03</internalNodes>
          <leafValues>
            7.3178160190582275e-01 -3.1286686658859253e-02</leafValues></_>
        <_>
          <internalNodes>
            0 -1 232 1.3583760708570480e-02</internalNodes>
          <leafValues>
            -2.4802330136299133e-01 1.9474701583385468e-01</leafValues></_>
        <_>
          <internalNodes>
            0 -1 2 6.6392337903380394e-03</internalNodes>
          <leafValues>
            3.0246862769126892e-01 -1.4169405400753021e-01</leafValues></_>
        <_>
          <internalNodes>
            0 -1 265 5.3305588662624359e-02</internalNodes>
          <leafValues>
            -9.2628657817840576e-02 4.3344101309776306e-01</leafValues></_>
        <_>
          <internalNodes>
            0 -1 189 9.7316414117813110e-02</internalNodes>
          <leafValues>
            -5.0177216529846191e-02 7.6159727573394775e-01</leafValues></_>
        <_>
          <internalNodes>
            0 -1 174 5.7014014571905136e-02</internalNodes>
          <leafValues>
            -8.1716410815715790e-02 4.8304155468940735e-01</leafValues></_>
        <_>
          <internalNodes>
            0 -1 332 2.9736217111349106e-02</internalNodes>
          <leafValues>
            2.1444250643253326e-01 -2.3388378322124481e-01</leafValues></_>
        <_>
          <internalNodes>
            0 -1 448 1.3977928087115288e-02</internalNodes>
          <leafValues>
            -3.9096808433532715e-01 1.1229141056537628e-01</leafValues></_>
        <_>
          <internalNodes>
            0 -1 313 3.0326731503009796e-03</internalNodes>
          <leafValues>
            7.2632974386215210e-01 -5.8353155851364136e-02</leafValues></_>
        <_>
          <internalNodes>
            0 -1 104 2.2285874933004379e-02</internalNodes>
          <leafValues>
            -1.9305139780044556e-01 2.4858389794826508e-01</leafValues></_>
        <_>
          <internalNodes>
            0 -1 314 4.5183360576629639e-02</internalNodes>
          <leafValues>
            8.9538194239139557e-02 -5.2658027410507202e-01</leafValues></_>
        <_>
          <internalNodes>
            0 -1 80 4.3392539024353027e-02</internalNodes>
          <leafValues>
            1.0249045491218567e-01 -4.2126578092575073e-01</leafValues></_>
        <_>
          <internalNodes>
            0 -1 77 2.9220259748399258e-03</internalNodes>
          <leafValues>
            5.5513668060302734e-01 -8.8053733110427856e-02</leafValues></_>
        <_>
          <internalNodes>
            0 -1 133 3.3332225866615772e-03</internalNodes>
          <leafValues>
            -6.2477123737335205e-01 8.3490803837776184e-02</leafValues></_>
        <_>
          <internalNodes>
            0 -1 109 5.9293806552886963e-03</internalNodes>
          <leafValues>
            3.8871738314628601e-01 -1.1811783164739609e-01</leafValues></_>
        <_>
          <internalNodes>
            0 -1 153 1.2103245593607426e-02</internalNodes>
          <leafValues>
            -2.9992759227752686e-01 1.5912246704101563e-01</leafValues></_>
        <_>
          <internalNodes>
            0 -1 245 7.1792252361774445e-02</internalNodes>
          <leafValues>
            6.7004375159740448e-02 -7.2098582983016968e-01</leafValues></_>
        <_>
          <internalNodes>
            0 -1 248 1.1685142293572426e-02</internalNodes>
          <leafValues>
            2.8039833903312683e-01 -1.7063726484775543e-01</leafValues></_>
        <_>
          <internalNodes>
            0 -1 392 6.1929259449243546e-02</internalNodes>
          <leafValues>
            6.2352690845727921e-02 -6.9989877939224243e-01</leafValues></_>
        <_>
          <internalNodes>
            0 -1 224 7.4183635413646698e-02</internalNodes>
          <leafValues>
            -8.1256426870822906e-02 7.6490509510040283e-01</leafValues></_>
        <_>
          <internalNodes>
            0 -1 162 5.6780111044645309e-03</internalNodes>
          <leafValues>
            4.8367783427238464e-01 -7.6265849173069000e-02</leafValues></_>
        <_>
          <internalNodes>
            0 -1 27 2.2156341001391411e-03</internalNodes>
          <leafValues>
            7.7410262823104858e-01 -5.6870885193347931e-02</leafValues></_>
        <_>
          <internalNodes>
            0 -1 122 2.5881776586174965e-02</internalNodes>
          <leafValues>
            -1.7465169727802277e-01 2.9954427480697632e-01</leafValues></_>
        <_>
          <internalNodes>
            0 -1 363 5.1206634379923344e-03</internalNodes>
          <leafValues>
            -6.2077891826629639e-01 7.1251340210437775e-02</leafValues></_>
        <_>
          <internalNodes>
            0 -1 81 8.4318257868289948e-03</internalNodes>
          <leafValues>
            3.9741390943527222e-01 -1.7917218804359436e-01</leafValues></_>
        <_>
          <internalNodes>
            0 -1 267 2.1490221843123436e-02</internalNodes>
          <leafValues>
            1.8925330042839050e-01 -2.2661548852920532e-01</leafValues></_>
        <_>
          <internalNodes>
            0 -1 426 2.4800769984722137e-02</internalNodes>
          <leafValues>
            1.6789285838603973e-01 -2.6052531599998474e-01</leafValues></_>
        <_>
          <internalNodes>
            0 -1 136 3.4052621573209763e-02</internalNodes>
          <leafValues>
            1.2499342113733292e-01 -3.6993592977523804e-01</leafValues></_>
        <_>
          <internalNodes>
            0 -1 34 2.6168517768383026e-02</internalNodes>
          <leafValues>
            -2.2206738591194153e-01 2.1635749936103821e-01</leafValues></_>
        <_>
          <internalNodes>
            0 -1 301 4.6879537403583527e-03</internalNodes>
          <leafValues>
            -5.4379260540008545e-01 6.5543435513973236e-02</leafValues></_>
        <_>
          <internalNodes>
            0 -1 78 1.1720852926373482e-02</internalNodes>
          <leafValues>
            2.6644173264503479e-01 -1.6550782322883606e-01</leafValues></_>
        <_>
          <internalNodes>
            0 -1 83 6.0449000447988510e-02</internalNodes>
          <leafValues>
            -6.1894919723272324e-02 5.8516216278076172e-01</leafValues></_>
        <_>
          <internalNodes>
            0 -1 193 1.6851813415996730e-04</internalNodes>
          <leafValues>
            9.5136868953704834e-01 -3.0854877084493637e-02</leafValues></_>
        <_>
          <internalNodes>
            0 -1 335 3.4472938627004623e-02</internalNodes>
          <leafValues>
            -1.2170882523059845e-01 3.2239094376564026e-01</leafValues></_>
        <_>
          <internalNodes>
            0 -1 345 2.0908560603857040e-02</internalNodes>
          <leafValues>
            -1.9279249012470245e-01 2.1360819041728973e-01</leafValues></_>
        <_>
          <internalNodes>
            0 -1 24 1.0460047423839569e-01</internalNodes>
          <leafValues>
            -5.1839433610439301e-02 8.4535819292068481e-01</leafValues></_>
        <_>
          <internalNodes>
            0 -1 5 1.1199789587408304e-03</internalNodes>
          <leafValues>
            7.7321815490722656e-01 -4.1171260178089142e-02</leafValues></_>
        <_>
          <internalNodes>
            0 -1 398 1.2295030057430267e-02</internalNodes>
          <leafValues>
            -3.5533264279365540e-01 1.2977106869220734e-01</leafValues></_>
        <_>
          <internalNodes>
            0 -1 96 7.4422612786293030e-02</internalNodes>
          <leafValues>
            -6.8687036633491516e-02 6.3727438449859619e-01</leafValues></_>
        <_>
          <internalNodes>
            0 -1 105 2.2410690784454346e-02</internalNodes>
          <leafValues>
            -1.7281582951545715e-01 2.5709909200668335e-01</leafValues></_>
        <_>
          <internalNodes>
            0 -1 142 7.2113722562789917e-02</internalNodes>
          <leafValues>
            -7.3989152908325195e-02 6.8498498201370239e-01</leafValues></_>
        <_>
          <internalNodes>
            0 -1 98 5.8314288035035133e-03</internalNodes>
          <leafValues>
            -3.8855814933776855e-01 1.0928286612033844e-01</leafValues></_>
        <_>
          <internalNodes>
            0 -1 337 1.1074550449848175e-02</internalNodes>
          <leafValues>
            4.2665079236030579e-01 -1.3111799955368042e-01</leafValues></_>
        <_>
          <internalNodes>
            0 -1 39 7.5977221131324768e-02</internalNodes>
          <leafValues>
            5.8844909071922302e-02 -7.5664037466049194e-01</leafValues></_>
        <_>
          <internalNodes>
            0 -1 49 8.0451173707842827e-03</internalNodes>
          <leafValues>
            2.7499228715896606e-01 -1.4697204530239105e-01</leafValues></_>
        <_>
          <internalNodes>
            0 -1 360 6.9342844188213348e-02</internalNodes>
          <leafValues>
            4.2398545891046524e-02 -9.3045699596405029e-01</leafValues></_>
        <_>
          <internalNodes>
            0 -1 307 3.1452409923076630e-02</internalNodes>
          <leafValues>
            1.5421776473522186e-01 -2.6363328099250793e-01</leafValues></_>
        <_>
          <internalNodes>
            0 -1 380 1.2466639280319214e-02</internalNodes>
          <leafValues>
            -3.8562902808189392e-01 1.1493028700351715e-01</leafValues></_>
        <_>
          <internalNodes>
            0 -1 170 3.3942628651857376e-03</internalNodes>
          <leafValues>
            5.1406145095825195e-01 -8.8951319456100464e-02</leafValues></_>
        <_>
          <internalNodes>
            0 -1 324 1.4270450919866562e-02</internalNodes>
          <leafValues>
            -2.5731885433197021e-01 1.6458526253700256e-01</leafValues></_>
        <_>
          <internalNodes>
            0 -1 408 9.3689393252134323e-03</internalNodes>
          <leafValues>
            4.0147310495376587e-01 -1.2019316852092743e-01</leafValues></_>
        <_>
          <internalNodes>
            0 -1 90 1.2867310643196106e-01</internalNodes>
          <leafValues>
            -5.1354844123125076e-02 8.9474213123321533e-01</leafValues></_></weakClassifiers></_>
    <!-- stage 4 -->
    <_>
      <maxWeakCount>58</maxWeakCount>
      <stageThreshold>-3.8299867510795593e-01</stageThreshold>
      <weakClassifiers>
        <_>
          <internalNodes>
            0 -1 423 2.7160758152604103e-02</internalNodes>
          <leafValues>
            -1.3119533658027649e-01 -6.0629922151565552e-01</leafValues></_>
        <_>
          <internalNodes>
            0 -1 334 6.0299985110759735e-02</internalNodes>
          <leafValues>
            3.8751654326915741e-02 -7.0182865858078003e-01</leafValues></_>
        <_>
          <internalNodes>
            0 -1 138 1.2523502111434937e-02</internalNodes>
          <leafValues>
            -2.5190475583076477e-01 2.3851814866065979e-01</leafValues></_>
        <_>
          <internalNodes>
            0 -1 64 2.5648325681686401e-02</internalNodes>
          <leafValues>
            -2.1018296480178833e-01 2.2246055305004120e-01</leafValues></_>
        <_>
          <internalNodes>
            0 -1 247 6.7903339862823486e-02</internalNodes>
          <leafValues>
            4.8759769648313522e-02 -7.3710888624191284e-01</leafValues></_>
        <_>
          <internalNodes>
            0 -1 147 6.6429108381271362e-02</internalNodes>
          <leafValues>
            -8.6098067462444305e-02 5.8992511034011841e-01</leafValues></_>
        <_>
          <internalNodes>
            0 -1 395 6.4902350306510925e-02</internalNodes>
          <leafValues>
            4.6088732779026031e-02 -7.9372566938400269e-01</leafValues></_>
        <_>
          <internalNodes>
            0 -1 250 9.6014030277729034e-03</internalNodes>
          <leafValues>
            -2.4687810242176056e-01 1.3788296282291412e-01</leafValues></_>
        <_>
          <internalNodes>
            0 -1 251 4.1083926334977150e-03</internalNodes>
          <leafValues>
            5.3370064496994019e-01 -6.6720649600028992e-02</leafValues></_>
        <_>
          <internalNodes>
            0 -1 418 1.4880073256790638e-02</internalNodes>
          <leafValues>
            -2.6918458938598633e-01 1.4625304937362671e-01</leafValues></_>
        <_>
          <internalNodes>
            0 -1 326 6.1256695538759232e-02</internalNodes>
          <leafValues>
            4.7888882458209991e-02 -7.9495823383331299e-01</leafValues></_>
        <_>
          <internalNodes>
            0 -1 94 1.1792458593845367e-02</internalNodes>
          <leafValues>
            -2.5014179944992065e-01 1.4858241379261017e-01</leafValues></_>
        <_>
          <internalNodes>
            0 -1 30 3.2358177006244659e-02</internalNodes>
          <leafValues>
            1.2473126500844955e-01 -3.3621606230735779e-01</leafValues></_>
        <_>
          <internalNodes>
            0 -1 46 1.5828665345907211e-03</internalNodes>
          <leafValues>
            7.2299307584762573e-01 -6.7546874284744263e-02</leafValues></_>
        <_>
          <internalNodes>
            0 -1 246 1.3193247839808464e-02</internalNodes>
          <leafValues>
            -2.4967704713344574e-01 1.7212006449699402e-01</leafValues></_>
        <_>
          <internalNodes>
            0 -1 261 5.1883663982152939e-02</internalNodes>
          <leafValues>
            9.2481657862663269e-02 -4.9302157759666443e-01</leafValues></_>
        <_>
          <internalNodes>
            0 -1 181 5.2377492189407349e-02</internalNodes>
          <leafValues>
            -9.6552185714244843e-02 4.9802300333976746e-01</leafValues></_>
        <_>
          <internalNodes>
            0 -1 227 4.6070767566561699e-03</internalNodes>
          <leafValues>
            4.1271793842315674e-01 -9.1035477817058563e-02</leafValues></_>
        <_>
          <internalNodes>
            0 -1 283 3.6923605948686600e-02</internalNodes>
          <leafValues>
            9.6395067870616913e-02 -3.7267065048217773e-01</leafValues></_>
        <_>
          <internalNodes>
            0 -1 35 5.7314345613121986e-03</internalNodes>
          <leafValues>
            -3.1675073504447937e-01 1.3482590019702911e-01</leafValues></_>
        <_>
          <internalNodes>
            0 -1 309 6.8988958373665810e-03</internalNodes>
          <leafValues>
            5.0693196058273315e-01 -8.5855014622211456e-02</leafValues></_>
        <_>
          <internalNodes>
            0 -1 290 6.3222472090274096e-04</internalNodes>
          <leafValues>
            -8.2807552814483643e-01 4.3823048472404480e-02</leafValues></_>
        <_>
          <internalNodes>
            0 -1 357 1.0609632357954979e-02</internalNodes>
          <leafValues>
            3.3476695418357849e-01 -1.1934893578290939e-01</leafValues></_>
        <_>
          <internalNodes>
            0 -1 316 3.7800017744302750e-02</internalNodes>
          <leafValues>
            9.5559567213058472e-02 -4.1112297773361206e-01</leafValues></_>
        <_>
          <internalNodes>
            0 -1 180 3.0851379036903381e-02</internalNodes>
          <leafValues>
            1.4285041391849518e-01 -2.8724187612533569e-01</leafValues></_>
        <_>
          <internalNodes>
            0 -1 336 5.4851262830197811e-03</internalNodes>
          <leafValues>
            -4.6716949343681335e-01 7.8989624977111816e-02</leafValues></_>
        <_>
          <internalNodes>
            0 -1 331 9.7323000431060791e-02</internalNodes>
          <leafValues>
            -4.8601601272821426e-02 7.9904067516326904e-01</leafValues></_>
        <_>
          <internalNodes>
            0 -1 379 1.4904386363923550e-02</internalNodes>
          <leafValues>
            -3.2820799946784973e-01 1.3170883059501648e-01</leafValues></_>
        <_>
          <internalNodes>
            0 -1 214 2.7836600784212351e-03</internalNodes>
          <leafValues>
            5.5616617202758789e-01 -7.9221874475479126e-02</leafValues></_>
        <_>
          <internalNodes>
            0 -1 290 1.2426430359482765e-02</internalNodes>
          <leafValues>
            -2.3489767313003540e-01 1.6719149053096771e-01</leafValues></_>
        <_>
          <internalNodes>
            0 -1 342 3.7120930850505829e-02</internalNodes>
          <leafValues>
            1.1471502482891083e-01 -4.1449847817420959e-01</leafValues></_>
        <_>
          <internalNodes>
            0 -1 351 3.1707093119621277e-02</internalNodes>
          <leafValues>
            1.1078163981437683e-01 -3.5581067204475403e-01</leafValues></_>
        <_>
          <internalNodes>
            0 -1 407 1.0999646037817001e-02</internalNodes>
          <leafValues>
            -3.9344650506973267e-01 1.1233562976121902e-01</leafValues></_>
        <_>
          <internalNodes>
            0 -1 216 2.9817803297191858e-03</internalNodes>
          <leafValues>
            6.4108800888061523e-01 -7.1330010890960693e-02</leafValues></_>
        <_>
          <internalNodes>
            0 -1 164 3.9078086614608765e-02</internalNodes>
          <leafValues>
            9.9019072949886322e-02 -4.2088153958320618e-01</leafValues></_>
        <_>
          <internalNodes>
            0 -1 446 3.5539038479328156e-02</internalNodes>
          <leafValues>
            1.3330531120300293e-01 -3.5199326276779175e-01</leafValues></_>
        <_>
          <internalNodes>
            0 -1 111 4.7664701938629150e-02</internalNodes>
          <leafValues>
            8.5080631077289581e-02 -5.7818424701690674e-01</leafValues></_>
        <_>
          <internalNodes>
            0 -1 341 5.8882877230644226e-02</internalNodes>
          <leafValues>
            4.9454074352979660e-02 -8.0906224250793457e-01</leafValues></_>
        <_>
          <internalNodes>
            0 -1 350 4.0904261171817780e-02</internalNodes>
          <leafValues>
            -1.2337374687194824e-01 3.7838891148567200e-01</leafValues></_>
        <_>
          <internalNodes>
            0 -1 140 5.9869848191738129e-03</internalNodes>
          <leafValues>
            4.5550054311752319e-01 -9.9794343113899231e-02</leafValues></_>
        <_>
          <internalNodes>
            0 -1 110 2.5291226804256439e-02</internalNodes>
          <leafValues>
            1.8294265866279602e-01 -2.8180760145187378e-01</leafValues></_>
        <_>
          <internalNodes>
            0 -1 128 7.5655318796634674e-02</internalNodes>
          <leafValues>
            -9.0172119438648224e-02 5.7001143693923950e-01</leafValues></_>
        <_>
          <internalNodes>
            0 -1 60 7.6951710507273674e-03</internalNodes>
          <leafValues>
            -3.1342154741287231e-01 1.4425493776798248e-01</leafValues></_>
        <_>
          <internalNodes>
            0 -1 258 4.8780743032693863e-02</internalNodes>
          <leafValues>
            9.6564240753650665e-02 -4.7417715191841125e-01</leafValues></_>
        <_>
          <internalNodes>
            0 -1 9 4.5991733670234680e-02</internalNodes>
          <leafValues>
            1.1199669539928436e-01 -3.8633096218109131e-01</leafValues></_>
        <_>
          <internalNodes>
            0 -1 230 4.8181223683059216e-03</internalNodes>
          <leafValues>
            -4.0649008750915527e-01 1.0291753709316254e-01</leafValues></_>
        <_>
          <internalNodes>
            0 -1 179 6.8387806415557861e-02</internalNodes>
          <leafValues>
            -7.6513655483722687e-02 5.6581759452819824e-01</leafValues></_>
        <_>
          <internalNodes>
            0 -1 194 7.3316685855388641e-02</internalNodes>
          <leafValues>
            5.1375161856412888e-02 -8.4378033876419067e-01</leafValues></_>
        <_>
          <internalNodes>
            0 -1 262 1.0410198569297791e-01</internalNodes>
          <leafValues>
            -6.6005021333694458e-02 8.3620285987854004e-01</leafValues></_>
        <_>
          <internalNodes>
            0 -1 103 7.3210880160331726e-02</internalNodes>
          <leafValues>
            7.8462600708007813e-02 -5.5650687217712402e-01</leafValues></_>
        <_>
          <internalNodes>
            0 -1 43 6.0241390019655228e-03</internalNodes>
          <leafValues>
            3.6521205306053162e-01 -1.1966723203659058e-01</leafValues></_>
        <_>
          <internalNodes>
            0 -1 73 7.8270230442285538e-03</internalNodes>
          <leafValues>
            -3.6840909719467163e-01 1.3834160566329956e-01</leafValues></_>
        <_>
          <internalNodes>
            0 -1 209 2.8960600495338440e-02</internalNodes>
          <leafValues>
            -1.6240650415420532e-01 2.6410809159278870e-01</leafValues></_>
        <_>
          <internalNodes>
            0 -1 38 5.8368872851133347e-02</internalNodes>
          <leafValues>
            8.3021894097328186e-02 -4.9876829981803894e-01</leafValues></_>
        <_>
          <internalNodes>
            0 -1 183 2.2397909313440323e-02</internalNodes>
          <leafValues>
            1.8371944129467010e-01 -2.3893015086650848e-01</leafValues></_>
        <_>
          <internalNodes>
            0 -1 84 5.0053935497999191e-02</internalNodes>
          <leafValues>
            5.1914345473051071e-02 -6.3601940870285034e-01</leafValues></_>
        <_>
          <internalNodes>
            0 -1 82 6.2153141945600510e-02</internalNodes>
          <leafValues>
            8.2464821636676788e-02 -5.2633094787597656e-01</leafValues></_>
        <_>
          <internalNodes>
            0 -1 220 3.9509879425168037e-03</internalNodes>
          <leafValues>
            4.5380818843841553e-01 -1.0669534653425217e-01</leafValues></_></weakClassifiers></_>
    <!-- stage 5 -->
    <_>
      <maxWeakCount>33</maxWeakCount>
      <stageThreshold>-4.4682684540748596e-01</stageThreshold>
      <weakClassifiers>
        <_>
          <internalNodes>
            0 -1 441 1.3857360929250717e-02</internalNodes>
          <leafValues>
            -7.5882351398468018e-01 2.2957198321819305e-01</leafValues></_>
        <_>
          <internalNodes>
            0 -1 449 2.6385061442852020e-02</internalNodes>
          <leafValues>
            -3.9214101433753967e-01 5.1019191741943359e-01</leafValues></_>
        <_>
          <internalNodes>
            0 -1 385 2.9693860560655594e-02</internalNodes>
          <leafValues>
            -2.2339767217636108e-01 5.8121842145919800e-01</leafValues></_>
        <_>
          <internalNodes>
            0 -1 302 1.0924512520432472e-02</internalNodes>
          <leafValues>
            6.7731881141662598e-01 -1.7103877663612366e-01</leafValues></_>
        <_>
          <internalNodes>
            0 -1 417 3.9285834878683090e-02</internalNodes>
          <leafValues>
            -1.1799534410238266e-01 7.2752904891967773e-01</leafValues></_>
        <_>
          <internalNodes>
            0 -1 266 2.6512015610933304e-02</internalNodes>
          <leafValues>
            -1.8647196888923645e-01 5.5717551708221436e-01</leafValues></_>
        <_>
          <internalNodes>
            0 -1 272 4.8099644482135773e-02</internalNodes>
          <leafValues>
            1.5572996437549591e-01 -6.6455787420272827e-01</leafValues></_>
        <_>
          <internalNodes>
            0 -1 356 4.3124072253704071e-02</internalNodes>
          <leafValues>
            -1.5609459578990936e-01 6.1177563667297363e-01</leafValues></_>
        <_>
          <internalNodes>
            0 -1 419 2.2418919950723648e-02</internalNodes>
          <leafValues>
            4.7933548688888550e-01 -1.7820516228675842e-01</leafValues></_>
        <_>
          <internalNodes>
            0 -1 270 4.0203314274549484e-03</internalNodes>
          <leafValues>
            8.8838398456573486e-01 -8.5332155227661133e-02</leafValues></_>
        <_>
          <internalNodes>
            0 -1 377 5.3140446543693542e-02</internalNodes>
          <leafValues>
            -9.8755851387977600e-02 5.8545702695846558e-01</leafValues></_>
        <_>
          <internalNodes>
            0 -1 379 2.0046126097440720e-02</internalNodes>
          <leafValues>
            -2.6550716161727905e-01 3.0298930406570435e-01</leafValues></_>
        <_>
          <internalNodes>
            0 -1 129 4.5277506113052368e-02</internalNodes>
          <leafValues>
            -1.2473227083683014e-01 6.0426646471023560e-01</leafValues></_>
        <_>
          <internalNodes>
            0 -1 399 3.5943351686000824e-02</internalNodes>
          <leafValues>
            1.6978646814823151e-01 -5.3465741872787476e-01</leafValues></_>
        <_>
          <internalNodes>
            0 -1 17 2.0574554800987244e-02</internalNodes>
          <leafValues>
            3.3641934394836426e-01 -2.6635357737541199e-01</leafValues></_>
        <_>
          <internalNodes>
            0 -1 329 6.7331261932849884e-02</internalNodes>
          <leafValues>
            1.1019042134284973e-01 -8.4526509046554565e-01</leafValues></_>
        <_>
          <internalNodes>
            0 -1 387 5.8211453258991241e-02</internalNodes>
          <leafValues>
            -1.1292628198862076e-01 7.7401578426361084e-01</leafValues></_>
        <_>
          <internalNodes>
            0 -1 348 3.3680841326713562e-02</internalNodes>
          <leafValues>
            -1.3066819310188293e-01 4.8850810527801514e-01</leafValues></_>
        <_>
          <internalNodes>
            0 -1 352 6.1401054263114929e-03</internalNodes>
          <leafValues>
            -6.6190856695175171e-01 1.2415648251771927e-01</leafValues></_>
        <_>
          <internalNodes>
            0 -1 182 8.4902029484510422e-03</internalNodes>
          <leafValues>
            6.0073465108871460e-01 -1.5891543030738831e-01</leafValues></_>
        <_>
          <internalNodes>
            0 -1 95 2.6800647377967834e-02</internalNodes>
          <leafValues>
            2.4396972358226776e-01 -3.1929773092269897e-01</leafValues></_>
        <_>
          <internalNodes>
            0 -1 79 6.4589336514472961e-02</internalNodes>
          <leafValues>
            -9.4294935464859009e-02 7.7732896804809570e-01</leafValues></_>
        <_>
          <internalNodes>
            0 -1 219 5.4092235863208771e-02</internalNodes>
          <leafValues>
            1.4985069632530212e-01 -5.1980954408645630e-01</leafValues></_>
        <_>
          <internalNodes>
            0 -1 235 3.3465474843978882e-02</internalNodes>
          <leafValues>
            1.4124540984630585e-01 -5.4277342557907104e-01</leafValues></_>
        <_>
          <internalNodes>
            0 -1 242 5.8690324425697327e-02</internalNodes>
          <leafValues>
            -1.0493095964193344e-01 7.9924261569976807e-01</leafValues></_>
        <_>
          <internalNodes>
            0 -1 116 9.4991885125637054e-03</internalNodes>
          <leafValues>
            3.5421028733253479e-01 -2.1580292284488678e-01</leafValues></_>
        <_>
          <internalNodes>
            0 -1 113 3.6020211875438690e-02</internalNodes>
          <leafValues>
            -1.3361868262290955e-01 5.9665751457214355e-01</leafValues></_>
        <_>
          <internalNodes>
            0 -1 376 2.3146655410528183e-02</internalNodes>
          <leafValues>
            -1.7837004363536835e-01 4.1531753540039063e-01</leafValues></_>
        <_>
          <internalNodes>
            0 -1 202 2.2409141063690186e-02</internalNodes>
          <leafValues>
            3.2262033224105835e-01 -1.8932913243770599e-01</leafValues></_>
        <_>
          <internalNodes>
            0 -1 436 2.8381068259477615e-02</internalNodes>
          <leafValues>
            1.4077857136726379e-01 -5.3216981887817383e-01</leafValues></_>
        <_>
          <internalNodes>
            0 -1 378 6.4242109656333923e-03</internalNodes>
          <leafValues>
            -5.6374925374984741e-01 1.4725159108638763e-01</leafValues></_>
        <_>
          <internalNodes>
            0 -1 354 2.9342401772737503e-02</internalNodes>
          <leafValues>
            2.8095853328704834e-01 -2.8808677196502686e-01</leafValues></_>
        <_>
          <internalNodes>
            0 -1 277 1.8358973320573568e-03</internalNodes>
          <leafValues>
            6.2298262119293213e-01 -1.1550768464803696e-01</leafValues></_></weakClassifiers></_>
    <!-- stage 6 -->
    <_>
      <maxWeakCount>48</maxWeakCount>
      <stageThreshold>-3.8015377521514893e-01</stageThreshold>
      <weakClassifiers>
        <_>
          <internalNodes>
            0 -1 31 8.0884154886007309e-03</internalNodes>
          <leafValues>
            3.5416665673255920e-01 -4.6506986021995544e-01</leafValues></_>
        <_>
          <internalNodes>
            0 -1 414 3.0362803488969803e-02</internalNodes>
          <leafValues>
            -2.1322607994079590e-01 3.4167534112930298e-01</leafValues></_>
        <_>
          <internalNodes>
            0 -1 330 3.9223693311214447e-02</internalNodes>
          <leafValues>
            -1.7535768449306488e-01 5.2043837308883667e-01</leafValues></_>
        <_>
          <internalNodes>
            0 -1 109 8.4528625011444092e-03</internalNodes>
          <leafValues>
            4.3749046325683594e-01 -1.3342601060867310e-01</leafValues></_>
        <_>
          <internalNodes>
            0 -1 52 2.2133745253086090e-02</internalNodes>
          <leafValues>
            -2.2508072853088379e-01 3.0843931436538696e-01</leafValues></_>
        <_>
          <internalNodes>
            0 -1 306 4.9403727054595947e-02</internalNodes>
          <leafValues>
            -1.0184884816408157e-01 7.0497244596481323e-01</leafValues></_>
        <_>
          <internalNodes>
            0 -1 386 3.4291937947273254e-02</internalNodes>
          <leafValues>
            -1.2273105233907700e-01 4.8419824242591858e-01</leafValues></_>
        <_>
          <internalNodes>
            0 -1 437 2.9457209631800652e-02</internalNodes>
          <leafValues>
            -1.6652302443981171e-01 3.5612827539443970e-01</leafValues></_>
        <_>
          <internalNodes>
            0 -1 289 3.6253053694963455e-03</internalNodes>
          <leafValues>
            7.7031695842742920e-01 -4.1538521647453308e-02</leafValues></_>
        <_>
          <internalNodes>
            0 -1 406 4.3379940092563629e-02</internalNodes>
          <leafValues>
            -8.6759969592094421e-02 6.1303198337554932e-01</leafValues></_>
        <_>
          <internalNodes>
            0 -1 400 2.6537138968706131e-02</internalNodes>
          <leafValues>
            -1.6555774211883545e-01 3.4768500924110413e-01</leafValues></_>
        <_>
          <internalNodes>
            0 -1 410 3.0947547405958176e-02</internalNodes>
          <leafValues>
            -1.3583622872829437e-01 4.0546622872352600e-01</leafValues></_>
        <_>
          <internalNodes>
            0 -1 125 1.2855870882049203e-03</internalNodes>
          <leafValues>
            8.0990689992904663e-01 -6.4983732998371124e-02</leafValues></_>
        <_>
          <internalNodes>
            0 -1 439 1.6042146831750870e-02</internalNodes>
          <leafValues>
            -3.5695856809616089e-01 1.7664465308189392e-01</leafValues></_>
        <_>
          <internalNodes>
            0 -1 286 7.6242182403802872e-03</internalNodes>
          <leafValues>
            4.2631810903549194e-01 -1.4358963072299957e-01</leafValues></_>
        <_>
          <internalNodes>
            0 -1 297 3.7609701976180077e-03</internalNodes>
          <leafValues>
            7.2741782665252686e-01 -6.8251170217990875e-02</leafValues></_>
        <_>
          <internalNodes>
            0 -1 62 4.9760796129703522e-02</internalNodes>
          <leafValues>
            -1.1194785684347153e-01 4.8575666546821594e-01</leafValues></_>
        <_>
          <internalNodes>
            0 -1 144 4.2149793356657028e-02</internalNodes>
          <leafValues>
            -1.1985805630683899e-01 4.4946059584617615e-01</leafValues></_>
        <_>
          <internalNodes>
            0 -1 348 4.0909651666879654e-02</internalNodes>
          <leafValues>
            -9.8820775747299194e-02 6.2610644102096558e-01</leafValues></_>
        <_>
          <internalNodes>
            0 -1 106 2.8335653245449066e-02</internalNodes>
          <leafValues>
            -2.1694672107696533e-01 3.1139120459556580e-01</leafValues></_>
        <_>
          <internalNodes>
            0 -1 185 3.4096492454409599e-03</internalNodes>
          <leafValues>
            7.3257982730865479e-01 -8.6459159851074219e-02</leafValues></_>
        <_>
          <internalNodes>
            0 -1 234 4.3727673590183258e-02</internalNodes>
          <leafValues>
            -1.3327096402645111e-01 4.2035353183746338e-01</leafValues></_>
        <_>
          <internalNodes>
            0 -1 276 4.6845795586705208e-03</internalNodes>
          <leafValues>
            5.5049610137939453e-01 -9.5321558415889740e-02</leafValues></_>
        <_>
          <internalNodes>
            0 -1 298 7.0427311584353447e-03</internalNodes>
          <leafValues>
            4.5174366235733032e-01 -1.3977375626564026e-01</leafValues></_>
        <_>
          <internalNodes>
            0 -1 241 2.0673371851444244e-02</internalNodes>
          <leafValues>
            -2.3648360371589661e-01 3.0746114253997803e-01</leafValues></_>
        <_>
          <internalNodes>
            0 -1 338 2.8350614011287689e-02</internalNodes>
          <leafValues>
            -1.9360987842082977e-01 3.6924979090690613e-01</leafValues></_>
        <_>
          <internalNodes>
            0 -1 325 3.2961703836917877e-02</internalNodes>
          <leafValues>
            -1.7716588079929352e-01 3.7657338380813599e-01</leafValues></_>
        <_>
          <internalNodes>
            0 -1 283 8.6147431284189224e-03</internalNodes>
          <leafValues>
            4.7262364625930786e-01 -1.2847964465618134e-01</leafValues></_>
        <_>
          <internalNodes>
            0 -1 336 2.0325362682342529e-02</internalNodes>
          <leafValues>
            -2.6592734456062317e-01 2.2744637727737427e-01</leafValues></_>
        <_>
          <internalNodes>
            0 -1 288 4.3951212428510189e-03</internalNodes>
          <leafValues>
            6.8917882442474365e-01 -8.2082197070121765e-02</leafValues></_>
        <_>
          <internalNodes>
            0 -1 19 6.7659928463399410e-03</internalNodes>
          <leafValues>
            5.2889263629913330e-01 -1.0029913485050201e-01</leafValues></_>
        <_>
          <internalNodes>
            0 -1 2 4.5061823911964893e-03</internalNodes>
          <leafValues>
            4.4899740815162659e-01 -1.1292310804128647e-01</leafValues></_>
        <_>
          <internalNodes>
            0 -1 364 1.2572234496474266e-02</internalNodes>
          <leafValues>
            -3.9784061908721924e-01 1.5534497797489166e-01</leafValues></_>
        <_>
          <internalNodes>
            0 -1 175 9.7674466669559479e-03</internalNodes>
          <leafValues>
            3.8910692930221558e-01 -1.5309940278530121e-01</leafValues></_>
        <_>
          <internalNodes>
            0 -1 445 1.1073438450694084e-02</internalNodes>
          <leafValues>
            -5.2841663360595703e-01 1.1491513997316360e-01</leafValues></_>
        <_>
          <internalNodes>
            0 -1 388 7.9966485500335693e-03</internalNodes>
          <leafValues>
            5.3350275754928589e-01 -1.2287809699773788e-01</leafValues></_>
        <_>
          <internalNodes>
            0 -1 397 2.7702234685420990e-02</internalNodes>
          <leafValues>
            -1.6363231837749481e-01 3.7704327702522278e-01</leafValues></_>
        <_>
          <internalNodes>
            0 -1 80 4.2357303202152252e-02</internalNodes>
          <leafValues>
            -8.5002034902572632e-02 5.8692848682403564e-01</leafValues></_>
        <_>
          <internalNodes>
            0 -1 58 2.0072921179234982e-03</internalNodes>
          <leafValues>
            6.0465872287750244e-01 -7.6595194637775421e-02</leafValues></_>
        <_>
          <internalNodes>
            0 -1 372 5.6955991312861443e-03</internalNodes>
          <leafValues>
            -6.5079164505004883e-01 1.1066699028015137e-01</leafValues></_>
        <_>
          <internalNodes>
            0 -1 68 1.1398213915526867e-02</internalNodes>
          <leafValues>
            3.0163809657096863e-01 -1.8505787849426270e-01</leafValues></_>
        <_>
          <internalNodes>
            0 -1 51 1.1509997770190239e-02</internalNodes>
          <leafValues>
            3.6482989788055420e-01 -1.6064377129077911e-01</leafValues></_>
        <_>
          <internalNodes>
            0 -1 315 3.7056811153888702e-02</internalNodes>
          <leafValues>
            -1.4857693016529083e-01 4.3422016501426697e-01</leafValues></_>
        <_>
          <internalNodes>
            0 -1 163 2.5263726711273193e-02</internalNodes>
          <leafValues>
            -1.7817543447017670e-01 2.9699739813804626e-01</leafValues></_>
        <_>
          <internalNodes>
            0 -1 268 4.2185612022876740e-02</internalNodes>
          <leafValues>
            -8.9560434222221375e-02 5.1591098308563232e-01</leafValues></_>
        <_>
          <internalNodes>
            0 -1 353 2.0982358604669571e-02</internalNodes>
          <leafValues>
            -1.7882911860942841e-01 2.6702904701232910e-01</leafValues></_>
        <_>
          <internalNodes>
            0 -1 108 4.3999381363391876e-02</internalNodes>
          <leafValues>
            -1.5858046710491180e-01 4.0705266594886780e-01</leafValues></_>
        <_>
          <internalNodes>
            0 -1 389 2.3460939526557922e-02</internalNodes>
          <leafValues>
            -2.0881195366382599e-01 3.1808173656463623e-01</leafValues></_></weakClassifiers></_>
    <!-- stage 7 -->
    <_>
      <maxWeakCount>64</maxWeakCount>
      <stageThreshold>-3.7913787364959717e-01</stageThreshold>
      <weakClassifiers>
        <_>
          <internalNodes>
            0 -1 282 9.2773791402578354e-03</internalNodes>
          <leafValues>
            2.2471910342574120e-02 -4.8448687791824341e-01</leafValues></_>
        <_>
          <internalNodes>
            0 -1 227 8.3169359713792801e-03</internalNodes>
          <leafValues>
            3.4937208890914917e-01 -1.4701740443706512e-01</leafValues></_>
        <_>
          <internalNodes>
            0 -1 264 7.1139512583613396e-03</internalNodes>
          <leafValues>
            3.8434088230133057e-01 -1.1506878584623337e-01</leafValues></_>
        <_>
          <internalNodes>
            0 -1 320 4.4675715267658234e-02</internalNodes>
          <leafValues>
            1.1739963293075562e-01 -4.0235027670860291e-01</leafValues></_>
        <_>
          <internalNodes>
            0 -1 204 9.3462935183197260e-04</internalNodes>
          <leafValues>
            -6.3268464803695679e-01 1.2199324369430542e-01</leafValues></_>
        <_>
          <internalNodes>
            0 -1 85 3.7880379706621170e-02</internalNodes>
          <leafValues>
            -1.5163792669773102e-01 3.3488962054252625e-01</leafValues></_>
        <_>
          <internalNodes>
            0 -1 157 4.1077088564634323e-02</internalNodes>
          <leafValues>
            1.5515057742595673e-01 -3.3076068758964539e-01</leafValues></_>
        <_>
          <internalNodes>
            0 -1 303 3.0491730198264122e-02</internalNodes>
          <leafValues>
            -1.1764924973249435e-01 2.8324115276336670e-01</leafValues></_>
        <_>
          <internalNodes>
            0 -1 146 4.5075146481394768e-03</internalNodes>
          <leafValues>
            4.4821652770042419e-01 -9.6359290182590485e-02</leafValues></_>
        <_>
          <internalNodes>
            0 -1 390 6.1630569398403168e-03</internalNodes>
          <leafValues>
            -5.6292271614074707e-01 5.5428847670555115e-02</leafValues></_>
        <_>
          <internalNodes>
            0 -1 48 2.3062694817781448e-03</internalNodes>
          <leafValues>
            6.3658863306045532e-01 -5.5042020976543427e-02</leafValues></_>
        <_>
          <internalNodes>
            0 -1 401 6.2482021749019623e-02</internalNodes>
          <leafValues>
            6.5296858549118042e-02 -5.5977356433868408e-01</leafValues></_>
        <_>
          <internalNodes>
            0 -1 332 5.0043771043419838e-03</internalNodes>
          <leafValues>
            7.3560225963592529e-01 -4.4119667261838913e-02</leafValues></_>
        <_>
          <internalNodes>
            0 -1 328 4.0017254650592804e-02</internalNodes>
          <leafValues>
            -9.7168892621994019e-02 3.9244326949119568e-01</leafValues></_>
        <_>
          <internalNodes>
            0 -1 137 3.7215198390185833e-03</internalNodes>
          <leafValues>
            5.1713699102401733e-01 -6.8435601890087128e-02</leafValues></_>
        <_>
          <internalNodes>
            0 -1 168 9.2051562387496233e-04</internalNodes>
          <leafValues>
            -8.4627622365951538e-01 5.0441358238458633e-02</leafValues></_>
        <_>
          <internalNodes>
            0 -1 256 3.8833819329738617e-02</internalNodes>
          <leafValues>
            -1.1120441555976868e-01 3.1526979804039001e-01</leafValues></_>
        <_>
          <internalNodes>
            0 -1 413 4.4376187026500702e-02</internalNodes>
          <leafValues>
            -8.7919183075428009e-02 3.5475200414657593e-01</leafValues></_>
        <_>
          <internalNodes>
            0 -1 72 3.9953362196683884e-02</internalNodes>
          <leafValues>
            -9.9310025572776794e-02 3.9476922154426575e-01</leafValues></_>
        <_>
          <internalNodes>
            0 -1 310 3.8142699748277664e-02</internalNodes>
          <leafValues>
            -1.0835059732198715e-01 2.9496428370475769e-01</leafValues></_>
        <_>
          <internalNodes>
            0 -1 333 1.8521854653954506e-02</internalNodes>
          <leafValues>
            2.0939607918262482e-01 -1.6195935010910034e-01</leafValues></_>
        <_>
          <internalNodes>
            0 -1 76 4.1723792674019933e-04</internalNodes>
          <leafValues>
            -7.4188315868377686e-01 5.1189064979553223e-02</leafValues></_>
        <_>
          <internalNodes>
            0 -1 79 9.7559176385402679e-02</internalNodes>
          <leafValues>
            -4.8903290182352066e-02 9.2353188991546631e-01</leafValues></_>
        <_>
          <internalNodes>
            0 -1 181 3.5335901193320751e-03</internalNodes>
          <leafValues>
            5.6541448831558228e-01 -5.7867594063282013e-02</leafValues></_>
        <_>
          <internalNodes>
            0 -1 381 5.8040864765644073e-02</internalNodes>
          <leafValues>
            -6.6815234720706940e-02 5.0475281476974487e-01</leafValues></_>
        <_>
          <internalNodes>
            0 -1 374 1.8705658614635468e-02</internalNodes>
          <leafValues>
            -2.4275371432304382e-01 1.5997742116451263e-01</leafValues></_>
        <_>
          <internalNodes>
            0 -1 444 7.3774047195911407e-03</internalNodes>
          <leafValues>
            5.7182925939559937e-01 -7.4880041182041168e-02</leafValues></_>
        <_>
          <internalNodes>
            0 -1 300 6.2009245157241821e-02</internalNodes>
          <leafValues>
            6.3611127436161041e-02 -6.2457591295242310e-01</leafValues></_>
        <_>
          <internalNodes>
            0 -1 88 2.6581298559904099e-02</internalNodes>
          <leafValues>
            -1.4125643670558929e-01 2.5794857740402222e-01</leafValues></_>
        <_>
          <internalNodes>
            0 -1 2 2.1731730550527573e-02</internalNodes>
          <leafValues>
            1.4041073620319366e-01 -2.4449150264263153e-01</leafValues></_>
        <_>
          <internalNodes>
            0 -1 89 5.5174529552459717e-02</internalNodes>
          <leafValues>
            -7.1776740252971649e-02 5.0683772563934326e-01</leafValues></_>
        <_>
          <internalNodes>
            0 -1 229 7.5037449598312378e-02</internalNodes>
          <leafValues>
            4.8154879361391068e-02 -7.7785360813140869e-01</leafValues></_>
        <_>
          <internalNodes>
            0 -1 394 5.8569308370351791e-02</internalNodes>
          <leafValues>
            4.3603818863630295e-02 -6.3095927238464355e-01</leafValues></_>
        <_>
          <internalNodes>
            0 -1 269 7.1813762187957764e-02</internalNodes>
          <leafValues>
            -6.1400853097438812e-02 6.0366249084472656e-01</leafValues></_>
        <_>
          <internalNodes>
            0 -1 74 8.5829310119152069e-02</internalNodes>
          <leafValues>
            4.7793649137020111e-02 -7.2702503204345703e-01</leafValues></_>
        <_>
          <internalNodes>
            0 -1 373 2.6992442086338997e-02</internalNodes>
          <leafValues>
            -1.8466129899024963e-01 2.4800433218479156e-01</leafValues></_>
        <_>
          <internalNodes>
            0 -1 48 1.1027900502085686e-02</internalNodes>
          <leafValues>
            3.1640699505805969e-01 -1.5988342463970184e-01</leafValues></_>
        <_>
          <internalNodes>
            0 -1 446 5.3415589034557343e-02</internalNodes>
          <leafValues>
            -4.9702312797307968e-02 7.8931015729904175e-01</leafValues></_>
        <_>
          <internalNodes>
            0 -1 429 1.7587708309292793e-02</internalNodes>
          <leafValues>
            -2.6867389678955078e-01 1.5836490690708160e-01</leafValues></_>
        <_>
          <internalNodes>
            0 -1 92 2.3861553519964218e-02</internalNodes>
          <leafValues>
            -1.6148491203784943e-01 2.4875767529010773e-01</leafValues></_>
        <_>
          <internalNodes>
            0 -1 55 1.6746720299124718e-02</internalNodes>
          <leafValues>
            -1.8840515613555908e-01 1.8418504297733307e-01</leafValues></_>
        <_>
          <internalNodes>
            0 -1 420 3.4471467137336731e-02</internalNodes>
          <leafValues>
            1.3823032379150391e-01 -2.9859197139739990e-01</leafValues></_>
        <_>
          <internalNodes>
            0 -1 169 1.2603957206010818e-02</internalNodes>
          <leafValues>
            2.3239387571811676e-01 -1.6363812983036041e-01</leafValues></_>
        <_>
          <internalNodes>
            0 -1 223 9.1896252706646919e-03</internalNodes>
          <leafValues>
            2.9392752051353455e-01 -1.1243855208158493e-01</leafValues></_>
        <_>
          <internalNodes>
            0 -1 281 7.0976531133055687e-03</internalNodes>
          <leafValues>
            -3.5958090424537659e-01 1.1042656749486923e-01</leafValues></_>
        <_>
          <internalNodes>
            0 -1 200 6.1361547559499741e-03</internalNodes>
          <leafValues>
            4.1995754837989807e-01 -9.3627519905567169e-02</leafValues></_>
        <_>
          <internalNodes>
            0 -1 260 2.5760184973478317e-02</internalNodes>
          <leafValues>
            -1.6874693334102631e-01 2.1387594938278198e-01</leafValues></_>
        <_>
          <internalNodes>
            0 -1 369 3.7620797753334045e-02</internalNodes>
          <leafValues>
            -1.1989311128854752e-01 3.7016242742538452e-01</leafValues></_>
        <_>
          <internalNodes>
            0 -1 145 4.6626776456832886e-02</internalNodes>
          <leafValues>
            -9.6028737723827362e-02 3.8507318496704102e-01</leafValues></_>
        <_>
          <internalNodes>
            0 -1 382 7.8116521239280701e-02</internalNodes>
          <leafValues>
            4.1711002588272095e-02 -8.5075855255126953e-01</leafValues></_>
        <_>
          <internalNodes>
            0 -1 103 1.6905658412724733e-03</internalNodes>
          <leafValues>
            8.7257295846939087e-01 -4.9022149294614792e-02</leafValues></_>
        <_>
          <internalNodes>
            0 -1 349 1.5962666366249323e-03</internalNodes>
          <leafValues>
            -8.2358682155609131e-01 5.3341280668973923e-02</leafValues></_>
        <_>
          <internalNodes>
            0 -1 36 1.0462878271937370e-03</internalNodes>
          <leafValues>
            7.6812112331390381e-01 -6.0461394488811493e-02</leafValues></_>
        <_>
          <internalNodes>
            0 -1 50 3.5619251430034637e-02</internalNodes>
          <leafValues>
            -9.9314011633396149e-02 3.4419021010398865e-01</leafValues></_>
        <_>
          <internalNodes>
            0 -1 25 1.0080192238092422e-02</internalNodes>
          <leafValues>
            3.1191131472587585e-01 -1.1722446978092194e-01</leafValues></_>
        <_>
          <internalNodes>
            0 -1 145 4.8023862764239311e-03</internalNodes>
          <leafValues>
            5.9063005447387695e-01 -5.9343013912439346e-02</leafValues></_>
        <_>
          <internalNodes>
            0 -1 355 1.8308468163013458e-02</internalNodes>
          <leafValues>
            -1.8950983881950378e-01 1.7675442993640900e-01</leafValues></_>
        <_>
          <internalNodes>
            0 -1 254 4.2936980724334717e-02</internalNodes>
          <leafValues>
            -8.9080512523651123e-02 4.1657331585884094e-01</leafValues></_>
        <_>
          <internalNodes>
            0 -1 158 1.8914621323347092e-02</internalNodes>
          <leafValues>
            -2.2272714972496033e-01 1.8028697371482849e-01</leafValues></_>
        <_>
          <internalNodes>
            0 -1 20 5.2231639623641968e-02</internalNodes>
          <leafValues>
            6.0228187590837479e-02 -4.6224072575569153e-01</leafValues></_>
        <_>
          <internalNodes>
            0 -1 41 3.0542558059096336e-02</internalNodes>
          <leafValues>
            1.3666577637195587e-01 -3.1183749437332153e-01</leafValues></_>
        <_>
          <internalNodes>
            0 -1 311 3.6823645234107971e-02</internalNodes>
          <leafValues>
            -9.6683122217655182e-02 3.8445147871971130e-01</leafValues></_>
        <_>
          <internalNodes>
            0 -1 430 9.8871067166328430e-03</internalNodes>
          <leafValues>
            4.0227058529853821e-01 -8.7583124637603760e-02</leafValues></_>
        <_>
          <internalNodes>
            0 -1 252 4.0541552007198334e-02</internalNodes>
          <leafValues>
            -1.0641754418611526e-01 3.1763863563537598e-01</leafValues></_></weakClassifiers></_>
    <!-- stage 8 -->
    <_>
      <maxWeakCount>53</maxWeakCount>
      <stageThreshold>-3.7698823213577271e-01</stageThreshold>
      <weakClassifiers>
        <_>
          <internalNodes>
            0 -1 379 9.5886196941137314e-03</internalNodes>
          <leafValues>
            -7.4162679910659790e-01 -1.1340206116437912e-01</leafValues></_>
        <_>
          <internalNodes>
            0 -1 291 2.2435849532485008e-03</internalNodes>
          <leafValues>
            -7.8920841217041016e-01 6.2731996178627014e-02</leafValues></_>
        <_>
          <internalNodes>
            0 -1 131 9.6869352273643017e-04</internalNodes>
          <leafValues>
            -8.0595463514328003e-01 9.3193493783473969e-02</leafValues></_>
        <_>
          <internalNodes>
            0 -1 408 3.9353189058601856e-03</internalNodes>
          <leafValues>
            -5.9503155946731567e-01 1.0990461707115173e-01</leafValues></_>
        <_>
          <internalNodes>
            0 -1 173 7.1327947080135345e-02</internalNodes>
          <leafValues>
            -8.9871771633625031e-02 7.0265370607376099e-01</leafValues></_>
        <_>
          <internalNodes>
            0 -1 278 7.7093951404094696e-05</internalNodes>
          <leafValues>
            -9.4953089952468872e-01 7.0484399795532227e-02</leafValues></_>
        <_>
          <internalNodes>
            0 -1 238 9.1645761858671904e-04</internalNodes>
          <leafValues>
            -7.0810288190841675e-01 7.1219481527805328e-02</leafValues></_>
        <_>
          <internalNodes>
            0 -1 285 3.6476507782936096e-02</internalNodes>
          <leafValues>
            -1.4786930382251740e-01 4.1793650388717651e-01</leafValues></_>
        <_>
          <internalNodes>
            0 -1 118 1.2928331270813942e-02</internalNodes>
          <leafValues>
            -2.4727585911750793e-01 2.1202071011066437e-01</leafValues></_>
        <_>
          <internalNodes>
            0 -1 253 8.1211877986788750e-03</internalNodes>
          <leafValues>
            -3.4880301356315613e-01 1.6943226754665375e-01</leafValues></_>
        <_>
          <internalNodes>
            0 -1 197 6.1067668721079826e-03</internalNodes>
          <leafValues>
            3.7140667438507080e-01 -1.2664686143398285e-01</leafValues></_>
        <_>
          <internalNodes>
            0 -1 343 3.5897470079362392e-03</internalNodes>
          <leafValues>
            -7.3361957073211670e-01 6.6294491291046143e-02</leafValues></_>
        <_>
          <internalNodes>
            0 -1 10 1.8483847379684448e-02</internalNodes>
          <leafValues>
            -2.1959309279918671e-01 2.1483743190765381e-01</leafValues></_>
        <_>
          <internalNodes>
            0 -1 205 2.0940972492098808e-02</internalNodes>
          <leafValues>
            -2.0223759114742279e-01 2.6568648219108582e-01</leafValues></_>
        <_>
          <internalNodes>
            0 -1 274 2.4111350998282433e-02</internalNodes>
          <leafValues>
            2.1817941963672638e-01 -2.8798761963844299e-01</leafValues></_>
        <_>
          <internalNodes>
            0 -1 263 2.8051119297742844e-03</internalNodes>
          <leafValues>
            4.3942546844482422e-01 -1.2088663130998611e-01</leafValues></_>
        <_>
          <internalNodes>
            0 -1 23 9.2214606411289424e-05</internalNodes>
          <leafValues>
            -1. 4.5919582247734070e-02</leafValues></_>
        <_>
          <internalNodes>
            0 -1 161 4.0309908217750490e-04</internalNodes>
          <leafValues>
            -6.9954383373260498e-01 5.5238779634237289e-02</leafValues></_>
        <_>
          <internalNodes>
            0 -1 177 5.2966039627790451e-02</internalNodes>
          <leafValues>
            9.7216911613941193e-02 -5.1832121610641479e-01</leafValues></_>
        <_>
          <internalNodes>
            0 -1 0 5.1087833940982819e-02</internalNodes>
          <leafValues>
            7.8200325369834900e-02 -5.5726915597915649e-01</leafValues></_>
        <_>
          <internalNodes>
            0 -1 18 1.0648438910720870e-04</internalNodes>
          <leafValues>
            -9.1104292869567871e-01 4.9719031900167465e-02</leafValues></_>
        <_>
          <internalNodes>
            0 -1 271 3.6941160215064883e-04</internalNodes>
          <leafValues>
            -1. 3.2930675894021988e-02</leafValues></_>
        <_>
          <internalNodes>
            0 -1 399 4.1967503726482391e-02</internalNodes>
          <leafValues>
            9.4042256474494934e-02 -4.6039357781410217e-01</leafValues></_>
        <_>
          <internalNodes>
            0 -1 139 8.1055849790573120e-02</internalNodes>
          <leafValues>
            7.5624987483024597e-02 -5.9578561782836914e-01</leafValues></_>
        <_>
          <internalNodes>
            0 -1 321 6.4625656232237816e-03</internalNodes>
          <leafValues>
            4.6490639448165894e-01 -1.1090487986803055e-01</leafValues></_>
        <_>
          <internalNodes>
            0 -1 213 5.0487637519836426e-02</internalNodes>
          <leafValues>
            -1.0006301105022430e-01 5.9891277551651001e-01</leafValues></_>
        <_>
          <internalNodes>
            0 -1 156 8.3167888224124908e-02</internalNodes>
          <leafValues>
            -5.1809292286634445e-02 7.7974808216094971e-01</leafValues></_>
        <_>
          <internalNodes>
            0 -1 280 1.2584203854203224e-02</internalNodes>
          <leafValues>
            -2.9216191172599792e-01 1.7170703411102295e-01</leafValues></_>
        <_>
          <internalNodes>
            0 -1 61 2.7377557009458542e-02</internalNodes>
          <leafValues>
            1.7101323604583740e-01 -2.8280451893806458e-01</leafValues></_>
        <_>
          <internalNodes>
            0 -1 319 3.4111565910279751e-03</internalNodes>
          <leafValues>
            -5.9267812967300415e-01 7.5657270848751068e-02</leafValues></_>
        <_>
          <internalNodes>
            0 -1 358 1.0174859315156937e-02</internalNodes>
          <leafValues>
            3.5556331276893616e-01 -1.3953132927417755e-01</leafValues></_>
        <_>
          <internalNodes>
            0 -1 14 1.0240606963634491e-02</internalNodes>
          <leafValues>
            -3.1534916162490845e-01 1.7570200562477112e-01</leafValues></_>
        <_>
          <internalNodes>
            0 -1 206 1.5023177547845989e-04</internalNodes>
          <leafValues>
            -9.3818569183349609e-01 5.3576171398162842e-02</leafValues></_>
        <_>
          <internalNodes>
            0 -1 154 5.4580219089984894e-02</internalNodes>
          <leafValues>
            7.8094378113746643e-02 -4.6505203843116760e-01</leafValues></_>
        <_>
          <internalNodes>
            0 -1 425 4.3031051754951477e-02</internalNodes>
          <leafValues>
            1.0506084561347961e-01 -4.0533399581909180e-01</leafValues></_>
        <_>
          <internalNodes>
            0 -1 221 8.9637294877320528e-04</internalNodes>
          <leafValues>
            -8.2724863290786743e-01 4.2961236089468002e-02</leafValues></_>
        <_>
          <internalNodes>
            0 -1 37 4.0809486061334610e-02</internalNodes>
          <leafValues>
            -1.1487654596567154e-01 4.4047519564628601e-01</leafValues></_>
        <_>
          <internalNodes>
            0 -1 58 3.8477703928947449e-02</internalNodes>
          <leafValues>
            -1.0987421125173569e-01 4.0271407365798950e-01</leafValues></_>
        <_>
          <internalNodes>
            0 -1 119 2.4821490049362183e-02</internalNodes>
          <leafValues>
            -1.9556348025798798e-01 2.1466708183288574e-01</leafValues></_>
        <_>
          <internalNodes>
            0 -1 33 2.1632000803947449e-02</internalNodes>
          <leafValues>
            1.9528205692768097e-01 -2.5957801938056946e-01</leafValues></_>
        <_>
          <internalNodes>
            0 -1 412 6.6097199916839600e-02</internalNodes>
          <leafValues>
            5.7760998606681824e-02 -7.2635906934738159e-01</leafValues></_>
        <_>
          <internalNodes>
            0 -1 421 8.7578836828470230e-03</internalNodes>
          <leafValues>
            -3.8948881626129150e-01 9.6264638006687164e-02</leafValues></_>
        <_>
          <internalNodes>
            0 -1 312 1.8035899847745895e-02</internalNodes>
          <leafValues>
            2.2582566738128662e-01 -1.9144032895565033e-01</leafValues></_>
        <_>
          <internalNodes>
            0 -1 63 2.2776275873184204e-02</internalNodes>
          <leafValues>
            -1.6311772167682648e-01 2.9118525981903076e-01</leafValues></_>
        <_>
          <internalNodes>
            0 -1 131 9.6869352273643017e-04</internalNodes>
          <leafValues>
            -6.6928178071975708e-01 7.0255048573017120e-02</leafValues></_>
        <_>
          <internalNodes>
            0 -1 228 5.5515887215733528e-03</internalNodes>
          <leafValues>
            4.1309517621994019e-01 -1.2454310804605484e-01</leafValues></_>
        <_>
          <internalNodes>
            0 -1 210 1.1444234289228916e-02</internalNodes>
          <leafValues>
            -2.5148516893386841e-01 1.8309029936790466e-01</leafValues></_>
        <_>
          <internalNodes>
            0 -1 287 1.9393404945731163e-03</internalNodes>
          <leafValues>
            -5.8864456415176392e-01 6.8694785237312317e-02</leafValues></_>
        <_>
          <internalNodes>
            0 -1 428 7.2776734828948975e-02</internalNodes>
          <leafValues>
            -7.3091812431812286e-02 7.2406142950057983e-01</leafValues></_>
        <_>
          <internalNodes>
            0 -1 144 4.4247768819332123e-03</internalNodes>
          <leafValues>
            3.9938458800315857e-01 -1.0427907854318619e-01</leafValues></_>
        <_>
          <internalNodes>
            0 -1 226 7.0489242672920227e-02</internalNodes>
          <leafValues>
            7.7037811279296875e-02 -6.8588227033615112e-01</leafValues></_>
        <_>
          <internalNodes>
            0 -1 243 1.5592316631227732e-03</internalNodes>
          <leafValues>
            -6.3069802522659302e-01 5.7550806552171707e-02</leafValues></_>
        <_>
          <internalNodes>
            0 -1 146 2.6670759543776512e-03</internalNodes>
          <leafValues>
            -4.5332574844360352e-01 8.9243844151496887e-02</leafValues></_></weakClassifiers></_>
    <!-- stage 9 -->
    <_>
      <maxWeakCount>54</maxWeakCount>
      <stageThreshold>-4.7352811694145203e-01</stageThreshold>
      <weakClassifiers>
        <_>
          <internalNodes>
            0 -1 199 2.8765273746103048e-03</internalNodes>
          <leafValues>
            4.5833334326744080e-01 -4.0255010128021240e-01</leafValues></_>
        <_>
          <internalNodes>
            0 -1 373 2.1757271140813828e-02</internalNodes>
          <leafValues>
            -2.8941589593887329e-01 2.1161973476409912e-01</leafValues></_>
        <_>
          <internalNodes>
            0 -1 308 1.8585822544991970e-03</internalNodes>
          <leafValues>
            8.5547560453414917e-01 -1.3406721875071526e-02</leafValues></_>
        <_>
          <internalNodes>
            0 -1 155 9.3298424035310745e-03</internalNodes>
          <leafValues>
            -3.0180254578590393e-01 1.8616244196891785e-01</leafValues></_>
        <_>
          <internalNodes>
            0 -1 344 2.4376609362661839e-03</internalNodes>
          <leafValues>
            8.1137955188751221e-01 -5.7798400521278381e-02</leafValues></_>
        <_>
          <internalNodes>
            0 -1 81 5.0636655651032925e-03</internalNodes>
          <leafValues>
            4.2498710751533508e-01 -8.4720611572265625e-02</leafValues></_>
        <_>
          <internalNodes>
            0 -1 53 2.6305126026272774e-02</internalNodes>
          <leafValues>
            1.7669279873371124e-01 -2.6343753933906555e-01</leafValues></_>
        <_>
          <internalNodes>
            0 -1 262 5.7259161025285721e-02</internalNodes>
          <leafValues>
            1.3255208730697632e-01 -4.0260130167007446e-01</leafValues></_>
        <_>
          <internalNodes>
            0 -1 196 1.3207232113927603e-03</internalNodes>
          <leafValues>
            6.9113981723785400e-01 -6.1781015247106552e-02</leafValues></_>
        <_>
          <internalNodes>
            0 -1 327 6.3210293650627136e-02</internalNodes>
          <leafValues>
            7.4375234544277191e-02 -5.9526175260543823e-01</leafValues></_>
        <_>
          <internalNodes>
            0 -1 117 2.3016845807433128e-03</internalNodes>
          <leafValues>
            6.1251258850097656e-01 -7.3053747415542603e-02</leafValues></_>
        <_>
          <internalNodes>
            0 -1 362 1.1465007439255714e-02</internalNodes>
          <leafValues>
            -3.6423280835151672e-01 1.1717387288808823e-01</leafValues></_>
        <_>
          <internalNodes>
            0 -1 305 6.3447882421314716e-03</internalNodes>
          <leafValues>
            4.9511387944221497e-01 -7.6837785542011261e-02</leafValues></_>
        <_>
          <internalNodes>
            0 -1 252 1.1202480643987656e-01</internalNodes>
          <leafValues>
            4.5296106487512589e-02 -9.5308476686477661e-01</leafValues></_>
        <_>
          <internalNodes>
            0 -1 178 1.7468603327870369e-03</internalNodes>
          <leafValues>
            6.1406159400939941e-01 -7.6740890741348267e-02</leafValues></_>
        <_>
          <internalNodes>
            0 -1 236 7.1943253278732300e-02</internalNodes>
          <leafValues>
            8.3614200353622437e-02 -5.7809138298034668e-01</leafValues></_>
        <_>
          <internalNodes>
            0 -1 304 1.2243229895830154e-02</internalNodes>
          <leafValues>
            -3.2032951712608337e-01 1.1916729807853699e-01</leafValues></_>
        <_>
          <internalNodes>
            0 -1 405 4.0154706686735153e-02</internalNodes>
          <leafValues>
            1.0207545757293701e-01 -3.8973635435104370e-01</leafValues></_>
        <_>
          <internalNodes>
            0 -1 32 6.3633829355239868e-02</internalNodes>
          <leafValues>
            7.0223927497863770e-02 -6.2160468101501465e-01</leafValues></_>
        <_>
          <internalNodes>
            0 -1 231 3.9303783327341080e-02</internalNodes>
          <leafValues>
            -1.2025872617959976e-01 3.2856571674346924e-01</leafValues></_>
        <_>
          <internalNodes>
            0 -1 314 1.8903944641351700e-02</internalNodes>
          <leafValues>
            -2.0974332094192505e-01 1.9576413929462433e-01</leafValues></_>
        <_>
          <internalNodes>
            0 -1 334 6.1780242249369621e-03</internalNodes>
          <leafValues>
            6.4114385843276978e-01 -6.3422977924346924e-02</leafValues></_>
        <_>
          <internalNodes>
            0 -1 361 4.1609026491641998e-02</internalNodes>
          <leafValues>
            1.1941788345575333e-01 -4.4070106744766235e-01</leafValues></_>
        <_>
          <internalNodes>
            0 -1 206 3.5277463030070066e-03</internalNodes>
          <leafValues>
            6.1879044771194458e-01 -9.6111796796321869e-02</leafValues></_>
        <_>
          <internalNodes>
            0 -1 275 1.1856636963784695e-02</internalNodes>
          <leafValues>
            -3.0325907468795776e-01 1.3664659857749939e-01</leafValues></_>
        <_>
          <internalNodes>
            0 -1 434 5.9855513274669647e-02</internalNodes>
          <leafValues>
            4.3453462421894073e-02 -7.3926550149917603e-01</leafValues></_>
        <_>
          <internalNodes>
            0 -1 165 1.5043558087199926e-03</internalNodes>
          <leafValues>
            7.1741557121276855e-01 -6.8449832499027252e-02</leafValues></_>
        <_>
          <internalNodes>
            0 -1 141 1.9671536982059479e-02</internalNodes>
          <leafValues>
            -1.7209859192371368e-01 2.3621967434883118e-01</leafValues></_>
        <_>
          <internalNodes>
            0 -1 182 2.1675236523151398e-02</internalNodes>
          <leafValues>
            -2.0566609501838684e-01 1.9374413788318634e-01</leafValues></_>
        <_>
          <internalNodes>
            0 -1 112 1.7079887911677361e-03</internalNodes>
          <leafValues>
            6.3443064689636230e-01 -6.2149580568075180e-02</leafValues></_>
        <_>
          <internalNodes>
            0 -1 124 1.3193330727517605e-02</internalNodes>
          <leafValues>
            -2.4120654165744781e-01 1.6712357103824615e-01</leafValues></_>
        <_>
          <internalNodes>
            0 -1 40 1.5949966385960579e-02</internalNodes>
          <leafValues>
            -2.2792474925518036e-01 1.9895382225513458e-01</leafValues></_>
        <_>
          <internalNodes>
            0 -1 340 6.4640287309885025e-03</internalNodes>
          <leafValues>
            5.5644094944000244e-01 -8.0096073448657990e-02</leafValues></_>
        <_>
          <internalNodes>
            0 -1 449 2.6880178600549698e-02</internalNodes>
          <leafValues>
            -1.8557550013065338e-01 2.3481984436511993e-01</leafValues></_>
        <_>
          <internalNodes>
            0 -1 383 4.2775493115186691e-02</internalNodes>
          <leafValues>
            8.7785363197326660e-02 -4.6733248233795166e-01</leafValues></_>
        <_>
          <internalNodes>
            0 -1 35 2.7764760889112949e-03</internalNodes>
          <leafValues>
            6.0384213924407959e-01 -7.5558923184871674e-02</leafValues></_>
        <_>
          <internalNodes>
            0 -1 264 2.6092469692230225e-02</internalNodes>
          <leafValues>
            -1.5769313275814056e-01 2.6199710369110107e-01</leafValues></_>
        <_>
          <internalNodes>
            0 -1 391 4.5250032097101212e-02</internalNodes>
          <leafValues>
            8.2895576953887939e-02 -5.2723097801208496e-01</leafValues></_>
        <_>
          <internalNodes>
            0 -1 366 1.6556121408939362e-02</internalNodes>
          <leafValues>
            -3.0987292528152466e-01 1.3682970404624939e-01</leafValues></_>
        <_>
          <internalNodes>
            0 -1 239 2.7142041362822056e-03</internalNodes>
          <leafValues>
            6.9482493400573730e-01 -7.8179471194744110e-02</leafValues></_>
        <_>
          <internalNodes>
            0 -1 121 4.0779352188110352e-02</internalNodes>
          <leafValues>
            -8.7681338191032410e-02 4.4703030586242676e-01</leafValues></_>
        <_>
          <internalNodes>
            0 -1 387 7.8038554638624191e-03</internalNodes>
          <leafValues>
            5.6050854921340942e-01 -7.3464408516883850e-02</leafValues></_>
        <_>
          <internalNodes>
            0 -1 402 4.3023428879678249e-03</internalNodes>
          <leafValues>
            1. -4.3937675654888153e-02</leafValues></_>
        <_>
          <internalNodes>
            0 -1 201 1.8950346857309341e-02</internalNodes>
          <leafValues>
            -1.5415346622467041e-01 2.8231328725814819e-01</leafValues></_>
        <_>
          <internalNodes>
            0 -1 65 1.1323831975460052e-02</internalNodes>
          <leafValues>
            -3.4286949038505554e-01 1.5775966644287109e-01</leafValues></_>
        <_>
          <internalNodes>
            0 -1 12 2.4313934147357941e-02</internalNodes>
          <leafValues>
            1.5502671897411346e-01 -2.9132106900215149e-01</leafValues></_>
        <_>
          <internalNodes>
            0 -1 384 3.0187438242137432e-03</internalNodes>
          <leafValues>
            8.9957892894744873e-01 -5.1075477153062820e-02</leafValues></_>
        <_>
          <internalNodes>
            0 -1 15 4.3757297098636627e-02</internalNodes>
          <leafValues>
            9.9529013037681580e-02 -4.8399177193641663e-01</leafValues></_>
        <_>
          <internalNodes>
            0 -1 188 3.1066157389432192e-03</internalNodes>
          <leafValues>
            5.6153762340545654e-01 -7.8078798949718475e-02</leafValues></_>
        <_>
          <internalNodes>
            0 -1 323 2.0777259021997452e-02</internalNodes>
          <leafValues>
            -2.3727525770664215e-01 1.9632451236248016e-01</leafValues></_>
        <_>
          <internalNodes>
            0 -1 290 6.6694110631942749e-02</internalNodes>
          <leafValues>
            -5.5675037205219269e-02 7.5393259525299072e-01</leafValues></_>
        <_>
          <internalNodes>
            0 -1 279 1.9584851339459419e-02</internalNodes>
          <leafValues>
            -2.2195166349411011e-01 2.0487923920154572e-01</leafValues></_>
        <_>
          <internalNodes>
            0 -1 203 6.2777483835816383e-03</internalNodes>
          <leafValues>
            3.9515808224678040e-01 -1.0993633419275284e-01</leafValues></_>
        <_>
          <internalNodes>
            0 -1 211 9.4295460730791092e-03</internalNodes>
          <leafValues>
            -3.2884630560874939e-01 1.4739325642585754e-01</leafValues></_></weakClassifiers></_>
    <!-- stage 10 -->
    <_>
      <maxWeakCount>69</maxWeakCount>
      <stageThreshold>-3.6659300327301025e-01</stageThreshold>
      <weakClassifiers>
        <_>
          <internalNodes>
            0 -1 401 2.6902969926595688e-02</internalNodes>
          <leafValues>
            -4.7803616523742676e-01 -6.6666670143604279e-02</leafValues></_>
        <_>
          <internalNodes>
            0 -1 435 1.8564864993095398e-02</internalNodes>
          <leafValues>
            -2.6635453104972839e-01 1.5563525259494781e-01</leafValues></_>
        <_>
          <internalNodes>
            0 -1 367 2.2636156529188156e-02</internalNodes>
          <leafValues>
            -1.7407752573490143e-01 1.7977821826934814e-01</leafValues></_>
        <_>
          <internalNodes>
            0 -1 359 8.5978761315345764e-02</internalNodes>
          <leafValues>
            -5.2169445902109146e-02 7.8212380409240723e-01</leafValues></_>
        <_>
          <internalNodes>
            0 -1 97 2.0537773147225380e-02</internalNodes>
          <leafValues>
            -1.4815740287303925e-01 2.3307535052299500e-01</leafValues></_>
        <_>
          <internalNodes>
            0 -1 149 3.4068524837493896e-02</internalNodes>
          <leafValues>
            -6.9223448634147644e-02 3.6901849508285522e-01</leafValues></_>
        <_>
          <internalNodes>
            0 -1 347 9.3737570568919182e-04</internalNodes>
          <leafValues>
            8.7084913253784180e-01 -4.6804849058389664e-02</leafValues></_>
        <_>
          <internalNodes>
            0 -1 382 1.3231623917818069e-02</internalNodes>
          <leafValues>
            -2.5511306524276733e-01 1.3453654944896698e-01</leafValues></_>
        <_>
          <internalNodes>
            0 -1 105 7.3719821870326996e-02</internalNodes>
          <leafValues>
            9.6581354737281799e-02 -5.6169974803924561e-01</leafValues></_>
        <_>
          <internalNodes>
            0 -1 167 2.6516653597354889e-02</internalNodes>
          <leafValues>
            1.0431850701570511e-01 -3.2761329412460327e-01</leafValues></_>
        <_>
          <internalNodes>
            0 -1 257 2.5517717003822327e-02</internalNodes>
          <leafValues>
            -1.4527457952499390e-01 2.1273604035377502e-01</leafValues></_>
        <_>
          <internalNodes>
            0 -1 396 1.6945913434028625e-02</internalNodes>
          <leafValues>
            2.0331670343875885e-01 -1.5684102475643158e-01</leafValues></_>
        <_>
          <internalNodes>
            0 -1 245 1.0603398084640503e-02</internalNodes>
          <leafValues>
            -3.0655354261398315e-01 1.0303648561239243e-01</leafValues></_>
        <_>
          <internalNodes>
            0 -1 317 2.4555874988436699e-03</internalNodes>
          <leafValues>
            6.8076413869857788e-01 -6.7774355411529541e-02</leafValues></_>
        <_>
          <internalNodes>
            0 -1 233 6.2300998717546463e-02</internalNodes>
          <leafValues>
            5.8021806180477142e-02 -6.2204766273498535e-01</leafValues></_>
        <_>
          <internalNodes>
            0 -1 375 2.3980177938938141e-02</internalNodes>
          <leafValues>
            -1.6111728549003601e-01 2.1610456705093384e-01</leafValues></_>
        <_>
          <internalNodes>
            0 -1 447 2.3384761065244675e-02</internalNodes>
          <leafValues>
            -2.0440521836280823e-01 2.0076534152030945e-01</leafValues></_>
        <_>
          <internalNodes>
            0 -1 166 6.9696706486865878e-04</internalNodes>
          <leafValues>
            7.2054791450500488e-01 -5.5645614862442017e-02</leafValues></_>
        <_>
          <internalNodes>
            0 -1 259 2.9626465402543545e-03</internalNodes>
          <leafValues>
            5.2749168872833252e-01 -7.5385421514511108e-02</leafValues></_>
        <_>
          <internalNodes>
            0 -1 409 5.2801631391048431e-03</internalNodes>
          <leafValues>
            -5.2656710147857666e-01 7.7849917113780975e-02</leafValues></_>
        <_>
          <internalNodes>
            0 -1 184 6.2760384753346443e-03</internalNodes>
          <leafValues>
            -3.5787788033485413e-01 9.6975341439247131e-02</leafValues></_>
        <_>
          <internalNodes>
            0 -1 152 1.4106455259025097e-02</internalNodes>
          <leafValues>
            2.2078999876976013e-01 -1.5488138794898987e-01</leafValues></_>
        <_>
          <internalNodes>
            0 -1 218 2.4338319897651672e-02</internalNodes>
          <leafValues>
            -1.5539637207984924e-01 2.4381791055202484e-01</leafValues></_>
        <_>
          <internalNodes>
            0 -1 143 5.2127693779766560e-03</internalNodes>
          <leafValues>
            3.6410483717918396e-01 -8.8484980165958405e-02</leafValues></_>
        <_>
          <internalNodes>
            0 -1 237 2.1333236247301102e-02</internalNodes>
          <leafValues>
            -1.6285695135593414e-01 2.3811019957065582e-01</leafValues></_>
        <_>
          <internalNodes>
            0 -1 222 3.2056733965873718e-02</internalNodes>
          <leafValues>
            -1.2394992262125015e-01 2.8102043271064758e-01</leafValues></_>
        <_>
          <internalNodes>
            0 -1 393 5.6324157863855362e-02</internalNodes>
          <leafValues>
            6.4974687993526459e-02 -5.3660488128662109e-01</leafValues></_>
