<?xml version="1.0"?>
<opencv_storage>
<!-- Created using Computer Vision Toolbox(tm) for MATLAB(R) -->
<!-- Version 9.8.0.1451342 (R2020a) Update 5 -->
<!-- Compatible with OpenCV 3.4 -->
<cascade>
  <stageType>BOOST</stageType>
  <featureType>HOG</featureType>
  <height>32</height>
  <width>34</width>
  <stageParams>
    <boostType>GAB</boostType>
    <minHitRate>9.9500000476837158e-01</minHitRate>
    <maxFalseAlarm>5.0000000745058060e-02</maxFalseAlarm>
    <weightTrimRate>9.4999999999999996e-01</weightTrimRate>
    <maxDepth>1</maxDepth>
    <maxWeakCount>100</maxWeakCount></stageParams>
  <featureParams>
    <maxCatCount>0</maxCatCount>
    <featSize>36</featSize></featureParams>
  <stageNum>5</stageNum>
  <stages>
    <!-- stage 0 -->
    <_>
      <maxWeakCount>31</maxWeakCount>
      <stageThreshold>-7.3666459321975708e-01</stageThreshold>
      <weakClassifiers>
        <_>
          <internalNodes>
            0 -1 138 1.9102293998003006e-02</internalNodes>
          <leafValues>
            3.7915742397308350e-01 -6.3533836603164673e-01</leafValues></_>
        <_>
          <internalNodes>
            0 -1 37 2.2159809246659279e-02</internalNodes>
          <leafValues>
            4.6472302079200745e-01 -4.5283368229866028e-01</leafValues></_>
        <_>
          <internalNodes>
            0 -1 137 2.8025880455970764e-02</internalNodes>
          <leafValues>
            3.5205316543579102e-01 -5.7138031721115112e-01</leafValues></_>
        <_>
          <internalNodes>
            0 -1 293 3.8220673799514771e-02</internalNodes>
          <leafValues>
            -2.6353487372398376e-01 6.4624112844467163e-01</leafValues></_>
        <_>
          <internalNodes>
            0 -1 15 1.9225189462304115e-02</internalNodes>
          <leafValues>
            5.9320998191833496e-01 -2.3816856741905212e-01</leafValues></_>
        <_>
          <internalNodes>
            0 -1 172 1.8752928823232651e-02</internalNodes>
          <leafValues>
            4.3398794531822205e-01 -2.6601782441139221e-01</leafValues></_>
        <_>
          <internalNodes>
            0 -1 46 2.2901568561792374e-02</internalNodes>
          <leafValues>
            4.5974606275558472e-01 -3.1303545832633972e-01</leafValues></_>
        <_>
          <internalNodes>
            0 -1 147 4.4042244553565979e-02</internalNodes>
          <leafValues>
            -1.7200480401515961e-01 6.6036498546600342e-01</leafValues></_>
        <_>
          <internalNodes>
            0 -1 207 1.9664410501718521e-02</internalNodes>
          <leafValues>
            5.1311689615249634e-01 -2.2156132757663727e-01</leafValues></_>
        <_>
          <internalNodes>
            0 -1 134 1.7336253076791763e-02</internalNodes>
          <leafValues>
            4.8105213046073914e-01 -2.3167414963245392e-01</leafValues></_>
        <_>
          <internalNodes>
            0 -1 11 2.7948413044214249e-02</internalNodes>
          <leafValues>
            3.0769902467727661e-01 -3.5556095838546753e-01</leafValues></_>
        <_>
          <internalNodes>
            0 -1 96 1.0636052116751671e-02</internalNodes>
          <leafValues>
            5.8108580112457275e-01 -1.8746325373649597e-01</leafValues></_>
        <_>
          <internalNodes>
            0 -1 184 1.9699938595294952e-02</internalNodes>
          <leafValues>
            4.9462363123893738e-01 -2.0466421544551849e-01</leafValues></_>
        <_>
          <internalNodes>
            0 -1 139 2.6687214151024818e-02</internalNodes>
          <leafValues>
            2.5629308819770813e-01 -4.2601954936981201e-01</leafValues></_>
        <_>
          <internalNodes>
            0 -1 121 1.8031980842351913e-02</internalNodes>
          <leafValues>
            4.4348114728927612e-01 -2.1410825848579407e-01</leafValues></_>
        <_>
          <internalNodes>
            0 -1 311 4.2973048985004425e-02</internalNodes>
          <leafValues>
            1.8644224107265472e-01 -5.0711029767990112e-01</leafValues></_>
        <_>
          <internalNodes>
            0 -1 222 9.5868250355124474e-03</internalNodes>
          <leafValues>
            5.3810030221939087e-01 -1.9093248248100281e-01</leafValues></_>
        <_>
          <internalNodes>
            0 -1 315 7.0397689938545227e-02</internalNodes>
          <leafValues>
            1.2104277312755585e-01 -8.7746030092239380e-01</leafValues></_>
        <_>
          <internalNodes>
            0 -1 169 4.4302128255367279e-02</internalNodes>
          <leafValues>
            -1.8147569894790649e-01 6.4782780408859253e-01</leafValues></_>
        <_>
          <internalNodes>
            0 -1 92 4.7698877751827240e-02</internalNodes>
          <leafValues>
            -1.4302618801593781e-01 6.6845035552978516e-01</leafValues></_>
        <_>
          <internalNodes>
            0 -1 323 2.8418790549039841e-02</internalNodes>
          <leafValues>
            3.0221220850944519e-01 -3.2648059725761414e-01</leafValues></_>
        <_>
          <internalNodes>
            0 -1 164 2.2459551692008972e-02</internalNodes>
          <leafValues>
            3.5079634189605713e-01 -2.7638968825340271e-01</leafValues></_>
        <_>
          <internalNodes>
            0 -1 42 4.7049488872289658e-02</internalNodes>
          <leafValues>
            -1.4676699042320251e-01 6.9443285465240479e-01</leafValues></_>
        <_>
          <internalNodes>
            0 -1 260 4.0359452366828918e-02</internalNodes>
          <leafValues>
            -9.6191585063934326e-02 7.1502387523651123e-01</leafValues></_>
        <_>
          <internalNodes>
            0 -1 81 2.1933794021606445e-02</internalNodes>
          <leafValues>
            2.9589164257049561e-01 -2.8670933842658997e-01</leafValues></_>
        <_>
          <internalNodes>
            0 -1 3 2.4198884144425392e-02</internalNodes>
          <leafValues>
            3.5807991027832031e-01 -2.1305716037750244e-01</leafValues></_>
        <_>
          <internalNodes>
            0 -1 272 4.5622721314430237e-02</internalNodes>
          <leafValues>
            -1.3392810523509979e-01 6.0941398143768311e-01</leafValues></_>
        <_>
          <internalNodes>
            0 -1 186 8.7060723453760147e-03</internalNodes>
          <leafValues>
            6.5011215209960938e-01 -1.2301951646804810e-01</leafValues></_>
        <_>
          <internalNodes>
            0 -1 56 3.9279352873563766e-02</internalNodes>
          <leafValues>
            -1.2252976745367050e-01 5.7547652721405029e-01</leafValues></_>
        <_>
          <internalNodes>
            0 -1 43 4.5985192060470581e-02</internalNodes>
          <leafValues>
            -1.1008878797292709e-01 5.9199327230453491e-01</leafValues></_>
        <_>
          <internalNodes>
            0 -1 48 4.7806866466999054e-02</internalNodes>
          <leafValues>
            -1.1856839805841446e-01 6.6953110694885254e-01</leafValues></_></weakClassifiers></_>
    <!-- stage 1 -->
    <_>
      <maxWeakCount>77</maxWeakCount>
      <stageThreshold>-4.9239552021026611e-01</stageThreshold>
      <weakClassifiers>
        <_>
          <internalNodes>
            0 -1 252 2.2645384073257446e-02</internalNodes>
          <leafValues>
            2.0689655840396881e-01 -6.1732125282287598e-01</leafValues></_>
        <_>
          <internalNodes>
            0 -1 248 2.5322813540697098e-02</internalNodes>
          <leafValues>
            2.8168946504592896e-01 -4.2255014181137085e-01</leafValues></_>
        <_>
          <internalNodes>
            0 -1 70 1.7953535541892052e-02</internalNodes>
          <leafValues>
            3.2341849803924561e-01 -2.1510836482048035e-01</leafValues></_>
        <_>
          <internalNodes>
            0 -1 320 1.0621689260005951e-02</internalNodes>
          <leafValues>
            -6.4589303731918335e-01 1.0517975687980652e-01</leafValues></_>
        <_>
          <internalNodes>
            0 -1 138 2.4507638067007065e-02</internalNodes>
          <leafValues>
            2.0214411616325378e-01 -3.4217274188995361e-01</leafValues></_>
        <_>
          <internalNodes>
            0 -1 204 5.4696343839168549e-02</internalNodes>
          <leafValues>
            -6.8963490426540375e-02 6.5761083364486694e-01</leafValues></_>
        <_>
          <internalNodes>
            0 -1 55 2.5622185319662094e-02</internalNodes>
          <leafValues>
            2.6508593559265137e-01 -2.1922741830348969e-01</leafValues></_>
        <_>
          <internalNodes>
            0 -1 307 1.1105325073003769e-02</internalNodes>
          <leafValues>
            -6.3175320625305176e-01 5.2964966744184494e-02</leafValues></_>
        <_>
          <internalNodes>
            0 -1 90 1.2202713638544083e-02</internalNodes>
          <leafValues>
            3.2597437500953674e-01 -1.5865525603294373e-01</leafValues></_>
        <_>
          <internalNodes>
            0 -1 177 5.4715346544981003e-02</internalNodes>
          <leafValues>
            -7.5062885880470276e-02 5.7144534587860107e-01</leafValues></_>
        <_>
          <internalNodes>
            0 -1 120 4.0217548608779907e-02</internalNodes>
          <leafValues>
            -1.1186803132295609e-01 4.2188161611557007e-01</leafValues></_>
        <_>
          <internalNodes>
            0 -1 236 2.2360235452651978e-03</internalNodes>
          <leafValues>
            -9.7910588979721069e-01 5.5303294211626053e-02</leafValues></_>
        <_>
          <internalNodes>
            0 -1 121 1.3889946974813938e-02</internalNodes>
          <leafValues>
            2.4606788158416748e-01 -1.8077078461647034e-01</leafValues></_>
        <_>
          <internalNodes>
            0 -1 47 2.2587563842535019e-02</internalNodes>
          <leafValues>
            2.5455820560455322e-01 -1.7212474346160889e-01</leafValues></_>
        <_>
          <internalNodes>
            0 -1 66 6.0138262808322906e-02</internalNodes>
          <leafValues>
            -7.2317279875278473e-02 5.8740282058715820e-01</leafValues></_>
        <_>
          <internalNodes>
            0 -1 309 4.2154379189014435e-02</internalNodes>
          <leafValues>
            1.2949466705322266e-01 -4.7501254081726074e-01</leafValues></_>
        <_>
          <internalNodes>
            0 -1 131 1.7117507755756378e-02</internalNodes>
          <leafValues>
            2.6018708944320679e-01 -2.0545296370983124e-01</leafValues></_>
        <_>
          <internalNodes>
            0 -1 13 1.8673211336135864e-02</internalNodes>
          <leafValues>
            2.5605812668800354e-01 -1.7226256430149078e-01</leafValues></_>
        <_>
          <internalNodes>
            0 -1 325 7.0289904251694679e-03</internalNodes>
          <leafValues>
            -8.2830828428268433e-01 5.4117854684591293e-02</leafValues></_>
        <_>
          <internalNodes>
            0 -1 217 1.4414099976420403e-02</internalNodes>
          <leafValues>
            3.0834901332855225e-01 -1.4606772363185883e-01</leafValues></_>
        <_>
          <internalNodes>
            0 -1 136 1.1399146169424057e-02</internalNodes>
          <leafValues>
            2.7176877856254578e-01 -1.5790835022926331e-01</leafValues></_>
        <_>
          <internalNodes>
            0 -1 285 1.2501070275902748e-02</internalNodes>
          <leafValues>
            -4.2054530978202820e-01 1.1465958505868912e-01</leafValues></_>
        <_>
          <internalNodes>
            0 -1 83 5.0785139203071594e-02</internalNodes>
          <leafValues>
            -1.0629576444625854e-01 3.8255232572555542e-01</leafValues></_>
        <_>
          <internalNodes>
            0 -1 326 1.2904841452836990e-02</internalNodes>
          <leafValues>
            -3.3463826775550842e-01 1.2406419217586517e-01</leafValues></_>
        <_>
          <internalNodes>
            0 -1 173 1.3366384431719780e-02</internalNodes>
          <leafValues>
            2.4803702533245087e-01 -2.0403009653091431e-01</leafValues></_>
        <_>
          <internalNodes>
            0 -1 139 1.4538389630615711e-02</internalNodes>
          <leafValues>
            2.9406869411468506e-01 -1.3489785790443420e-01</leafValues></_>
        <_>
          <internalNodes>
            0 -1 206 1.7388319596648216e-02</internalNodes>
          <leafValues>
            2.3996210098266602e-01 -1.8742866814136505e-01</leafValues></_>
        <_>
          <internalNodes>
            0 -1 244 9.6955280750989914e-03</internalNodes>
          <leafValues>
            -4.9495592713356018e-01 1.1076590418815613e-01</leafValues></_>
        <_>
          <internalNodes>
            0 -1 114 3.7467040121555328e-02</internalNodes>
          <leafValues>
            -1.1566378176212311e-01 3.6660495400428772e-01</leafValues></_>
        <_>
          <internalNodes>
            0 -1 25 1.1687584221363068e-02</internalNodes>
          <leafValues>
            3.3411073684692383e-01 -1.0246662795543671e-01</leafValues></_>
        <_>
          <internalNodes>
            0 -1 127 2.4058680981397629e-02</internalNodes>
          <leafValues>
            -1.8909448385238647e-01 1.9451351463794708e-01</leafValues></_>
        <_>
          <internalNodes>
            0 -1 107 4.9670532345771790e-02</internalNodes>
          <leafValues>
            -1.0343971103429794e-01 3.8135629892349243e-01</leafValues></_>
        <_>
          <internalNodes>
            0 -1 268 6.8825390189886093e-03</internalNodes>
          <leafValues>
            -5.6625014543533325e-01 7.3161579668521881e-02</leafValues></_>
        <_>
          <internalNodes>
            0 -1 12 1.1657813563942909e-02</internalNodes>
          <leafValues>
            2.6071670651435852e-01 -1.6100345551967621e-01</leafValues></_>
        <_>
          <internalNodes>
            0 -1 242 9.4242291525006294e-03</internalNodes>
          <leafValues>
            -5.1769721508026123e-01 7.9377993941307068e-02</leafValues></_>
        <_>
          <internalNodes>
            0 -1 159 7.5924143195152283e-02</internalNodes>
          <leafValues>
            -5.6004382669925690e-02 7.3369616270065308e-01</leafValues></_>
        <_>
          <internalNodes>
            0 -1 160 2.4661712348461151e-02</internalNodes>
          <leafValues>
            2.2068217396736145e-01 -1.7348170280456543e-01</leafValues></_>
        <_>
          <internalNodes>
            0 -1 294 2.1906949579715729e-02</internalNodes>
          <leafValues>
            -2.2250908613204956e-01 1.9713370501995087e-01</leafValues></_>
        <_>
          <internalNodes>
            0 -1 149 4.3945945799350739e-02</internalNodes>
          <leafValues>
            8.2125537097454071e-02 -4.9653285741806030e-01</leafValues></_>
        <_>
          <internalNodes>
            0 -1 5 1.6094813123345375e-02</internalNodes>
          <leafValues>
            2.4755863845348358e-01 -1.6897819936275482e-01</leafValues></_>
        <_>
          <internalNodes>
            0 -1 16 4.0092799812555313e-02</internalNodes>
          <leafValues>
            -1.0004293918609619e-01 3.4462597966194153e-01</leafValues></_>
        <_>
          <internalNodes>
            0 -1 103 6.3706403598189354e-03</internalNodes>
          <leafValues>
            3.6164805293083191e-01 -9.0612620115280151e-02</leafValues></_>
        <_>
          <internalNodes>
            0 -1 155 1.8861703574657440e-04</internalNodes>
          <leafValues>
            -8.5340118408203125e-01 4.0360901504755020e-02</leafValues></_>
        <_>
          <internalNodes>
            0 -1 190 8.5481638088822365e-03</internalNodes>
          <leafValues>
            3.3704075217247009e-01 -1.1125437170267105e-01</leafValues></_>
        <_>
          <internalNodes>
            0 -1 96 8.5108503699302673e-03</internalNodes>
          <leafValues>
            4.5137432217597961e-01 -7.4772879481315613e-02</leafValues></_>
        <_>
          <internalNodes>
            0 -1 281 1.9263299182057381e-02</internalNodes>
          <leafValues>
            -2.4204617738723755e-01 1.4105856418609619e-01</leafValues></_>
        <_>
          <internalNodes>
            0 -1 243 5.9448562562465668e-02</internalNodes>
          <leafValues>
            -5.5417262017726898e-02 6.3662570714950562e-01</leafValues></_>
        <_>
          <internalNodes>
            0 -1 152 5.1069758832454681e-02</internalNodes>
          <leafValues>
            -5.5696565657854080e-02 5.1023030281066895e-01</leafValues></_>
        <_>
          <internalNodes>
            0 -1 49 2.9269915074110031e-02</internalNodes>
          <leafValues>
            1.4531452953815460e-01 -2.2054991126060486e-01</leafValues></_>
        <_>
          <internalNodes>
            0 -1 91 3.9585541933774948e-02</internalNodes>
          <leafValues>
            -1.0915950685739517e-01 3.6920443177223206e-01</leafValues></_>
        <_>
          <internalNodes>
            0 -1 135 1.5458723530173302e-02</internalNodes>
          <leafValues>
            2.1793128550052643e-01 -1.6914032399654388e-01</leafValues></_>
        <_>
          <internalNodes>
            0 -1 175 1.6286879777908325e-02</internalNodes>
          <leafValues>
            -2.1313352882862091e-01 1.6163620352745056e-01</leafValues></_>
        <_>
          <internalNodes>
            0 -1 227 1.7585572786629200e-03</internalNodes>
          <leafValues>
            -1. 3.5739123821258545e-02</leafValues></_>
        <_>
          <internalNodes>
            0 -1 122 4.4868759810924530e-02</internalNodes>
          <leafValues>
            -9.2663161456584930e-02 4.0060153603553772e-01</leafValues></_>
        <_>
          <internalNodes>
            0 -1 118 4.7639172524213791e-02</internalNodes>
          <leafValues>
            -9.7321331501007080e-02 3.8559514284133911e-01</leafValues></_>
        <_>
          <internalNodes>
            0 -1 62 4.6366238966584206e-03</internalNodes>
          <leafValues>
            4.1767868399620056e-01 -8.5067033767700195e-02</leafValues></_>
        <_>
          <internalNodes>
            0 -1 99 1.2019315734505653e-02</internalNodes>
          <leafValues>
            3.8805538415908813e-01 -8.6740136146545410e-02</leafValues></_>
        <_>
          <internalNodes>
            0 -1 239 1.3785769231617451e-02</internalNodes>
          <leafValues>
            -3.2978895306587219e-01 1.2332609295845032e-01</leafValues></_>
        <_>
          <internalNodes>
            0 -1 144 4.2941018939018250e-02</internalNodes>
          <leafValues>
            -1.2254042923450470e-01 3.2789292931556702e-01</leafValues></_>
        <_>
          <internalNodes>
            0 -1 296 6.7370384931564331e-02</internalNodes>
          <leafValues>
            -4.6466477215290070e-02 6.8589049577713013e-01</leafValues></_>
        <_>
          <internalNodes>
            0 -1 1 1.3002997264266014e-02</internalNodes>
          <leafValues>
            2.6311150193214417e-01 -1.2762850522994995e-01</leafValues></_>
        <_>
          <internalNodes>
            0 -1 100 9.5522520132362843e-04</internalNodes>
          <leafValues>
            -8.6000430583953857e-01 4.3701983988285065e-02</leafValues></_>
        <_>
          <internalNodes>
            0 -1 171 2.1176200360059738e-02</internalNodes>
          <leafValues>
            1.6658429801464081e-01 -2.0926329493522644e-01</leafValues></_>
        <_>
          <internalNodes>
            0 -1 324 1.2481605634093285e-02</internalNodes>
          <leafValues>
            -5.0494462251663208e-01 7.4227459728717804e-02</leafValues></_>
        <_>
          <internalNodes>
            0 -1 216 2.0452063530683517e-02</internalNodes>
          <leafValues>
            2.4769030511379242e-01 -1.5588724613189697e-01</leafValues></_>
        <_>
          <internalNodes>
            0 -1 221 8.6089894175529480e-03</internalNodes>
          <leafValues>
            3.7697336077690125e-01 -1.0103844106197357e-01</leafValues></_>
        <_>
          <internalNodes>
            0 -1 42 7.5014226138591766e-02</internalNodes>
          <leafValues>
            -5.9373989701271057e-02 6.0020786523818970e-01</leafValues></_>
        <_>
          <internalNodes>
            0 -1 36 3.1762864440679550e-02</internalNodes>
          <leafValues>
            -1.4187209308147430e-01 2.5935372710227966e-01</leafValues></_>
        <_>
          <internalNodes>
            0 -1 168 6.6063046455383301e-02</internalNodes>
          <leafValues>
            -5.5890969932079315e-02 6.6585630178451538e-01</leafValues></_>
        <_>
          <internalNodes>
            0 -1 143 1.3433681800961494e-02</internalNodes>
          <leafValues>
            3.1692263484001160e-01 -1.0637501627206802e-01</leafValues></_>
        <_>
          <internalNodes>
            0 -1 307 8.9271720498800278e-03</internalNodes>
          <leafValues>
            -6.3085138797760010e-01 5.4255224764347076e-02</leafValues></_>
        <_>
          <internalNodes>
            0 -1 0 1.2365401722490788e-02</internalNodes>
          <leafValues>
            2.9397335648536682e-01 -1.3885040581226349e-01</leafValues></_>
        <_>
          <internalNodes>
            0 -1 41 8.8668707758188248e-03</internalNodes>
          <leafValues>
            3.7913113832473755e-01 -1.0070901364088058e-01</leafValues></_>
        <_>
          <internalNodes>
            0 -1 323 1.0487478226423264e-02</internalNodes>
          <leafValues>
            -6.4833545684814453e-01 5.6829538196325302e-02</leafValues></_>
        <_>
          <internalNodes>
            0 -1 179 5.0949044525623322e-02</internalNodes>
          <leafValues>
            -9.2869669198989868e-02 4.2891642451286316e-01</leafValues></_>
        <_>
          <internalNodes>
            0 -1 52 6.4664878882467747e-03</internalNodes>
          <leafValues>
            -4.3496909737586975e-01 9.4278372824192047e-02</leafValues></_>
        <_>
          <internalNodes>
            0 -1 64 5.6917998008430004e-03</internalNodes>
          <leafValues>
            5.4985702037811279e-01 -7.2660915553569794e-02</leafValues></_></weakClassifiers></_>
    <!-- stage 2 -->
    <_>
      <maxWeakCount>100</maxWeakCount>
      <stageThreshold>-6.8861484527587891e-01</stageThreshold>
      <weakClassifiers>
        <_>
          <internalNodes>
            0 -1 57 1.7749775201082230e-02</internalNodes>
          <leafValues>
            -6.5548777580261230e-01 -8.7310828268527985e-02</leafValues></_>
        <_>
          <internalNodes>
            0 -1 196 3.8403019309043884e-02</internalNodes>
          <leafValues>
            -1.9260470569133759e-01 2.5369018316268921e-01</leafValues></_>
        <_>
          <internalNodes>
            0 -1 157 3.8263484835624695e-02</internalNodes>
          <leafValues>
            -1.7537029087543488e-01 2.8167951107025146e-01</leafValues></_>
        <_>
          <internalNodes>
            0 -1 230 1.9209295511245728e-02</internalNodes>
          <leafValues>
            -2.0626859366893768e-01 1.7613689601421356e-01</leafValues></_>
        <_>
          <internalNodes>
            0 -1 241 1.5282476320862770e-02</internalNodes>
          <leafValues>
            -2.6788303256034851e-01 1.7614397406578064e-01</leafValues></_>
        <_>
          <internalNodes>
            0 -1 33 3.5184293985366821e-02</internalNodes>
          <leafValues>
            8.1791758537292480e-02 -3.6055076122283936e-01</leafValues></_>
        <_>
          <internalNodes>
            0 -1 246 1.1909296736121178e-02</internalNodes>
          <leafValues>
            -2.8754442930221558e-01 1.2858296930789948e-01</leafValues></_>
        <_>
          <internalNodes>
            0 -1 289 6.0575702227652073e-03</internalNodes>
          <leafValues>
            -5.0644385814666748e-01 6.7715913057327271e-02</leafValues></_>
        <_>
          <internalNodes>
            0 -1 7 5.8581210672855377e-02</internalNodes>
          <leafValues>
            -8.3543375134468079e-02 4.8374119400978088e-01</leafValues></_>
        <_>
          <internalNodes>
            0 -1 194 7.5379863381385803e-02</internalNodes>
          <leafValues>
            -5.0543084740638733e-02 6.7920285463333130e-01</leafValues></_>
        <_>
          <internalNodes>
            0 -1 216 1.0311275720596313e-02</internalNodes>
          <leafValues>
            2.8761190176010132e-01 -9.9654801189899445e-02</leafValues></_>
        <_>
          <internalNodes>
            0 -1 305 5.6958366185426712e-03</internalNodes>
          <leafValues>
            -6.7599570751190186e-01 4.2931634932756424e-02</leafValues></_>
        <_>
          <internalNodes>
            0 -1 29 4.1722834110260010e-02</internalNodes>
          <leafValues>
            7.1157872676849365e-02 -3.9982351660728455e-01</leafValues></_>
        <_>
          <internalNodes>
            0 -1 40 2.9790900647640228e-02</internalNodes>
          <leafValues>
            1.3676203787326813e-01 -2.3509649932384491e-01</leafValues></_>
        <_>
          <internalNodes>
            0 -1 303 1.5993509441614151e-03</internalNodes>
          <leafValues>
            -1. 2.7594458311796188e-02</leafValues></_>
        <_>
          <internalNodes>
            0 -1 4 1.1626498773694038e-02</internalNodes>
          <leafValues>
            1.9380810856819153e-01 -1.5767239034175873e-01</leafValues></_>
        <_>
          <internalNodes>
            0 -1 59 1.3226700946688652e-02</internalNodes>
          <leafValues>
            1.9964200258255005e-01 -1.3371783494949341e-01</leafValues></_>
        <_>
          <internalNodes>
            0 -1 223 7.7155558392405510e-03</internalNodes>
          <leafValues>
            3.3786976337432861e-01 -7.9013377428054810e-02</leafValues></_>
        <_>
          <internalNodes>
            0 -1 207 3.4470248967409134e-02</internalNodes>
          <leafValues>
            9.5096468925476074e-02 -2.9279035329818726e-01</leafValues></_>
        <_>
          <internalNodes>
            0 -1 133 2.9028534889221191e-02</internalNodes>
          <leafValues>
            -1.2904307246208191e-01 2.2009365260601044e-01</leafValues></_>
        <_>
          <internalNodes>
            0 -1 245 5.3236470557749271e-03</internalNodes>
          <leafValues>
            -6.2321311235427856e-01 4.5772749930620193e-02</leafValues></_>
        <_>
          <internalNodes>
            0 -1 163 3.7489188835024834e-03</internalNodes>
          <leafValues>
            3.8957870006561279e-01 -7.0647887885570526e-02</leafValues></_>
        <_>
          <internalNodes>
            0 -1 6 9.7363688051700592e-02</internalNodes>
          <leafValues>
            2.4686040356755257e-02 -9.6322524547576904e-01</leafValues></_>
        <_>
          <internalNodes>
            0 -1 63 4.5738373883068562e-03</internalNodes>
          <leafValues>
            3.4176200628280640e-01 -7.4357353150844574e-02</leafValues></_>
        <_>
          <internalNodes>
            0 -1 277 7.1811052039265633e-03</internalNodes>
          <leafValues>
            -6.3185513019561768e-01 4.4771924614906311e-02</leafValues></_>
        <_>
          <internalNodes>
            0 -1 98 7.2595207020640373e-03</internalNodes>
          <leafValues>
            3.0200609564781189e-01 -7.5923204421997070e-02</leafValues></_>
        <_>
          <internalNodes>
            0 -1 280 5.4286727681756020e-03</internalNodes>
          <leafValues>
            -5.3303378820419312e-01 4.2659837752580643e-02</leafValues></_>
        <_>
          <internalNodes>
            0 -1 82 3.1339459121227264e-02</internalNodes>
          <leafValues>
            8.7683074176311493e-02 -2.8672242164611816e-01</leafValues></_>
        <_>
          <internalNodes>
            0 -1 162 8.7962806224822998e-02</internalNodes>
          <leafValues>
            -4.5996878296136856e-02 7.9668146371841431e-01</leafValues></_>
        <_>
          <internalNodes>
            0 -1 182 1.5758290886878967e-02</internalNodes>
          <leafValues>
            1.8220469355583191e-01 -1.2020022422075272e-01</leafValues></_>
        <_>
          <internalNodes>
            0 -1 132 5.1192380487918854e-02</internalNodes>
          <leafValues>
            -6.5917506814002991e-02 3.9444851875305176e-01</leafValues></_>
        <_>
          <internalNodes>
            0 -1 327 5.3358823060989380e-02</internalNodes>
          <leafValues>
            3.3287771046161652e-02 -7.2126293182373047e-01</leafValues></_>
        <_>
          <internalNodes>
            0 -1 232 1.2496584095060825e-02</internalNodes>
          <leafValues>
            2.4812087416648865e-01 -9.0445883572101593e-02</leafValues></_>
        <_>
          <internalNodes>
            0 -1 84 4.2525041848421097e-02</internalNodes>
          <leafValues>
            -7.9727016389369965e-02 3.2522821426391602e-01</leafValues></_>
        <_>
          <internalNodes>
            0 -1 25 1.7622457817196846e-02</internalNodes>
          <leafValues>
            1.8938261270523071e-01 -1.4115074276924133e-01</leafValues></_>
        <_>
          <internalNodes>
            0 -1 111 1.2153597548604012e-02</internalNodes>
          <leafValues>
            -2.1325081586837769e-01 1.3179509341716766e-01</leafValues></_>
        <_>
          <internalNodes>
            0 -1 225 9.3020536005496979e-03</internalNodes>
          <leafValues>
            -3.7086623907089233e-01 7.1198172867298126e-02</leafValues></_>
        <_>
          <internalNodes>
            0 -1 138 1.5380328521132469e-02</internalNodes>
          <leafValues>
            1.7114123702049255e-01 -1.3575564324855804e-01</leafValues></_>
        <_>
          <internalNodes>
            0 -1 61 3.0737143009901047e-02</internalNodes>
          <leafValues>
            1.3342380523681641e-01 -1.9220416247844696e-01</leafValues></_>
        <_>
          <internalNodes>
            0 -1 125 1.0702982544898987e-03</internalNodes>
          <leafValues>
            -6.8447917699813843e-01 3.1815588474273682e-02</leafValues></_>
        <_>
          <internalNodes>
            0 -1 23 4.3140936642885208e-02</internalNodes>
          <leafValues>
            -8.7389446794986725e-02 2.7857100963592529e-01</leafValues></_>
        <_>
          <internalNodes>
            0 -1 320 2.1948263049125671e-02</internalNodes>
          <leafValues>
            -1.7669513821601868e-01 1.2807887792587280e-01</leafValues></_>
        <_>
          <internalNodes>
            0 -1 233 6.0752991586923599e-02</internalNodes>
          <leafValues>
            3.9781063795089722e-02 -5.2053225040435791e-01</leafValues></_>
        <_>
          <internalNodes>
            0 -1 191 2.3298595100641251e-02</internalNodes>
          <leafValues>
            1.4133177697658539e-01 -1.7390213906764984e-01</leafValues></_>
        <_>
          <internalNodes>
            0 -1 143 9.7801670432090759e-02</internalNodes>
          <leafValues>
            -4.2661838233470917e-02 6.6971796751022339e-01</leafValues></_>
        <_>
          <internalNodes>
            0 -1 266 5.9190709143877029e-03</internalNodes>
          <leafValues>
            -5.1678681373596191e-01 4.9406349658966064e-02</leafValues></_>
        <_>
          <internalNodes>
            0 -1 46 1.5042747370898724e-02</internalNodes>
          <leafValues>
            1.9300125539302826e-01 -1.1309855431318283e-01</leafValues></_>
        <_>
          <internalNodes>
            0 -1 203 2.9764729551970959e-03</internalNodes>
          <leafValues>
            4.1328400373458862e-01 -5.4376043379306793e-02</leafValues></_>
        <_>
          <internalNodes>
            0 -1 89 4.2964734137058258e-02</internalNodes>
          <leafValues>
            8.5194498300552368e-02 -2.6404020190238953e-01</leafValues></_>
        <_>
          <internalNodes>
            0 -1 253 1.4210711233317852e-02</internalNodes>
          <leafValues>
            2.2088210284709930e-01 -9.9651537835597992e-02</leafValues></_>
        <_>
          <internalNodes>
            0 -1 276 7.6116691343486309e-03</internalNodes>
          <leafValues>
            -4.8223522305488586e-01 4.9814555794000626e-02</leafValues></_>
        <_>
          <internalNodes>
            0 -1 259 3.7511903792619705e-02</internalNodes>
          <leafValues>
            -8.6088404059410095e-02 2.5449070334434509e-01</leafValues></_>
        <_>
          <internalNodes>
            0 -1 250 5.6172274053096771e-03</internalNodes>
          <leafValues>
            -6.1507242918014526e-01 3.2075181603431702e-02</leafValues></_>
        <_>
          <internalNodes>
            0 -1 153 3.9238668978214264e-02</internalNodes>
          <leafValues>
            -1.0223011672496796e-01 2.3750419914722443e-01</leafValues></_>
        <_>
          <internalNodes>
            0 -1 194 4.8023879528045654e-02</internalNodes>
          <leafValues>
            -7.0042721927165985e-02 3.2722383737564087e-01</leafValues></_>
        <_>
          <internalNodes>
            0 -1 84 1.8600912299007177e-03</internalNodes>
          <leafValues>
            4.3095871806144714e-01 -4.6909980475902557e-02</leafValues></_>
        <_>
          <internalNodes>
            0 -1 108 8.4684401750564575e-02</internalNodes>
          <leafValues>
            -3.5509657114744186e-02 5.4932814836502075e-01</leafValues></_>
        <_>
          <internalNodes>
            0 -1 187 4.0096685290336609e-02</internalNodes>
          <leafValues>
            -6.3516959547996521e-02 3.2308137416839600e-01</leafValues></_>
        <_>
          <internalNodes>
            0 -1 279 1.2882844544947147e-02</internalNodes>
          <leafValues>
            -3.1436550617218018e-01 7.0426292717456818e-02</leafValues></_>
        <_>
          <internalNodes>
            0 -1 214 2.2780578583478928e-02</internalNodes>
          <leafValues>
            1.5302929282188416e-01 -1.9692744314670563e-01</leafValues></_>
        <_>
          <internalNodes>
            0 -1 141 1.1602962389588356e-02</internalNodes>
          <leafValues>
            -2.5018462538719177e-01 8.2467123866081238e-02</leafValues></_>
        <_>
          <internalNodes>
            0 -1 19 1.4520356431603432e-02</internalNodes>
          <leafValues>
            1.9521020352840424e-01 -1.1510924994945526e-01</leafValues></_>
        <_>
          <internalNodes>
            0 -1 312 5.7090684771537781e-02</internalNodes>
          <leafValues>
            3.5676684230566025e-02 -5.6099706888198853e-01</leafValues></_>
        <_>
          <internalNodes>
            0 -1 249 9.1133471578359604e-03</internalNodes>
          <leafValues>
            3.7918066978454590e-01 -5.6546099483966827e-02</leafValues></_>
        <_>
          <internalNodes>
            0 -1 198 1.0380877181887627e-02</internalNodes>
          <leafValues>
            2.4118724465370178e-01 -1.0124275088310242e-01</leafValues></_>
        <_>
          <internalNodes>
            0 -1 161 5.2207093685865402e-03</internalNodes>
          <leafValues>
            -3.2277277112007141e-01 7.7703610062599182e-02</leafValues></_>
        <_>
          <internalNodes>
            0 -1 263 8.5245192050933838e-02</internalNodes>
          <leafValues>
            1.8642181530594826e-02 -9.7106671333312988e-01</leafValues></_>
        <_>
          <internalNodes>
            0 -1 213 5.4953120648860931e-02</internalNodes>
          <leafValues>
            3.2452832907438278e-02 -5.1657897233963013e-01</leafValues></_>
        <_>
          <internalNodes>
            0 -1 94 5.2662972360849380e-02</internalNodes>
          <leafValues>
            -7.1140863001346588e-02 2.9370051622390747e-01</leafValues></_>
        <_>
          <internalNodes>
            0 -1 193 1.0256362706422806e-01</internalNodes>
          <leafValues>
            -2.9035443440079689e-02 6.7717683315277100e-01</leafValues></_>
        <_>
          <internalNodes>
            0 -1 255 1.1873237788677216e-02</internalNodes>
          <leafValues>
            -2.4103897809982300e-01 8.2014180719852448e-02</leafValues></_>
        <_>
          <internalNodes>
            0 -1 201 3.9426782168447971e-03</internalNodes>
          <leafValues>
            3.8477879762649536e-01 -5.3355988115072250e-02</leafValues></_>
        <_>
          <internalNodes>
            0 -1 95 1.0613269405439496e-03</internalNodes>
          <leafValues>
            -6.9180530309677124e-01 3.8049947470426559e-02</leafValues></_>
        <_>
          <internalNodes>
            0 -1 54 1.3022558763623238e-02</internalNodes>
          <leafValues>
            1.9952785968780518e-01 -1.0365127027034760e-01</leafValues></_>
        <_>
          <internalNodes>
            0 -1 58 4.7622472047805786e-02</internalNodes>
          <leafValues>
            8.2789808511734009e-02 -2.8219127655029297e-01</leafValues></_>
        <_>
          <internalNodes>
            0 -1 20 3.7783845327794552e-03</internalNodes>
          <leafValues>
            -5.9510666131973267e-01 3.9007410407066345e-02</leafValues></_>
        <_>
          <internalNodes>
            0 -1 38 7.9579920566175133e-05</internalNodes>
          <leafValues>
            6.4017868041992188e-01 -3.8775589317083359e-02</leafValues></_>
        <_>
          <internalNodes>
            0 -1 261 7.6823760755360126e-03</internalNodes>
          <leafValues>
            -4.6105027198791504e-01 5.3807891905307770e-02</leafValues></_>
        <_>
          <internalNodes>
            0 -1 224 4.4316317886114120e-02</internalNodes>
          <leafValues>
            5.8789327740669250e-02 -3.5749602317810059e-01</leafValues></_>
        <_>
          <internalNodes>
            0 -1 24 2.3606643080711365e-02</internalNodes>
          <leafValues>
            -1.2918396294116974e-01 1.5324163436889648e-01</leafValues></_>
        <_>
          <internalNodes>
            0 -1 76 1.5150366351008415e-02</internalNodes>
          <leafValues>
            2.0440469682216644e-01 -1.1809778213500977e-01</leafValues></_>
        <_>
          <internalNodes>
            0 -1 237 1.3862377032637596e-02</internalNodes>
          <leafValues>
            -3.0213105678558350e-01 6.5006762742996216e-02</leafValues></_>
        <_>
          <internalNodes>
            0 -1 67 8.4269747138023376e-02</internalNodes>
          <leafValues>
            -3.8665186613798141e-02 5.3351742029190063e-01</leafValues></_>
        <_>
          <internalNodes>
            0 -1 226 6.0496885329484940e-02</internalNodes>
          <leafValues>
            5.0862558186054230e-02 -3.6911582946777344e-01</leafValues></_>
        <_>
          <internalNodes>
            0 -1 318 6.4927227795124054e-02</internalNodes>
          <leafValues>
            -4.5768875628709793e-02 5.2421963214874268e-01</leafValues></_>
        <_>
          <internalNodes>
            0 -1 115 5.3211022168397903e-03</internalNodes>
          <leafValues>
            3.5154542326927185e-01 -5.5888522416353226e-02</leafValues></_>
        <_>
          <internalNodes>
            0 -1 71 1.7999967094510794e-03</internalNodes>
          <leafValues>
            -7.0957344770431519e-01 3.4655351191759109e-02</leafValues></_>
        <_>
          <internalNodes>
            0 -1 288 2.5827407371252775e-03</internalNodes>
          <leafValues>
            -6.6896593570709229e-01 2.4754794314503670e-02</leafValues></_>
        <_>
          <internalNodes>
            0 -1 10 5.5267880670726299e-03</internalNodes>
          <leafValues>
            3.5651054978370667e-01 -6.9017909467220306e-02</leafValues></_>
        <_>
          <internalNodes>
            0 -1 196 4.2708203196525574e-02</internalNodes>
          <leafValues>
            -8.8111653923988342e-02 2.4581053853034973e-01</leafValues></_>
        <_>
          <internalNodes>
            0 -1 250 1.5684857964515686e-02</internalNodes>
          <leafValues>
            -2.6768207550048828e-01 8.8144749402999878e-02</leafValues></_>
        <_>
          <internalNodes>
            0 -1 148 1.3951607048511505e-02</internalNodes>
          <leafValues>
            2.0617558062076569e-01 -1.0673461109399796e-01</leafValues></_>
        <_>
          <internalNodes>
            0 -1 282 8.3048067986965179e-02</internalNodes>
          <leafValues>
            2.1198036149144173e-02 -9.7105222940444946e-01</leafValues></_>
        <_>
          <internalNodes>
            0 -1 154 9.0877607464790344e-02</internalNodes>
          <leafValues>
            -3.4876689314842224e-02 7.6642161607742310e-01</leafValues></_>
        <_>
          <internalNodes>
            0 -1 72 4.3864645063877106e-02</internalNodes>
          <leafValues>
            -5.8520391583442688e-02 3.4491690993309021e-01</leafValues></_>
        <_>
          <internalNodes>
            0 -1 150 8.1819280982017517e-02</internalNodes>
          <leafValues>
            2.4308864027261734e-02 -7.8984361886978149e-01</leafValues></_>
        <_>
          <internalNodes>
            0 -1 45 2.7677901089191437e-03</internalNodes>
          <leafValues>
            3.5228008031845093e-01 -5.8765787631273270e-02</leafValues></_>
        <_>
          <internalNodes>
            0 -1 14 8.8662188500165939e-03</internalNodes>
          <leafValues>
            -2.8414732217788696e-01 7.5951457023620605e-02</leafValues></_>
        <_>
          <internalNodes>
            0 -1 240 4.5561477541923523e-02</internalNodes>
          <leafValues>
            5.2772190421819687e-02 -3.6952745914459229e-01</leafValues></_>
        <_>
          <internalNodes>
            0 -1 180 2.8128300327807665e-03</internalNodes>
          <leafValues>
            -5.2557289600372314e-01 3.6122296005487442e-02</leafValues></_></weakClassifiers></_>
    <!-- stage 3 -->
    <_>
      <maxWeakCount>100</maxWeakCount>
      <stageThreshold>-7.9381781816482544e-01</stageThreshold>
      <weakClassifiers>
        <_>
          <internalNodes>
            0 -1 86 4.8252280801534653e-02</internalNodes>
          <leafValues>
            -4.6015423536300659e-01 9.1954022645950317e-02</leafValues></_>
        <_>
          <internalNodes>
            0 -1 313 5.6258235126733780e-02</internalNodes>
          <leafValues>
            4.2224694043397903e-02 -7.6885014772415161e-01</leafValues></_>
        <_>
          <internalNodes>
            0 -1 287 3.0520632863044739e-02</internalNodes>
          <leafValues>
            1.3639996945858002e-01 -2.5722518563270569e-01</leafValues></_>
        <_>
          <internalNodes>
            0 -1 264 9.9624870344996452e-03</internalNodes>
          <leafValues>
            -3.7937992811203003e-01 7.6382577419281006e-02</leafValues></_>
        <_>
          <internalNodes>
            0 -1 17 3.7553902715444565e-02</internalNodes>
          <leafValues>
            -9.9864579737186432e-02 2.7787339687347412e-01</leafValues></_>
        <_>
          <internalNodes>
            0 -1 275 5.8161564171314240e-02</internalNodes>
          <leafValues>
            -6.8043641746044159e-02 4.0852791070938110e-01</leafValues></_>
        <_>
          <internalNodes>
            0 -1 230 1.1757647618651390e-02</internalNodes>
          <leafValues>
            -3.2058551907539368e-01 8.5094161331653595e-02</leafValues></_>
        <_>
          <internalNodes>
            0 -1 321 1.0506434366106987e-02</internalNodes>
          <leafValues>
            -5.2750343084335327e-01 3.7913873791694641e-02</leafValues></_>
        <_>
          <internalNodes>
            0 -1 75 2.2586146369576454e-02</internalNodes>
          <leafValues>
            1.5035782754421234e-01 -2.2376446425914764e-01</leafValues></_>
        <_>
          <internalNodes>
            0 -1 271 4.5924499630928040e-02</internalNodes>
          <leafValues>
            7.6494157314300537e-02 -3.6050099134445190e-01</leafValues></_>
        <_>
          <internalNodes>
            0 -1 102 1.4658390544354916e-02</internalNodes>
          <leafValues>
            1.6531220078468323e-01 -1.5647245943546295e-01</leafValues></_>
        <_>
          <internalNodes>
            0 -1 219 8.7635964155197144e-02</internalNodes>
          <leafValues>
            -5.5736582726240158e-02 5.4172760248184204e-01</leafValues></_>
        <_>
          <internalNodes>
            0 -1 169 6.3238099217414856e-02</internalNodes>
          <leafValues>
            -4.6401269733905792e-02 4.3939265608787537e-01</leafValues></_>
        <_>
          <internalNodes>
            0 -1 176 9.2427328228950500e-02</internalNodes>
          <leafValues>
            3.3781621605157852e-02 -7.0892578363418579e-01</leafValues></_>
        <_>
          <internalNodes>
            0 -1 274 3.4190654754638672e-02</internalNodes>
          <leafValues>
            1.0424054414033890e-01 -1.9862389564514160e-01</leafValues></_>
        <_>
          <internalNodes>
            0 -1 251 1.8659938126802444e-02</internalNodes>
          <leafValues>
            -2.0376525819301605e-01 1.1627506464719772e-01</leafValues></_>
        <_>
          <internalNodes>
            0 -1 125 3.9158731698989868e-02</internalNodes>
          <leafValues>
            -9.2793546617031097e-02 2.5324380397796631e-01</leafValues></_>
        <_>
          <internalNodes>
            0 -1 290 5.1695510745048523e-02</internalNodes>
          <leafValues>
            -6.1491422355175018e-02 3.8402426242828369e-01</leafValues></_>
        <_>
          <internalNodes>
            0 -1 118 6.8467399105429649e-03</internalNodes>
          <leafValues>
            2.8483086824417114e-01 -7.6234407722949982e-02</leafValues></_>
        <_>
          <internalNodes>
            0 -1 298 2.3032769560813904e-02</internalNodes>
          <leafValues>
            -1.7221035063266754e-01 1.6060277819633484e-01</leafValues></_>
        <_>
          <internalNodes>
            0 -1 255 7.4947653338313103e-03</internalNodes>
          <leafValues>
            -4.0929612517356873e-01 6.0499113053083420e-02</leafValues></_>
        <_>
          <internalNodes>
            0 -1 215 8.3888312801718712e-03</internalNodes>
          <leafValues>
            -3.3832114934921265e-01 6.3049040734767914e-02</leafValues></_>
        <_>
          <internalNodes>
            0 -1 68 5.0427401438355446e-03</internalNodes>
          <leafValues>
            -4.6931529045104980e-01 4.1911989450454712e-02</leafValues></_>
        <_>
          <internalNodes>
            0 -1 78 4.2733540758490562e-03</internalNodes>
          <leafValues>
            3.7901368737220764e-01 -5.8421377092599869e-02</leafValues></_>
        <_>
          <internalNodes>
            0 -1 134 3.3628076314926147e-02</internalNodes>
          <leafValues>
            -9.5138758420944214e-02 2.2205655276775360e-01</leafValues></_>
        <_>
          <internalNodes>
            0 -1 167 4.8686958849430084e-02</internalNodes>
          <leafValues>
            -7.7978499233722687e-02 2.2911471128463745e-01</leafValues></_>
        <_>
          <internalNodes>
            0 -1 145 9.5936372876167297e-02</internalNodes>
          <leafValues>
            -3.3536896109580994e-02 6.3836723566055298e-01</leafValues></_>
        <_>
          <internalNodes>
            0 -1 18 6.5488442778587341e-02</internalNodes>
          <leafValues>
            -4.5631770044565201e-02 3.5646200180053711e-01</leafValues></_>
        <_>
          <internalNodes>
            0 -1 234 7.9834908246994019e-03</internalNodes>
          <leafValues>
            -3.5051760077476501e-01 6.3067115843296051e-02</leafValues></_>
        <_>
          <internalNodes>
            0 -1 28 1.3437341898679733e-02</internalNodes>
          <leafValues>
            1.8556882441043854e-01 -1.1129824072122574e-01</leafValues></_>
        <_>
          <internalNodes>
            0 -1 109 2.3497778922319412e-02</internalNodes>
          <leafValues>
            -1.1234452575445175e-01 1.7028042674064636e-01</leafValues></_>
        <_>
          <internalNodes>
            0 -1 126 1.4246484264731407e-02</internalNodes>
          <leafValues>
            1.7934018373489380e-01 -1.1132512241601944e-01</leafValues></_>
        <_>
          <internalNodes>
            0 -1 170 7.9704159870743752e-03</internalNodes>
          <leafValues>
            -2.5389155745506287e-01 7.9001694917678833e-02</leafValues></_>
        <_>
          <internalNodes>
            0 -1 39 1.5890549868345261e-02</internalNodes>
          <leafValues>
            2.2263047099113464e-01 -1.1234016716480255e-01</leafValues></_>
        <_>
          <internalNodes>
            0 -1 104 2.3154421069193631e-04</internalNodes>
          <leafValues>
            6.7400383949279785e-01 -2.8139973059296608e-02</leafValues></_>
        <_>
          <internalNodes>
            0 -1 244 8.3161704242229462e-03</internalNodes>
          <leafValues>
            -4.2958214879035950e-01 6.0577128082513809e-02</leafValues></_>
        <_>
          <internalNodes>
            0 -1 329 1.3555468991398811e-02</internalNodes>
          <leafValues>
            -3.2242381572723389e-01 6.7255653440952301e-02</leafValues></_>
        <_>
          <internalNodes>
            0 -1 211 9.2720072716474533e-03</internalNodes>
          <leafValues>
            2.6738888025283813e-01 -9.6094764769077301e-02</leafValues></_>
        <_>
          <internalNodes>
            0 -1 85 4.2229250073432922e-02</internalNodes>
          <leafValues>
            -7.3267705738544464e-02 2.7459943294525146e-01</leafValues></_>
        <_>
          <internalNodes>
            0 -1 247 4.9788363277912140e-02</internalNodes>
          <leafValues>
            -5.7215925306081772e-02 3.7942904233932495e-01</leafValues></_>
        <_>
          <internalNodes>
            0 -1 179 3.4009221941232681e-02</internalNodes>
          <leafValues>
            -1.0611224174499512e-01 1.9883011281490326e-01</leafValues></_>
        <_>
          <internalNodes>
            0 -1 52 2.9185259714722633e-02</internalNodes>
          <leafValues>
            -1.1289172619581223e-01 1.8038895726203918e-01</leafValues></_>
        <_>
          <internalNodes>
            0 -1 143 7.7939875423908234e-02</internalNodes>
          <leafValues>
            -3.9116762578487396e-02 5.6217843294143677e-01</leafValues></_>
        <_>
          <internalNodes>
            0 -1 9 2.5017445906996727e-02</internalNodes>
          <leafValues>
            -1.2930630147457123e-01 1.4648705720901489e-01</leafValues></_>
        <_>
          <internalNodes>
            0 -1 27 3.9203293621540070e-02</internalNodes>
          <leafValues>
            -8.0903135240077972e-02 2.5050893425941467e-01</leafValues></_>
        <_>
          <internalNodes>
            0 -1 44 6.2170881778001785e-02</internalNodes>
          <leafValues>
            3.7856448441743851e-02 -5.0588142871856689e-01</leafValues></_>
        <_>
          <internalNodes>
            0 -1 156 2.8710749465972185e-03</internalNodes>
          <leafValues>
            3.7163546681404114e-01 -4.9120370298624039e-02</leafValues></_>
        <_>
          <internalNodes>
            0 -1 300 9.5930974930524826e-03</internalNodes>
          <leafValues>
            -2.9546126723289490e-01 7.3894232511520386e-02</leafValues></_>
        <_>
          <internalNodes>
            0 -1 77 1.8068294972181320e-02</internalNodes>
          <leafValues>
            -1.5863364934921265e-01 1.1878199130296707e-01</leafValues></_>
        <_>
          <internalNodes>
            0 -1 51 4.9369297921657562e-02</internalNodes>
          <leafValues>
            -6.5000541508197784e-02 2.9440692067146301e-01</leafValues></_>
        <_>
          <internalNodes>
            0 -1 258 3.9716348052024841e-02</internalNodes>
          <leafValues>
            6.0062799602746964e-02 -2.9605966806411743e-01</leafValues></_>
        <_>
          <internalNodes>
            0 -1 92 5.1166515797376633e-02</internalNodes>
          <leafValues>
            -7.5335025787353516e-02 2.8162670135498047e-01</leafValues></_>
        <_>
          <internalNodes>
            0 -1 158 6.5817512571811676e-02</internalNodes>
          <leafValues>
            -3.9897371083498001e-02 4.9820002913475037e-01</leafValues></_>
        <_>
          <internalNodes>
            0 -1 26 7.0059439167380333e-03</internalNodes>
          <leafValues>
            2.6049214601516724e-01 -6.5051518380641937e-02</leafValues></_>
        <_>
          <internalNodes>
            0 -1 231 1.4822207391262054e-02</internalNodes>
          <leafValues>
            -2.1439944207668304e-01 1.0444826632738113e-01</leafValues></_>
        <_>
          <internalNodes>
            0 -1 151 2.4459343403577805e-02</internalNodes>
          <leafValues>
            1.0541207343339920e-01 -2.0792791247367859e-01</leafValues></_>
        <_>
          <internalNodes>
            0 -1 112 8.1331461668014526e-02</internalNodes>
          <leafValues>
            2.0372813567519188e-02 -7.7219718694686890e-01</leafValues></_>
        <_>
          <internalNodes>
            0 -1 142 6.4060240983963013e-02</internalNodes>
          <leafValues>
            -4.1645411401987076e-02 4.4411903619766235e-01</leafValues></_>
        <_>
          <internalNodes>
            0 -1 113 2.9293775558471680e-02</internalNodes>
          <leafValues>
            -1.2217393517494202e-01 1.5144503116607666e-01</leafValues></_>
        <_>
          <internalNodes>
            0 -1 273 1.2944286689162254e-02</internalNodes>
          <leafValues>
            -2.4101547896862030e-01 8.2946993410587311e-02</leafValues></_>
        <_>
          <internalNodes>
            0 -1 69 1.8277465132996440e-03</internalNodes>
          <leafValues>
            4.7825953364372253e-01 -4.3860502541065216e-02</leafValues></_>
        <_>
          <internalNodes>
            0 -1 174 2.1275132894515991e-02</internalNodes>
          <leafValues>
            1.3229849934577942e-01 -1.4162778854370117e-01</leafValues></_>
        <_>
          <internalNodes>
            0 -1 103 1.0913195461034775e-01</internalNodes>
          <leafValues>
            1.9556101411581039e-02 -1.</leafValues></_>
        <_>
          <internalNodes>
            0 -1 200 6.2477070838212967e-02</internalNodes>
          <leafValues>
            -5.0122771412134171e-02 4.4864907860755920e-01</leafValues></_>
        <_>
          <internalNodes>
            0 -1 32 2.2063819691538811e-02</internalNodes>
          <leafValues>
            -1.3205170631408691e-01 1.3023686408996582e-01</leafValues></_>
        <_>
          <internalNodes>
            0 -1 127 3.7874178960919380e-03</internalNodes>
          <leafValues>
            -4.9607297778129578e-01 3.5260561853647232e-02</leafValues></_>
        <_>
          <internalNodes>
            0 -1 146 4.5066437451168895e-04</internalNodes>
          <leafValues>
            6.6588288545608521e-01 -3.2158002257347107e-02</leafValues></_>
        <_>
          <internalNodes>
            0 -1 9 1.4408370479941368e-03</internalNodes>
          <leafValues>
            6.3377141952514648e-01 -2.6504222303628922e-02</leafValues></_>
        <_>
          <internalNodes>
            0 -1 237 6.9225497543811798e-02</internalNodes>
          <leafValues>
            4.3892316520214081e-02 -4.9525523185729980e-01</leafValues></_>
        <_>
          <internalNodes>
            0 -1 133 2.1441869437694550e-02</internalNodes>
          <leafValues>
            -1.4762984216213226e-01 1.2916681170463562e-01</leafValues></_>
        <_>
          <internalNodes>
            0 -1 297 3.6835059523582458e-02</internalNodes>
          <leafValues>
            -8.7790682911872864e-02 2.3925115168094635e-01</leafValues></_>
        <_>
          <internalNodes>
            0 -1 73 4.7773987054824829e-02</internalNodes>
          <leafValues>
            5.7370744645595551e-02 -3.7127095460891724e-01</leafValues></_>
        <_>
          <internalNodes>
            0 -1 106 8.0799035727977753e-02</internalNodes>
          <leafValues>
            3.6896687000989914e-02 -5.2453804016113281e-01</leafValues></_>
        <_>
          <internalNodes>
            0 -1 119 6.6362306475639343e-02</internalNodes>
          <leafValues>
            -5.1044560968875885e-02 4.1876271367073059e-01</leafValues></_>
        <_>
          <internalNodes>
            0 -1 129 1.2664680369198322e-02</internalNodes>
          <leafValues>
            1.9248449802398682e-01 -1.0187041014432907e-01</leafValues></_>
        <_>
          <internalNodes>
            0 -1 199 7.6679259538650513e-02</internalNodes>
          <leafValues>
            -2.7680367231369019e-02 7.6268285512924194e-01</leafValues></_>
        <_>
          <internalNodes>
            0 -1 117 2.0442938432097435e-02</internalNodes>
          <leafValues>
            1.4102517068386078e-01 -1.4737176895141602e-01</leafValues></_>
        <_>
          <internalNodes>
            0 -1 279 1.5100486576557159e-02</internalNodes>
          <leafValues>
            -2.5058645009994507e-01 9.2208735644817352e-02</leafValues></_>
        <_>
          <internalNodes>
            0 -1 128 1.6588419675827026e-03</internalNodes>
          <leafValues>
            8.5355257987976074e-01 -2.1449493244290352e-02</leafValues></_>
        <_>
          <internalNodes>
            0 -1 237 1.2177007272839546e-02</internalNodes>
          <leafValues>
            -3.8232412934303284e-01 5.6797444820404053e-02</leafValues></_>
        <_>
          <internalNodes>
            0 -1 101 5.0620786845684052e-02</internalNodes>
          <leafValues>
            3.7916932255029678e-02 -5.0378453731536865e-01</leafValues></_>
        <_>
          <internalNodes>
            0 -1 302 6.0872198082506657e-03</internalNodes>
          <leafValues>
            -3.9223489165306091e-01 4.8919420689344406e-02</leafValues></_>
        <_>
          <internalNodes>
            0 -1 202 8.0834552645683289e-02</internalNodes>
          <leafValues>
            -4.3928835541009903e-02 5.4580032825469971e-01</leafValues></_>
        <_>
          <internalNodes>
            0 -1 65 4.4314600527286530e-03</internalNodes>
          <leafValues>
            4.4759115576744080e-01 -4.8384394496679306e-02</leafValues></_>
        <_>
          <internalNodes>
            0 -1 202 1.2844787910580635e-02</internalNodes>
          <leafValues>
            1.9433027505874634e-01 -1.0097039490938187e-01</leafValues></_>
        <_>
          <internalNodes>
            0 -1 269 8.8323578238487244e-03</internalNodes>
          <leafValues>
            -3.7879514694213867e-01 4.9793154001235962e-02</leafValues></_>
        <_>
          <internalNodes>
            0 -1 140 5.4033048450946808e-02</internalNodes>
          <leafValues>
            5.4386179894208908e-02 -3.7992635369300842e-01</leafValues></_>
        <_>
          <internalNodes>
            0 -1 2 1.6203835606575012e-02</internalNodes>
          <leafValues>
            1.5645822882652283e-01 -1.1105264723300934e-01</leafValues></_>
        <_>
          <internalNodes>
            0 -1 60 5.4305866360664368e-03</internalNodes>
          <leafValues>
            2.9286506772041321e-01 -6.2055706977844238e-02</leafValues></_>
        <_>
          <internalNodes>
            0 -1 35 9.2396244406700134e-02</internalNodes>
          <leafValues>
            2.3758953437209129e-02 -8.6283028125762939e-01</leafValues></_>
        <_>
          <internalNodes>
            0 -1 308 8.3280224353075027e-03</internalNodes>
          <leafValues>
            -5.5653846263885498e-01 2.7722757309675217e-02</leafValues></_>
        <_>
          <internalNodes>
            0 -1 58 2.5059333071112633e-02</internalNodes>
          <leafValues>
            1.5260477364063263e-01 -1.2614691257476807e-01</leafValues></_>
        <_>
          <internalNodes>
            0 -1 127 4.1448839008808136e-02</internalNodes>
          <leafValues>
            -1.0101898014545441e-01 2.1868325769901276e-01</leafValues></_>
        <_>
          <internalNodes>
            0 -1 270 5.1349416375160217e-02</internalNodes>
          <leafValues>
            6.5461993217468262e-02 -3.5714027285575867e-01</leafValues></_>
        <_>
          <internalNodes>
            0 -1 39 6.7561883479356766e-03</internalNodes>
          <leafValues>
            3.6245629191398621e-01 -5.0348963588476181e-02</leafValues></_>
        <_>
          <internalNodes>
            0 -1 79 6.4749456942081451e-03</internalNodes>
          <leafValues>
            2.8513616323471069e-01 -6.4030736684799194e-02</leafValues></_>
        <_>
          <internalNodes>
            0 -1 165 1.5031160786747932e-02</internalNodes>
          <leafValues>
            -2.1644322574138641e-01 8.7094254791736603e-02</leafValues></_>
        <_>
          <internalNodes>
            0 -1 295 2.4854164570569992e-02</internalNodes>
          <leafValues>
            1.4926095306873322e-01 -1.3000994920730591e-01</leafValues></_>
        <_>
          <internalNodes>
            0 -1 50 7.7031562104821205e-03</internalNodes>
          <leafValues>
            -3.3144292235374451e-01 6.5546423196792603e-02</leafValues></_>
        <_>
          <internalNodes>
            0 -1 306 3.2554905861616135e-02</internalNodes>
          <leafValues>
            -8.9110463857650757e-02 2.0428293943405151e-01</leafValues></_></weakClassifiers></_>
    <!-- stage 4 -->
    <_>
      <maxWeakCount>100</maxWeakCount>
      <stageThreshold>-6.3418567180633545e-01</stageThreshold>
      <weakClassifiers>
        <_>
          <internalNodes>
            0 -1 197 1.4112085103988647e-02</internalNodes>
          <leafValues>
            1.1943794041872025e-01 -5.1102942228317261e-01</leafValues></_>
        <_>
          <internalNodes>
            0 -1 286 2.1018452942371368e-02</internalNodes>
          <leafValues>
            -3.2502755522727966e-01 2.1570307016372681e-01</leafValues></_>
        <_>
          <internalNodes>
            0 -1 316 1.8664676696062088e-02</internalNodes>
          <leafValues>
            -3.2467380166053772e-01 1.7506450414657593e-01</leafValues></_>
        <_>
          <internalNodes>
            0 -1 74 7.0577803999185562e-03</internalNodes>
          <leafValues>
            5.5115085840225220e-01 -9.6387922763824463e-02</leafValues></_>
        <_>
          <internalNodes>
            0 -1 210 4.1210435330867767e-02</internalNodes>
          <leafValues>
            -9.4810150563716888e-02 4.3883752822875977e-01</leafValues></_>
        <_>
          <internalNodes>
            0 -1 164 9.0251173824071884e-03</internalNodes>
          <leafValues>
            3.6501488089561462e-01 -1.0079040378332138e-01</leafValues></_>
        <_>
          <internalNodes>
            0 -1 314 1.8145145848393440e-02</internalNodes>
          <leafValues>
            -2.9620864987373352e-01 2.1437573432922363e-01</leafValues></_>
        <_>
          <internalNodes>
            0 -1 181 4.6677682548761368e-02</internalNodes>
          <leafValues>
            -1.0857776552438736e-01 5.5096447467803955e-01</leafValues></_>
        <_>
          <internalNodes>
            0 -1 21 2.7262607589364052e-02</internalNodes>
          <leafValues>
            -1.8828275799751282e-01 2.1835245192050934e-01</leafValues></_>
        <_>
          <internalNodes>
            0 -1 308 2.2262470796704292e-02</internalNodes>
          <leafValues>
            -2.0567318797111511e-01 1.9330057501792908e-01</leafValues></_>
        <_>
          <internalNodes>
            0 -1 150 3.1093746423721313e-02</internalNodes>
          <leafValues>
            -1.1388868838548660e-01 3.1547433137893677e-01</leafValues></_>
        <_>
          <internalNodes>
            0 -1 218 4.3112020939588547e-03</internalNodes>
          <leafValues>
            4.5734065771102905e-01 -7.3723301291465759e-02</leafValues></_>
        <_>
          <internalNodes>
            0 -1 257 2.5014534592628479e-02</internalNodes>
          <leafValues>
            -2.0248049497604370e-01 2.1130774915218353e-01</leafValues></_>
        <_>
          <internalNodes>
            0 -1 326 2.1031551063060760e-02</internalNodes>
          <leafValues>
            -2.3462043702602386e-01 1.4292894303798676e-01</leafValues></_>
        <_>
          <internalNodes>
            0 -1 107 5.9127800166606903e-02</internalNodes>
          <leafValues>
            -6.1285920441150665e-02 5.1497048139572144e-01</leafValues></_>
        <_>
          <internalNodes>
            0 -1 183 1.4394167810678482e-02</internalNodes>
          <leafValues>
            2.3388661444187164e-01 -1.3877449929714203e-01</leafValues></_>
        <_>
          <internalNodes>
            0 -1 110 1.1385433375835419e-02</internalNodes>
          <leafValues>
            3.2932892441749573e-01 -1.0059465467929840e-01</leafValues></_>
        <_>
          <internalNodes>
            0 -1 123 5.4612405598163605e-02</internalNodes>
          <leafValues>
            -5.9004608541727066e-02 5.1502245664596558e-01</leafValues></_>
        <_>
          <internalNodes>
            0 -1 91 3.4319136291742325e-02</internalNodes>
          <leafValues>
            -1.3298563659191132e-01 2.5331655144691467e-01</leafValues></_>
        <_>
          <internalNodes>
            0 -1 136 3.5948143340647221e-03</internalNodes>
          <leafValues>
            3.7423232197761536e-01 -7.1571163833141327e-02</leafValues></_>
        <_>
          <internalNodes>
            0 -1 238 2.6900418102741241e-02</internalNodes>
          <leafValues>
            -1.5788321197032928e-01 2.0825064182281494e-01</leafValues></_>
        <_>
          <internalNodes>
            0 -1 193 3.4533929079771042e-02</internalNodes>
          <leafValues>
            -1.2507788836956024e-01 2.6990401744842529e-01</leafValues></_>
        <_>
          <internalNodes>
            0 -1 273 3.1930115073919296e-02</internalNodes>
          <leafValues>
            -1.1653895676136017e-01 2.5223815441131592e-01</leafValues></_>
        <_>
          <internalNodes>
            0 -1 314 2.5669354945421219e-02</internalNodes>
          <leafValues>
            -1.3708764314651489e-01 1.9078059494495392e-01</leafValues></_>
        <_>
          <internalNodes>
            0 -1 321 2.4755641818046570e-02</internalNodes>
          <leafValues>
            -1.9828861951828003e-01 1.4466546475887299e-01</leafValues></_>
        <_>
          <internalNodes>
            0 -1 322 6.2883004546165466e-02</internalNodes>
          <leafValues>
            4.7372836619615555e-02 -6.4652305841445923e-01</leafValues></_>
        <_>
          <internalNodes>
            0 -1 178 8.0070178955793381e-03</internalNodes>
          <leafValues>
            4.0086263418197632e-01 -7.9696416854858398e-02</leafValues></_>
        <_>
          <internalNodes>
            0 -1 168 4.0586352348327637e-02</internalNodes>
          <leafValues>
            -8.0055356025695801e-02 3.6961773037910461e-01</leafValues></_>
        <_>
          <internalNodes>
            0 -1 228 1.5589078888297081e-02</internalNodes>
          <leafValues>
            -2.6695302128791809e-01 1.1678192019462585e-01</leafValues></_>
        <_>
          <internalNodes>
            0 -1 267 2.6033950969576836e-02</internalNodes>
          <leafValues>
            -1.3752731680870056e-01 2.0358097553253174e-01</leafValues></_>
        <_>
          <internalNodes>
            0 -1 310 6.2657982110977173e-02</internalNodes>
          <leafValues>
            3.9176002144813538e-02 -6.5744072198867798e-01</leafValues></_>
        <_>
          <internalNodes>
            0 -1 26 4.7464758157730103e-02</internalNodes>
          <leafValues>
            -7.6120868325233459e-02 3.7470135092735291e-01</leafValues></_>
        <_>
          <internalNodes>
            0 -1 208 7.7988416887819767e-03</internalNodes>
          <leafValues>
            2.8320103883743286e-01 -9.0256959199905396e-02</leafValues></_>
        <_>
          <internalNodes>
            0 -1 97 8.5532832890748978e-03</internalNodes>
          <leafValues>
            3.9573451876640320e-01 -6.5235197544097900e-02</leafValues></_>
        <_>
          <internalNodes>
            0 -1 307 1.9135424867272377e-02</internalNodes>
          <leafValues>
            -2.2879402339458466e-01 1.2273239344358444e-01</leafValues></_>
        <_>
          <internalNodes>
            0 -1 196 7.2092004120349884e-02</internalNodes>
          <leafValues>
            -7.6860837638378143e-02 3.5034745931625366e-01</leafValues></_>
        <_>
          <internalNodes>
            0 -1 167 1.0555527172982693e-02</internalNodes>
          <leafValues>
            3.7485474348068237e-01 -6.7072048783302307e-02</leafValues></_>
        <_>
          <internalNodes>
            0 -1 1 7.0231440477073193e-03</internalNodes>
          <leafValues>
            3.3219903707504272e-01 -7.1124762296676636e-02</leafValues></_>
        <_>
          <internalNodes>
            0 -1 328 6.1923723667860031e-02</internalNodes>
          <leafValues>
            3.5966888070106506e-02 -7.5328987836837769e-01</leafValues></_>
        <_>
          <internalNodes>
            0 -1 209 3.6554969847202301e-02</internalNodes>
          <leafValues>
            -6.9731958210468292e-02 3.7467488646507263e-01</leafValues></_>
        <_>
          <internalNodes>
            0 -1 87 2.2508785128593445e-02</internalNodes>
          <leafValues>
            1.6194085776805878e-01 -1.5043930709362030e-01</leafValues></_>
        <_>
          <internalNodes>
            0 -1 31 1.3793399557471275e-02</internalNodes>
          <leafValues>
            2.7202430367469788e-01 -1.1087491363286972e-01</leafValues></_>
        <_>
          <internalNodes>
            0 -1 284 6.3598543405532837e-02</internalNodes>
          <leafValues>
            4.9676563590764999e-02 -5.6433427333831787e-01</leafValues></_>
        <_>
          <internalNodes>
            0 -1 224 1.3108947314321995e-02</internalNodes>
          <leafValues>
            -2.7763557434082031e-01 8.2996450364589691e-02</leafValues></_>
        <_>
          <internalNodes>
            0 -1 3 1.1100893840193748e-02</internalNodes>
          <leafValues>
            2.9434904456138611e-01 -9.6420727670192719e-02</leafValues></_>
        <_>
          <internalNodes>
            0 -1 325 7.4998468160629272e-02</internalNodes>
          <leafValues>
            4.2197633534669876e-02 -5.9135240316390991e-01</leafValues></_>
        <_>
          <internalNodes>
            0 -1 262 8.8045634329319000e-02</internalNodes>
          <leafValues>
            3.1676508486270905e-02 -6.8718510866165161e-01</leafValues></_>
        <_>
          <internalNodes>
            0 -1 235 5.5846385657787323e-02</internalNodes>
          <leafValues>
            3.5378523170948029e-02 -5.9003007411956787e-01</leafValues></_>
        <_>
          <internalNodes>
            0 -1 22 5.4732705466449261e-03</internalNodes>
          <leafValues>
            4.4960656762123108e-01 -5.4029908031225204e-02</leafValues></_>
        <_>
          <internalNodes>
            0 -1 30 4.9893531948328018e-02</internalNodes>
          <leafValues>
            -4.7837466001510620e-02 4.2708829045295715e-01</leafValues></_>
        <_>
          <internalNodes>
            0 -1 116 3.6898575723171234e-02</internalNodes>
          <leafValues>
            -9.2106103897094727e-02 2.6100489497184753e-01</leafValues></_>
        <_>
          <internalNodes>
            0 -1 229 1.9496291875839233e-02</internalNodes>
          <leafValues>
            -2.2726225852966309e-01 1.0753846913576126e-01</leafValues></_>
        <_>
          <internalNodes>
            0 -1 105 4.9521978944540024e-03</internalNodes>
          <leafValues>
            5.6457889080047607e-01 -5.0106965005397797e-02</leafValues></_>
        <_>
          <internalNodes>
            0 -1 127 2.8320340439677238e-02</internalNodes>
          <leafValues>
            -1.5525566041469574e-01 1.4965184032917023e-01</leafValues></_>
        <_>
          <internalNodes>
            0 -1 130 4.1340824216604233e-02</internalNodes>
          <leafValues>
            -6.4712770283222198e-02 3.8472995162010193e-01</leafValues></_>
        <_>
          <internalNodes>
            0 -1 8 1.6634065657854080e-02</internalNodes>
          <leafValues>
            -2.2680541872978210e-01 1.1479404568672180e-01</leafValues></_>
        <_>
          <internalNodes>
            0 -1 320 1.4973782002925873e-02</internalNodes>
          <leafValues>
            -3.4955897927284241e-01 7.1133710443973541e-02</leafValues></_>
        <_>
          <internalNodes>
            0 -1 51 2.4812316987663507e-03</internalNodes>
          <leafValues>
            6.7796331644058228e-01 -4.0250316262245178e-02</leafValues></_>
        <_>
          <internalNodes>
            0 -1 212 4.2945295572280884e-03</internalNodes>
          <leafValues>
            5.8966308832168579e-01 -3.8942150771617889e-02</leafValues></_>
        <_>
          <internalNodes>
            0 -1 283 2.3596700280904770e-02</internalNodes>
          <leafValues>
            -1.6023270785808563e-01 1.8666961789131165e-01</leafValues></_>
        <_>
          <internalNodes>
            0 -1 124 8.5821829736232758e-02</internalNodes>
          <leafValues>
            -2.7549151331186295e-02 8.2574641704559326e-01</leafValues></_>
        <_>
          <internalNodes>
            0 -1 166 7.4635087512433529e-03</internalNodes>
          <leafValues>
            2.6818901300430298e-01 -8.9486643671989441e-02</leafValues></_>
        <_>
          <internalNodes>
            0 -1 316 2.1080227568745613e-02</internalNodes>
          <leafValues>
            -2.0874653756618500e-01 1.1532235890626907e-01</leafValues></_>
        <_>
          <internalNodes>
            0 -1 205 3.9774503558874130e-02</internalNodes>
          <leafValues>
            -7.6081149280071259e-02 3.6102867126464844e-01</leafValues></_>
        <_>
          <internalNodes>
            0 -1 254 1.9532155245542526e-02</internalNodes>
          <leafValues>
            -2.5276881456375122e-01 1.1978981643915176e-01</leafValues></_>
        <_>
          <internalNodes>
            0 -1 88 7.1793366223573685e-03</internalNodes>
          <leafValues>
            3.6291393637657166e-01 -7.7988773584365845e-02</leafValues></_>
        <_>
          <internalNodes>
            0 -1 132 9.8736852407455444e-02</internalNodes>
          <leafValues>
            -2.8870292007923126e-02 7.9571574926376343e-01</leafValues></_>
        <_>
          <internalNodes>
            0 -1 80 5.2482485771179199e-03</internalNodes>
          <leafValues>
            3.6592161655426025e-01 -5.8678079396486282e-02</leafValues></_>
        <_>
          <internalNodes>
            0 -1 291 7.7899642288684845e-02</internalNodes>
          <leafValues>
            4.2417891323566437e-02 -5.8831721544265747e-01</leafValues></_>
        <_>
          <internalNodes>
            0 -1 306 1.7605582252144814e-02</internalNodes>
          <leafValues>
            -2.4713125824928284e-01 1.1246099323034286e-01</leafValues></_>
        <_>
          <internalNodes>
            0 -1 278 4.6614864841103554e-03</internalNodes>
          <leafValues>
            7.2164553403854370e-01 -3.5566117614507675e-02</leafValues></_>
        <_>
          <internalNodes>
            0 -1 256 4.7413982450962067e-02</internalNodes>
          <leafValues>
            -4.1106715798377991e-02 5.2587884664535522e-01</leafValues></_>
        <_>
          <internalNodes>
            0 -1 222 5.1976391114294529e-03</internalNodes>
          <leafValues>
            3.3186814188957214e-01 -8.1586554646492004e-02</leafValues></_>
        <_>
          <internalNodes>
            0 -1 292 1.6107007861137390e-02</internalNodes>
          <leafValues>
            -2.9826670885086060e-01 9.7571007907390594e-02</leafValues></_>
        <_>
          <internalNodes>
            0 -1 53 4.2007215321063995e-02</internalNodes>
          <leafValues>
            -7.1457363665103912e-02 3.5072654485702515e-01</leafValues></_>
        <_>
          <internalNodes>
            0 -1 48 3.6253339203540236e-05</internalNodes>
          <leafValues>
            -7.8566855192184448e-01 3.6397337913513184e-02</leafValues></_>
        <_>
          <internalNodes>
            0 -1 93 8.3559807389974594e-03</internalNodes>
          <leafValues>
            3.1215074658393860e-01 -8.7970018386840820e-02</leafValues></_>
        <_>
          <internalNodes>
            0 -1 195 2.5559635832905769e-03</internalNodes>
          <leafValues>
            6.0268878936767578e-01 -3.2255936414003372e-02</leafValues></_>
        <_>
          <internalNodes>
            0 -1 137 1.0435111820697784e-02</internalNodes>
          <leafValues>
            2.0278623700141907e-01 -1.1202332377433777e-01</leafValues></_>
        <_>
          <internalNodes>
            0 -1 318 1.2625140137970448e-02</internalNodes>
          <leafValues>
            -3.3146849274635315e-01 8.1173673272132874e-02</leafValues></_>
        <_>
          <internalNodes>
            0 -1 299 6.4869984984397888e-02</internalNodes>
          <leafValues>
            3.5843208432197571e-02 -6.3208329677581787e-01</leafValues></_>
        <_>
          <internalNodes>
            0 -1 266 3.1892780214548111e-02</internalNodes>
          <leafValues>
            -1.3359093666076660e-01 1.9373586773872375e-01</leafValues></_>
        <_>
          <internalNodes>
            0 -1 185 2.0127170719206333e-03</internalNodes>
          <leafValues>
            6.7945510149002075e-01 -3.0335767194628716e-02</leafValues></_>
        <_>
          <internalNodes>
            0 -1 34 7.7182665467262268e-02</internalNodes>
          <leafValues>
            3.8729842752218246e-02 -7.4197071790695190e-01</leafValues></_>
        <_>
          <internalNodes>
            0 -1 265 6.6298484802246094e-02</internalNodes>
          <leafValues>
            4.7491587698459625e-02 -4.6444925665855408e-01</leafValues></_>
        <_>
          <internalNodes>
            0 -1 192 5.2474411204457283e-03</internalNodes>
          <leafValues>
            3.9536675810813904e-01 -6.6556647419929504e-02</leafValues></_>
        <_>
          <internalNodes>
            0 -1 169 3.3748548477888107e-02</internalNodes>
          <leafValues>
            -9.3311041593551636e-02 2.8481593728065491e-01</leafValues></_>
        <_>
          <internalNodes>
            0 -1 18 4.8611208796501160e-02</internalNodes>
          <leafValues>
            -9.0475782752037048e-02 2.9079243540763855e-01</leafValues></_>
        <_>
          <internalNodes>
            0 -1 298 2.6811538264155388e-02</internalNodes>
          <leafValues>
            -1.2583537399768829e-01 1.9445815682411194e-01</leafValues></_>
        <_>
          <internalNodes>
            0 -1 319 1.7462173476815224e-02</internalNodes>
          <leafValues>
            -2.1543647348880768e-01 1.2071160972118378e-01</leafValues></_>
        <_>
          <internalNodes>
            0 -1 301 1.9672850146889687e-02</internalNodes>
          <leafValues>
            1.5846771001815796e-01 -1.5588957071304321e-01</leafValues></_>
        <_>
          <internalNodes>
            0 -1 133 3.7644211202859879e-02</internalNodes>
          <leafValues>
            -1.0010449588298798e-01 2.3968556523323059e-01</leafValues></_>
        <_>
          <internalNodes>
            0 -1 188 3.8263559341430664e-02</internalNodes>
          <leafValues>
            -7.1391731500625610e-02 2.8946557641029358e-01</leafValues></_>
        <_>
          <internalNodes>
            0 -1 189 1.1839848943054676e-02</internalNodes>
          <leafValues>
            2.2545395791530609e-01 -9.8725020885467529e-02</leafValues></_>
        <_>
          <internalNodes>
            0 -1 304 5.3182980045676231e-03</internalNodes>
          <leafValues>
            -5.9980857372283936e-01 3.8040906190872192e-02</leafValues></_>
        <_>
          <internalNodes>
            0 -1 5 8.6408639326691628e-03</internalNodes>
          <leafValues>
            2.2790174186229706e-01 -9.9206097424030304e-02</leafValues></_>
        <_>
          <internalNodes>
            0 -1 220 8.3898082375526428e-02</internalNodes>
          <leafValues>
            3.6754235625267029e-02 -6.3436722755432129e-01</leafValues></_>
        <_>
          <internalNodes>
            0 -1 145 1.1599061079323292e-02</internalNodes>
          <leafValues>
            2.2039364278316498e-01 -1.1083836108446121e-01</leafValues></_>
        <_>
          <internalNodes>
            0 -1 134 4.4483751058578491e-02</internalNodes>
          <leafValues>
            -6.5843068063259125e-02 3.6258837580680847e-01</leafValues></_>
        <_>
          <internalNodes>
            0 -1 317 5.4110880941152573e-02</internalNodes>
          <leafValues>
            4.2393710464239120e-02 -6.1959546804428101e-01</leafValues></_></weakClassifiers></_></stages>
  <features>
    <_>
      <rect>
        0 0 8 8 0</rect></_>
    <_>
      <rect>
        0 0 8 8 1</rect></_>
    <_>
      <rect>
        0 0 8 8 2</rect></_>
    <_>
      <rect>
        0 0 8 8 4</rect></_>
    <_>
      <rect>
        0 0 8 8 6</rect></_>
    <_>
      <rect>
        0 0 8 8 7</rect></_>
    <_>
      <rect>
        0 0 8 8 9</rect></_>
    <_>
      <rect>
        0 0 8 8 11</rect></_>
    <_>
      <rect>
        0 0 8 8 18</rect></_>
    <_>
      <rect>
        0 0 8 8 19</rect></_>
    <_>
      <rect>
        0 0 8 8 28</rect></_>
    <_>
      <rect>
        0 0 8 8 31</rect></_>
    <_>
      <rect>
        0 0 8 8 33</rect></_>
    <_>
      <rect>
        0 0 8 8 35</rect></_>
    <_>
      <rect>
        0 4 8 8 0</rect></_>
    <_>
      <rect>
        0 4 8 8 4</rect></_>
    <_>
      <rect>
        0 4 8 8 6</rect></_>
    <_>
      <rect>
        0 4 8 8 8</rect></_>
    <_>
      <rect>
        0 4 8 8 10</rect></_>
    <_>
      <rect>
        0 4 8 8 12</rect></_>
    <_>
      <rect>
        0 4 8 8 13</rect></_>
    <_>
      <rect>
        0 4 8 8 26</rect></_>
    <_>
      <rect>
        0 4 8 8 31</rect></_>
    <_>
      <rect>
        0 8 8 8 0</rect></_>
    <_>
      <rect>
        0 8 8 8 3</rect></_>
    <_>
      <rect>
        0 8 8 8 4</rect></_>
    <_>
      <rect>
        0 8 8 8 5</rect></_>
    <_>
      <rect>
        0 8 8 8 6</rect></_>
    <_>
      <rect>
        0 8 8 8 9</rect></_>
    <_>
      <rect>
        0 8 8 8 13</rect></_>
    <_>
      <rect>
        0 8 8 8 21</rect></_>
    <_>
      <rect>
        0 8 8 8 22</rect></_>
    <_>
      <rect>
        0 8 8 8 25</rect></_>
    <_>
      <rect>
        0 8 8 8 31</rect></_>
    <_>
      <rect>
        0 12 8 8 2</rect></_>
    <_>
      <rect>
        0 12 8 8 3</rect></_>
    <_>
      <rect>
        0 12 8 8 7</rect></_>
    <_>
      <rect>
        0 12 8 8 13</rect></_>
    <_>
      <rect>
        0 12 8 8 20</rect></_>
    <_>
      <rect>
        0 12 8 8 31</rect></_>
    <_>
      <rect>
        0 12 8 8 35</rect></_>
    <_>
      <rect>
        0 16 8 8 0</rect></_>
    <_>
      <rect>
        0 16 8 8 1</rect></_>
    <_>
      <rect>
        0 16 8 8 6</rect></_>
    <_>
      <rect>
        0 16 8 8 18</rect></_>
    <_>
      <rect>
        0 16 8 8 19</rect></_>
    <_>
      <rect>
        0 16 8 8 22</rect></_>
    <_>
      <rect>
        0 16 8 8 26</rect></_>
    <_>
      <rect>
        0 16 8 8 28</rect></_>
    <_>
      <rect>
        0 16 8 8 31</rect></_>
    <_>
      <rect>
        0 16 8 8 33</rect></_>
    <_>
      <rect>
        4 0 8 8 1</rect></_>
    <_>
      <rect>
        4 0 8 8 3</rect></_>
    <_>
      <rect>
        4 0 8 8 5</rect></_>
    <_>
      <rect>
        4 0 8 8 7</rect></_>
    <_>
      <rect>
        4 0 8 8 8</rect></_>
    <_>
      <rect>
        4 0 8 8 10</rect></_>
    <_>
      <rect>
        4 0 8 8 12</rect></_>
    <_>
      <rect>
        4 0 8 8 13</rect></_>
    <_>
      <rect>
        4 0 8 8 20</rect></_>
    <_>
      <rect>
        4 0 8 8 25</rect></_>
    <_>
      <rect>
        4 0 8 8 26</rect></_>
    <_>
      <rect>
        4 0 8 8 33</rect></_>
    <_>
      <rect>
        4 0 8 8 35</rect></_>
    <_>
      <rect>
        4 4 8 8 0</rect></_>
    <_>
      <rect>
        4 4 8 8 1</rect></_>
    <_>
      <rect>
        4 4 8 8 5</rect></_>
    <_>
      <rect>
        4 4 8 8 6</rect></_>
    <_>
      <rect>
        4 4 8 8 12</rect></_>
    <_>
      <rect>
        4 4 8 8 15</rect></_>
    <_>
      <rect>
        4 4 8 8 17</rect></_>
    <_>
      <rect>
        4 4 8 8 18</rect></_>
    <_>
      <rect>
        4 4 8 8 20</rect></_>
    <_>
      <rect>
        4 4 8 8 23</rect></_>
    <_>
      <rect>
        4 4 8 8 31</rect></_>
    <_>
      <rect>
        4 4 8 8 34</rect></_>
    <_>
      <rect>
        4 8 8 8 4</rect></_>
    <_>
      <rect>
        4 8 8 8 10</rect></_>
    <_>
      <rect>
        4 8 8 8 19</rect></_>
    <_>
      <rect>
        4 8 8 8 27</rect></_>
    <_>
      <rect>
        4 12 8 8 9</rect></_>
    <_>
      <rect>
        4 12 8 8 12</rect></_>
    <_>
      <rect>
        4 12 8 8 17</rect></_>
    <_>
      <rect>
        4 12 8 8 19</rect></_>
    <_>
      <rect>
        4 12 8 8 20</rect></_>
    <_>
      <rect>
        4 12 8 8 21</rect></_>
    <_>
      <rect>
        4 12 8 8 24</rect></_>
    <_>
      <rect>
        4 12 8 8 25</rect></_>
    <_>
      <rect>
        4 16 8 8 5</rect></_>
    <_>
      <rect>
        4 16 8 8 7</rect></_>
    <_>
      <rect>
        4 16 8 8 9</rect></_>
    <_>
      <rect>
        4 16 8 8 23</rect></_>
    <_>
      <rect>
        4 16 8 8 24</rect></_>
    <_>
      <rect>
        4 16 8 8 25</rect></_>
    <_>
      <rect>
        4 16 8 8 31</rect></_>
    <_>
      <rect>
        4 16 8 8 34</rect></_>
    <_>
      <rect>
        4 16 8 8 35</rect></_>
    <_>
      <rect>
        8 0 8 8 2</rect></_>
    <_>
      <rect>
        8 0 8 8 7</rect></_>
    <_>
      <rect>
        8 0 8 8 17</rect></_>
    <_>
      <rect>
        8 0 8 8 19</rect></_>
    <_>
      <rect>
        8 0 8 8 22</rect></_>
    <_>
      <rect>
        8 0 8 8 27</rect></_>
    <_>
      <rect>
        8 0 8 8 28</rect></_>
    <_>
      <rect>
        8 0 8 8 33</rect></_>
    <_>
      <rect>
        8 4 8 8 2</rect></_>
    <_>
      <rect>
        8 4 8 8 3</rect></_>
    <_>
      <rect>
        8 4 8 8 6</rect></_>
    <_>
      <rect>
        8 4 8 8 7</rect></_>
    <_>
      <rect>
        8 4 8 8 8</rect></_>
    <_>
      <rect>
        8 8 8 8 4</rect></_>
    <_>
      <rect>
        8 8 8 8 12</rect></_>
    <_>
      <rect>
        8 8 8 8 22</rect></_>
    <_>
      <rect>
        8 8 8 8 29</rect></_>
    <_>
      <rect>
        8 8 8 8 30</rect></_>
    <_>
      <rect>
        8 8 8 8 35</rect></_>
    <_>
      <rect>
        8 12 8 8 6</rect></_>
    <_>
      <rect>
        8 12 8 8 9</rect></_>
    <_>
      <rect>
        8 12 8 8 18</rect></_>
    <_>
      <rect>
        8 12 8 8 19</rect></_>
    <_>
      <rect>
        8 12 8 8 20</rect></_>
    <_>
      <rect>
        8 16 8 8 4</rect></_>
    <_>
      <rect>
        8 16 8 8 5</rect></_>
    <_>
      <rect>
        8 16 8 8 18</rect></_>
    <_>
      <rect>
        8 16 8 8 26</rect></_>
    <_>
      <rect>
        8 16 8 8 30</rect></_>
    <_>
      <rect>
        12 0 8 8 0</rect></_>
    <_>
      <rect>
        12 0 8 8 3</rect></_>
    <_>
      <rect>
        12 0 8 8 4</rect></_>
    <_>
      <rect>
        12 0 8 8 7</rect></_>
    <_>
      <rect>
        12 0 8 8 8</rect></_>
    <_>
      <rect>
        12 0 8 8 9</rect></_>
    <_>
      <rect>
        12 0 8 8 10</rect></_>
    <_>
      <rect>
        12 0 8 8 12</rect></_>
    <_>
      <rect>
        12 0 8 8 17</rect></_>
    <_>
      <rect>
        12 0 8 8 18</rect></_>
    <_>
      <rect>
        12 0 8 8 24</rect></_>
    <_>
      <rect>
        12 0 8 8 26</rect></_>
    <_>
      <rect>
        12 0 8 8 31</rect></_>
    <_>
      <rect>
        12 0 8 8 35</rect></_>
    <_>
      <rect>
        12 4 8 8 1</rect></_>
    <_>
      <rect>
        12 4 8 8 2</rect></_>
    <_>
      <rect>
        12 4 8 8 6</rect></_>
    <_>
      <rect>
        12 4 8 8 8</rect></_>
    <_>
      <rect>
        12 4 8 8 9</rect></_>
    <_>
      <rect>
        12 4 8 8 10</rect></_>
    <_>
      <rect>
        12 4 8 8 11</rect></_>
    <_>
      <rect>
        12 4 8 8 15</rect></_>
    <_>
      <rect>
        12 4 8 8 16</rect></_>
    <_>
      <rect>
        12 4 8 8 22</rect></_>
    <_>
      <rect>
        12 4 8 8 23</rect></_>
    <_>
      <rect>
        12 8 8 8 7</rect></_>
    <_>
      <rect>
        12 8 8 8 11</rect></_>
    <_>
      <rect>
        12 8 8 8 15</rect></_>
    <_>
      <rect>
        12 8 8 8 16</rect></_>
    <_>
      <rect>
        12 8 8 8 20</rect></_>
    <_>
      <rect>
        12 8 8 8 26</rect></_>
    <_>
      <rect>
        12 8 8 8 28</rect></_>
    <_>
      <rect>
        12 8 8 8 32</rect></_>
    <_>
      <rect>
        12 8 8 8 34</rect></_>
    <_>
      <rect>
        12 8 8 8 35</rect></_>
    <_>
      <rect>
        12 12 8 8 3</rect></_>
    <_>
      <rect>
        12 12 8 8 7</rect></_>
    <_>
      <rect>
        12 12 8 8 11</rect></_>
    <_>
      <rect>
        12 12 8 8 13</rect></_>
    <_>
      <rect>
        12 12 8 8 21</rect></_>
    <_>
      <rect>
        12 12 8 8 26</rect></_>
    <_>
      <rect>
        12 12 8 8 28</rect></_>
    <_>
      <rect>
        12 12 8 8 32</rect></_>
    <_>
      <rect>
        12 12 8 8 33</rect></_>
    <_>
      <rect>
        12 16 8 8 3</rect></_>
    <_>
      <rect>
        12 16 8 8 7</rect></_>
    <_>
      <rect>
        12 16 8 8 8</rect></_>
    <_>
      <rect>
        12 16 8 8 12</rect></_>
    <_>
      <rect>
        12 16 8 8 13</rect></_>
    <_>
      <rect>
        12 16 8 8 21</rect></_>
    <_>
      <rect>
        12 16 8 8 27</rect></_>
    <_>
      <rect>
        12 16 8 8 29</rect></_>
    <_>
      <rect>
        12 16 8 8 31</rect></_>
    <_>
      <rect>
        16 0 8 8 6</rect></_>
    <_>
      <rect>
        16 0 8 8 7</rect></_>
    <_>
      <rect>
        16 0 8 8 8</rect></_>
    <_>
      <rect>
        16 0 8 8 9</rect></_>
    <_>
      <rect>
        16 0 8 8 11</rect></_>
    <_>
      <rect>
        16 0 8 8 13</rect></_>
    <_>
      <rect>
        16 0 8 8 15</rect></_>
    <_>
      <rect>
        16 0 8 8 17</rect></_>
    <_>
      <rect>
        16 0 8 8 21</rect></_>
    <_>
      <rect>
        16 0 8 8 23</rect></_>
    <_>
      <rect>
        16 0 8 8 32</rect></_>
    <_>
      <rect>
        16 0 8 8 33</rect></_>
    <_>
      <rect>
        16 4 8 8 7</rect></_>
    <_>
      <rect>
        16 4 8 8 9</rect></_>
    <_>
      <rect>
        16 4 8 8 10</rect></_>
    <_>
      <rect>
        16 4 8 8 11</rect></_>
    <_>
      <rect>
        16 4 8 8 13</rect></_>
    <_>
      <rect>
        16 4 8 8 15</rect></_>
    <_>
      <rect>
        16 4 8 8 20</rect></_>
    <_>
      <rect>
        16 4 8 8 22</rect></_>
    <_>
      <rect>
        16 4 8 8 26</rect></_>
    <_>
      <rect>
        16 4 8 8 30</rect></_>
    <_>
      <rect>
        16 4 8 8 31</rect></_>
    <_>
      <rect>
        16 4 8 8 33</rect></_>
    <_>
      <rect>
        16 8 8 8 1</rect></_>
    <_>
      <rect>
        16 8 8 8 11</rect></_>
    <_>
      <rect>
        16 8 8 8 12</rect></_>
    <_>
      <rect>
        16 8 8 8 13</rect></_>
    <_>
      <rect>
        16 8 8 8 22</rect></_>
    <_>
      <rect>
        16 8 8 8 23</rect></_>
    <_>
      <rect>
        16 8 8 8 25</rect></_>
    <_>
      <rect>
        16 8 8 8 31</rect></_>
    <_>
      <rect>
        16 8 8 8 33</rect></_>
    <_>
      <rect>
        16 8 8 8 35</rect></_>
    <_>
      <rect>
        16 12 8 8 3</rect></_>
    <_>
      <rect>
        16 12 8 8 8</rect></_>
    <_>
      <rect>
        16 12 8 8 17</rect></_>
    <_>
      <rect>
        16 12 8 8 26</rect></_>
    <_>
      <rect>
        16 12 8 8 31</rect></_>
    <_>
      <rect>
        16 16 8 8 8</rect></_>
    <_>
      <rect>
        16 16 8 8 10</rect></_>
    <_>
      <rect>
        16 16 8 8 16</rect></_>
    <_>
      <rect>
        16 16 8 8 31</rect></_>
    <_>
      <rect>
        16 16 8 8 32</rect></_>
    <_>
      <rect>
        16 16 8 8 34</rect></_>
    <_>
      <rect>
        0 0 8 16 3</rect></_>
    <_>
      <rect>
        0 0 8 16 7</rect></_>
    <_>
      <rect>
        0 0 8 16 8</rect></_>
    <_>
      <rect>
        0 0 8 16 12</rect></_>
    <_>
      <rect>
        0 0 8 16 26</rect></_>
    <_>
      <rect>
        4 0 8 16 1</rect></_>
    <_>
      <rect>
        4 0 8 16 3</rect></_>
    <_>
      <rect>
        4 0 8 16 5</rect></_>
    <_>
      <rect>
        4 0 8 16 18</rect></_>
    <_>
      <rect>
        4 0 8 16 22</rect></_>
    <_>
      <rect>
        4 0 8 16 32</rect></_>
    <_>
      <rect>
        8 0 8 16 0</rect></_>
    <_>
      <rect>
        8 0 8 16 3</rect></_>
    <_>
      <rect>
        8 0 8 16 13</rect></_>
    <_>
      <rect>
        8 0 8 16 14</rect></_>
    <_>
      <rect>
        8 0 8 16 15</rect></_>
    <_>
      <rect>
        8 0 8 16 16</rect></_>
    <_>
      <rect>
        8 0 8 16 23</rect></_>
    <_>
      <rect>
        8 0 8 16 24</rect></_>
    <_>
      <rect>
        8 0 8 16 34</rect></_>
    <_>
      <rect>
        12 0 8 16 14</rect></_>
    <_>
      <rect>
        12 0 8 16 15</rect></_>
    <_>
      <rect>
        12 0 8 16 21</rect></_>
    <_>
      <rect>
        12 0 8 16 23</rect></_>
    <_>
      <rect>
        12 0 8 16 26</rect></_>
    <_>
      <rect>
        12 0 8 16 27</rect></_>
    <_>
      <rect>
        12 0 8 16 28</rect></_>
    <_>
      <rect>
        16 0 8 16 5</rect></_>
    <_>
      <rect>
        16 0 8 16 8</rect></_>
    <_>
      <rect>
        16 0 8 16 25</rect></_>
    <_>
      <rect>
        16 0 8 16 27</rect></_>
    <_>
      <rect>
        16 0 8 16 30</rect></_>
    <_>
      <rect>
        16 0 8 16 32</rect></_>
    <_>
      <rect>
        16 0 8 16 35</rect></_>
    <_>
      <rect>
        0 0 16 8 0</rect></_>
    <_>
      <rect>
        0 0 16 8 1</rect></_>
    <_>
      <rect>
        0 0 16 8 2</rect></_>
    <_>
      <rect>
        0 0 16 8 3</rect></_>
    <_>
      <rect>
        0 0 16 8 4</rect></_>
    <_>
      <rect>
        0 0 16 8 6</rect></_>
    <_>
      <rect>
        0 0 16 8 12</rect></_>
    <_>
      <rect>
        0 0 16 8 13</rect></_>
    <_>
      <rect>
        0 0 16 8 14</rect></_>
    <_>
      <rect>
        0 0 16 8 32</rect></_>
    <_>
      <rect>
        0 0 16 8 33</rect></_>
    <_>
      <rect>
        0 4 16 8 1</rect></_>
    <_>
      <rect>
        0 4 16 8 2</rect></_>
    <_>
      <rect>
        0 4 16 8 4</rect></_>
    <_>
      <rect>
        0 4 16 8 5</rect></_>
    <_>
      <rect>
        0 4 16 8 8</rect></_>
    <_>
      <rect>
        0 4 16 8 13</rect></_>
    <_>
      <rect>
        0 4 16 8 15</rect></_>
    <_>
      <rect>
        0 4 16 8 25</rect></_>
    <_>
      <rect>
        0 4 16 8 26</rect></_>
    <_>
      <rect>
        0 4 16 8 31</rect></_>
    <_>
      <rect>
        0 4 16 8 35</rect></_>
    <_>
      <rect>
        0 8 16 8 9</rect></_>
    <_>
      <rect>
        0 8 16 8 28</rect></_>
    <_>
      <rect>
        0 8 16 8 31</rect></_>
    <_>
      <rect>
        0 8 16 8 35</rect></_>
    <_>
      <rect>
        0 12 16 8 1</rect></_>
    <_>
      <rect>
        0 12 16 8 6</rect></_>
    <_>
      <rect>
        0 12 16 8 7</rect></_>
    <_>
      <rect>
        0 12 16 8 13</rect></_>
    <_>
      <rect>
        0 12 16 8 14</rect></_>
    <_>
      <rect>
        0 12 16 8 15</rect></_>
    <_>
      <rect>
        0 12 16 8 19</rect></_>
    <_>
      <rect>
        0 12 16 8 22</rect></_>
    <_>
      <rect>
        0 12 16 8 24</rect></_>
    <_>
      <rect>
        0 12 16 8 28</rect></_>
    <_>
      <rect>
        0 12 16 8 29</rect></_>
    <_>
      <rect>
        0 12 16 8 31</rect></_>
    <_>
      <rect>
        0 12 16 8 34</rect></_>
    <_>
      <rect>
        0 16 16 8 5</rect></_>
    <_>
      <rect>
        0 16 16 8 8</rect></_>
    <_>
      <rect>
        0 16 16 8 15</rect></_>
    <_>
      <rect>
        0 16 16 8 16</rect></_>
    <_>
      <rect>
        0 16 16 8 20</rect></_>
    <_>
      <rect>
        0 16 16 8 21</rect></_>
    <_>
      <rect>
        0 16 16 8 25</rect></_>
    <_>
      <rect>
        0 16 16 8 26</rect></_>
    <_>
      <rect>
        0 16 16 8 27</rect></_>
    <_>
      <rect>
        0 16 16 8 30</rect></_>
    <_>
      <rect>
        0 0 16 16 0</rect></_>
    <_>
      <rect>
        0 0 16 16 3</rect></_>
    <_>
      <rect>
        0 0 16 16 4</rect></_>
    <_>
      <rect>
        0 0 16 16 6</rect></_>
    <_>
      <rect>
        0 0 16 16 8</rect></_>
    <_>
      <rect>
        0 0 16 16 10</rect></_>
    <_>
      <rect>
        0 0 16 16 11</rect></_>
    <_>
      <rect>
        0 0 16 16 12</rect></_>
    <_>
      <rect>
        0 0 16 16 13</rect></_>
    <_>
      <rect>
        0 0 16 16 15</rect></_>
    <_>
      <rect>
        0 0 16 16 16</rect></_>
    <_>
      <rect>
        0 0 16 16 17</rect></_>
    <_>
      <rect>
        0 0 16 16 21</rect></_>
    <_>
      <rect>
        0 0 16 16 23</rect></_>
    <_>
      <rect>
        0 0 16 16 24</rect></_>
    <_>
      <rect>
        0 0 16 16 25</rect></_>
    <_>
      <rect>
        0 0 16 16 26</rect></_>
    <_>
      <rect>
        0 0 16 16 27</rect></_>
    <_>
      <rect>
        0 0 16 16 28</rect></_>
    <_>
      <rect>
        0 0 16 16 30</rect></_>
    <_>
      <rect>
        0 0 16 16 32</rect></_>
    <_>
      <rect>
        0 0 16 16 33</rect></_>
    <_>
      <rect>
        0 0 16 16 35</rect></_></features></cascade>
</opencv_storage>
